0.000000000000000000e+00 0.000000000000000000e+00 0.000000000000000000e+00 0.000000000000000000e+00 0.000000000000000000e+00 0.000000000000000000e+00 0.000000000000000000e+00 0.000000000000000000e+00 0.000000000000000000e+00 0.000000000000000000e+00
0.000000000000000000e+00 0.000000000000000000e+00 0.000000000000000000e+00 0.000000000000000000e+00 0.000000000000000000e+00 0.000000000000000000e+00 0.000000000000000000e+00 0.000000000000000000e+00 0.000000000000000000e+00 0.000000000000000000e+00
0.000000000000000000e+00 0.000000000000000000e+00 0.000000000000000000e+00 0.000000000000000000e+00 0.000000000000000000e+00 0.000000000000000000e+00 0.000000000000000000e+00 0.000000000000000000e+00 0.000000000000000000e+00 0.000000000000000000e+00
0.000000000000000000e+00 0.000000000000000000e+00 0.000000000000000000e+00 0.000000000000000000e+00 0.000000000000000000e+00 0.000000000000000000e+00 0.000000000000000000e+00 0.000000000000000000e+00 0.000000000000000000e+00 0.000000000000000000e+00
0.000000000000000000e+00 0.000000000000000000e+00 0.000000000000000000e+00 0.000000000000000000e+00 0.000000000000000000e+00 0.000000000000000000e+00 0.000000000000000000e+00 0.000000000000000000e+00 0.000000000000000000e+00 0.000000000000000000e+00
0.000000000000000000e+00 0.000000000000000000e+00 0.000000000000000000e+00 0.000000000000000000e+00 0.000000000000000000e+00 0.000000000000000000e+00 0.000000000000000000e+00 0.000000000000000000e+00 0.000000000000000000e+00 0.000000000000000000e+00
0.000000000000000000e+00 0.000000000000000000e+00 0.000000000000000000e+00 0.000000000000000000e+00 0.000000000000000000e+00 0.000000000000000000e+00 0.000000000000000000e+00 0.000000000000000000e+00 0.000000000000000000e+00 0.000000000000000000e+00
0.000000000000000000e+00 0.000000000000000000e+00 0.000000000000000000e+00 0.000000000000000000e+00 0.000000000000000000e+00 0.000000000000000000e+00 0.000000000000000000e+00 0.000000000000000000e+00 0.000000000000000000e+00 0.000000000000000000e+00
0.000000000000000000e+00 0.000000000000000000e+00 0.000000000000000000e+00 0.000000000000000000e+00 0.000000000000000000e+00 0.000000000000000000e+00 0.000000000000000000e+00 0.000000000000000000e+00 0.000000000000000000e+00 0.000000000000000000e+00
0.000000000000000000e+00 0.000000000000000000e+00 0.000000000000000000e+00 0.000000000000000000e+00 0.000000000000000000e+00 0.000000000000000000e+00 0.000000000000000000e+00 0.000000000000000000e+00 0.000000000000000000e+00 0.000000000000000000e+00
0.000000000000000000e+00 0.000000000000000000e+00 0.000000000000000000e+00 0.000000000000000000e+00 0.000000000000000000e+00 0.000000000000000000e+00 0.000000000000000000e+00 0.000000000000000000e+00 0.000000000000000000e+00 0.000000000000000000e+00
0.000000000000000000e+00 0.000000000000000000e+00 0.000000000000000000e+00 0.000000000000000000e+00 0.000000000000000000e+00 0.000000000000000000e+00 0.000000000000000000e+00 0.000000000000000000e+00 0.000000000000000000e+00 0.000000000000000000e+00
-2.702738292036792027e-05 -2.028148713280811521e-05 -9.522133262132275854e-04 -1.068948858414118310e-04 -1.322926920470656256e-02 -1.185222665655226811e-04 1.619826136202072789e-02 -2.534877243314040136e-05 -2.430050052775818605e-04 -1.475699030930107021e-03
-1.225500102993320767e-04 -7.485455716270017110e-05 -1.387379073463925047e-03 -2.815292383906109973e-04 -2.912686077575810800e-02 -2.917225061173472607e-04 3.524852356426095429e-02 -9.293090044063068785e-05 -5.830334673407897104e-04 -3.287663035287651837e-03
-7.051797484086856703e-05 -3.387956449698994939e-05 7.763395747313219094e-04 -5.282090870101029774e-05 -1.772960539338045978e-04 -3.583200748025422102e-05 -2.449105054086012393e-04 -4.164778782504104023e-05 -5.668235690804535818e-05 -6.275241513670868515e-05
-2.938248951702871641e-06 -1.411648520707918581e-06 3.234748228047187272e-05 -2.200871195875426108e-06 -7.387335580575195809e-06 -1.493000311677252715e-06 -1.020460439202503865e-05 -1.735324492710042355e-06 -2.361764871168555885e-06 -2.614683964029539841e-06
0.000000000000000000e+00 0.000000000000000000e+00 0.000000000000000000e+00 0.000000000000000000e+00 0.000000000000000000e+00 0.000000000000000000e+00 0.000000000000000000e+00 0.000000000000000000e+00 0.000000000000000000e+00 0.000000000000000000e+00
0.000000000000000000e+00 0.000000000000000000e+00 0.000000000000000000e+00 0.000000000000000000e+00 0.000000000000000000e+00 0.000000000000000000e+00 0.000000000000000000e+00 0.000000000000000000e+00 0.000000000000000000e+00 0.000000000000000000e+00
0.000000000000000000e+00 0.000000000000000000e+00 0.000000000000000000e+00 0.000000000000000000e+00 0.000000000000000000e+00 0.000000000000000000e+00 0.000000000000000000e+00 0.000000000000000000e+00 0.000000000000000000e+00 0.000000000000000000e+00
0.000000000000000000e+00 0.000000000000000000e+00 0.000000000000000000e+00 0.000000000000000000e+00 0.000000000000000000e+00 0.000000000000000000e+00 0.000000000000000000e+00 0.000000000000000000e+00 0.000000000000000000e+00 0.000000000000000000e+00
0.000000000000000000e+00 0.000000000000000000e+00 0.000000000000000000e+00 0.000000000000000000e+00 0.000000000000000000e+00 0.000000000000000000e+00 0.000000000000000000e+00 0.000000000000000000e+00 0.000000000000000000e+00 0.000000000000000000e+00
0.000000000000000000e+00 0.000000000000000000e+00 0.000000000000000000e+00 0.000000000000000000e+00 0.000000000000000000e+00 0.000000000000000000e+00 0.000000000000000000e+00 0.000000000000000000e+00 0.000000000000000000e+00 0.000000000000000000e+00
0.000000000000000000e+00 0.000000000000000000e+00 0.000000000000000000e+00 0.000000000000000000e+00 0.000000000000000000e+00 0.000000000000000000e+00 0.000000000000000000e+00 0.000000000000000000e+00 0.000000000000000000e+00 0.000000000000000000e+00
0.000000000000000000e+00 0.000000000000000000e+00 0.000000000000000000e+00 0.000000000000000000e+00 0.000000000000000000e+00 0.000000000000000000e+00 0.000000000000000000e+00 0.000000000000000000e+00 0.000000000000000000e+00 0.000000000000000000e+00
0.000000000000000000e+00 0.000000000000000000e+00 0.000000000000000000e+00 0.000000000000000000e+00 0.000000000000000000e+00 0.000000000000000000e+00 0.000000000000000000e+00 0.000000000000000000e+00 0.000000000000000000e+00 0.000000000000000000e+00
0.000000000000000000e+00 0.000000000000000000e+00 0.000000000000000000e+00 0.000000000000000000e+00 0.000000000000000000e+00 0.000000000000000000e+00 0.000000000000000000e+00 0.000000000000000000e+00 0.000000000000000000e+00 0.000000000000000000e+00
0.000000000000000000e+00 0.000000000000000000e+00 0.000000000000000000e+00 0.000000000000000000e+00 0.000000000000000000e+00 0.000000000000000000e+00 0.000000000000000000e+00 0.000000000000000000e+00 0.000000000000000000e+00 0.000000000000000000e+00
0.000000000000000000e+00 0.000000000000000000e+00 0.000000000000000000e+00 0.000000000000000000e+00 0.000000000000000000e+00 0.000000000000000000e+00 0.000000000000000000e+00 0.000000000000000000e+00 0.000000000000000000e+00 0.000000000000000000e+00
0.000000000000000000e+00 0.000000000000000000e+00 0.000000000000000000e+00 0.000000000000000000e+00 0.000000000000000000e+00 0.000000000000000000e+00 0.000000000000000000e+00 0.000000000000000000e+00 0.000000000000000000e+00 0.000000000000000000e+00
0.000000000000000000e+00 0.000000000000000000e+00 0.000000000000000000e+00 0.000000000000000000e+00 0.000000000000000000e+00 0.000000000000000000e+00 0.000000000000000000e+00 0.000000000000000000e+00 0.000000000000000000e+00 0.000000000000000000e+00
0.000000000000000000e+00 0.000000000000000000e+00 0.000000000000000000e+00 0.000000000000000000e+00 0.000000000000000000e+00 0.000000000000000000e+00 0.000000000000000000e+00 0.000000000000000000e+00 0.000000000000000000e+00 0.000000000000000000e+00
0.000000000000000000e+00 0.000000000000000000e+00 0.000000000000000000e+00 0.000000000000000000e+00 0.000000000000000000e+00 0.000000000000000000e+00 0.000000000000000000e+00 0.000000000000000000e+00 0.000000000000000000e+00 0.000000000000000000e+00
0.000000000000000000e+00 0.000000000000000000e+00 0.000000000000000000e+00 0.000000000000000000e+00 0.000000000000000000e+00 0.000000000000000000e+00 0.000000000000000000e+00 0.000000000000000000e+00 0.000000000000000000e+00 0.000000000000000000e+00
-2.267420295053003214e-06 -1.001359406683029558e-06 -6.541510038445351456e-06 -1.269713954313405263e-06 -1.649355540409595247e-03 -1.226185028140251411e-06 1.667627351199102220e-03 -2.190230642305122223e-06 -1.406613690603867270e-06 -2.368777733964421650e-06
-8.035922884376210369e-05 -3.887384923679228314e-05 -2.642067290657086403e-04 -5.117927979974177199e-05 -1.129301595928635937e-01 -5.039933276169091984e-05 1.136896307408159917e-01 -9.231562663090864729e-05 -5.576199817752368614e-05 -1.263751034362688500e-04
-2.312226825275375290e-04 -1.864252286261448897e-04 -1.303831472924124428e-03 -1.504768290061179309e-04 -3.399749715177540765e-01 -1.465009705447676105e-04 3.428396603580663449e-01 -2.620930930882058442e-04 -1.936794638157866540e-04 -3.904590997795018368e-04
-4.621625243040777039e-04 -3.840129526839782155e-03 -1.983334681883077572e-02 -3.740854831376446582e-04 -6.438500910700543922e-02 -2.969369252738530106e-04 9.132498901585524298e-02 -3.429917951716528169e-04 -1.087833965473412011e-03 -7.024928698188476813e-04
-1.143158557460648411e-03 -3.224119528149820436e-03 -4.546497669833175076e-02 -5.456650760576246904e-04 -4.149353198776669499e-02 -1.014277881732403297e-03 9.629560527941020964e-02 -5.797092465002515009e-04 -1.346859930845397020e-03 -1.483306372565596637e-03
-6.192416617415557982e-03 -2.270492472471311030e-03 -4.436987211156924460e-02 -1.232949425069982579e-03 -1.235224156049597038e-01 -3.681424358301444485e-03 1.940132147199917501e-01 -4.046470262692058138e-03 -2.270752928270214615e-03 -6.426420939242474123e-03
-2.963367208764907008e-03 -1.045260684784824444e-03 -3.509819927196393408e-02 -1.487724596927698841e-03 -1.474801591937913436e-01 -3.668148749881701420e-03 2.162312144423397531e-01 -6.241399249719622490e-03 -2.591143670792173288e-03 -1.565581181571325947e-02
-2.343033526782217681e-03 -1.321320355959679227e-03 -1.119136744874102973e-01 -5.027587075962463778e-03 -3.708069480952241315e-01 -1.700293337279034853e-02 6.531725947827097256e-01 -9.602590540471235558e-02 -4.112562826865060958e-03 -4.461862963700316542e-02
-1.846432474578711897e-03 -1.111904831104601737e-03 -8.485639218510440673e-02 -2.398159710075438520e-03 -2.584483401921185419e-01 -1.460642500720593824e-02 3.903624550987567221e-01 -1.020778434875345940e-02 -3.503551717569796699e-03 -1.338346463224544813e-02
-3.043608079857634558e-03 2.311205242363766066e-01 -2.332856062659237895e-01 -6.531850254579787962e-02 -1.050128331460185305e-01 -5.258478750144846003e-03 1.900960843613787032e-01 -1.955552217751877452e-03 -3.842981091027706728e-03 -3.499046501232839102e-03
1.457755452992818834e-01 3.854770817967888563e-01 -2.816426675569759230e-01 -9.605866347761153612e-02 -2.392594300624010517e-01 -1.176454522879032301e-02 1.599819236913233300e-01 -3.206140934072848701e-03 -5.922718869968896828e-03 -5.338038465757292267e-02
4.117813739250019700e-01 1.178480770197688245e-02 9.390875262496678477e-02 -1.613924768622540529e-02 -4.586866838188612405e-01 -1.190584297576092500e-02 1.206107027517714925e-01 -5.418922761021294221e-03 -7.924547467886974492e-03 -1.380103922939609484e-01
1.977214567899968356e-01 -1.990658460211143857e-02 -1.248055723600007168e-02 -1.363880658228972453e-03 -1.841135856801440762e-01 -4.886811089363928169e-03 9.704905057598767204e-02 -2.815014414060050801e-03 -3.950644660359686755e-03 -6.525342902571616699e-02
-1.976645926915293183e-03 -1.450245505992372530e-03 -4.584670736894802534e-02 -7.135155312496152232e-04 -4.131075190776107436e-02 -1.331830152488541752e-02 1.094396455700447773e-01 -6.774111551790210507e-04 -2.507325559542939244e-03 -1.638741089570948948e-03
-1.321029661009660893e-03 -5.334085809515979985e-04 -3.068583407298735438e-02 -9.158450176630035305e-04 -2.226394793721944709e-02 -1.094901824428779445e-02 7.113594539168473230e-02 -5.376473889222037252e-04 -1.996530523122454041e-03 -1.932683965521273970e-03
-9.553081772630941590e-04 -4.003160177173963508e-04 -6.930628675019768689e-03 -1.133014462129753631e-03 -4.281793566929281009e-02 -5.452262721245071733e-03 6.678777173778459308e-02 -3.518161828818165910e-04 -1.253417012799289782e-03 -7.493072819435655542e-03
-4.534249290173948200e-04 -1.173938377007149262e-04 -1.094916705271643635e-03 -2.627541485920542683e-04 -1.210981135358424332e-02 -1.316509900366471478e-03 1.658791057329103008e-02 -1.166602548357577047e-04 -2.638528680679816125e-04 -8.525865758547192816e-04
-1.644833187879273884e-04 -5.869706991545940548e-05 -1.002581832216916258e-03 -7.695805217670648169e-05 -7.558849993403113365e-02 -1.072237166468211639e-04 7.784222987408896677e-02 -9.413610182705223716e-05 -2.140073899378781830e-04 -5.356424585489114260e-04
-4.213886333564789417e-05 -2.630496472408041061e-05 -7.457727112820447795e-04 -3.258886016180678578e-05 -1.003722335395723086e-01 -5.389673471070241995e-05 1.021085736128577448e-01 -7.704003852081793156e-05 -1.770713511906023686e-04 -5.815265493598328677e-04
0.000000000000000000e+00 0.000000000000000000e+00 0.000000000000000000e+00 0.000000000000000000e+00 0.000000000000000000e+00 0.000000000000000000e+00 0.000000000000000000e+00 0.000000000000000000e+00 0.000000000000000000e+00 0.000000000000000000e+00
0.000000000000000000e+00 0.000000000000000000e+00 0.000000000000000000e+00 0.000000000000000000e+00 0.000000000000000000e+00 0.000000000000000000e+00 0.000000000000000000e+00 0.000000000000000000e+00 0.000000000000000000e+00 0.000000000000000000e+00
0.000000000000000000e+00 0.000000000000000000e+00 0.000000000000000000e+00 0.000000000000000000e+00 0.000000000000000000e+00 0.000000000000000000e+00 0.000000000000000000e+00 0.000000000000000000e+00 0.000000000000000000e+00 0.000000000000000000e+00
0.000000000000000000e+00 0.000000000000000000e+00 0.000000000000000000e+00 0.000000000000000000e+00 0.000000000000000000e+00 0.000000000000000000e+00 0.000000000000000000e+00 0.000000000000000000e+00 0.000000000000000000e+00 0.000000000000000000e+00
0.000000000000000000e+00 0.000000000000000000e+00 0.000000000000000000e+00 0.000000000000000000e+00 0.000000000000000000e+00 0.000000000000000000e+00 0.000000000000000000e+00 0.000000000000000000e+00 0.000000000000000000e+00 0.000000000000000000e+00
0.000000000000000000e+00 0.000000000000000000e+00 0.000000000000000000e+00 0.000000000000000000e+00 0.000000000000000000e+00 0.000000000000000000e+00 0.000000000000000000e+00 0.000000000000000000e+00 0.000000000000000000e+00 0.000000000000000000e+00
0.000000000000000000e+00 0.000000000000000000e+00 0.000000000000000000e+00 0.000000000000000000e+00 0.000000000000000000e+00 0.000000000000000000e+00 0.000000000000000000e+00 0.000000000000000000e+00 0.000000000000000000e+00 0.000000000000000000e+00
1.781882915507625176e-02 -5.284420497163337483e-06 -8.653686670516975011e-05 -1.114395042424661629e-05 -1.559963855902430502e-02 -4.330850218095393545e-04 1.169363008611356506e-03 -1.617773562762925971e-03 -1.451369363161840005e-05 -1.220216088832641859e-03
6.333182157308796766e-03 -5.213910133713296334e-05 -1.150231771081668608e-03 -6.523419393235686012e-05 -7.671325220566948926e-03 -7.686471446295735778e-05 3.964864081568862143e-03 -6.205611684545407321e-04 -1.525470146705925690e-04 -5.091430543714574103e-04
-2.758082234463456813e-04 -4.177070928846040514e-05 9.722092423645687645e-04 -1.523092522662766561e-03 -6.193859185781178112e-03 -4.915437237549127246e-05 7.330325362397144794e-03 -4.834656906417733922e-05 -1.076498324254769227e-04 -6.285318971783846072e-05
-1.371873024618802395e-01 -3.545463660294955214e-04 4.726804045372999877e-03 -8.245379724807586075e-03 -2.069538875439067283e-01 -4.384040353614322466e-04 3.504501091667352464e-01 -6.771446281756214039e-04 -7.097197662442812811e-04 -6.105286857023165892e-04
-1.434959023413404366e-01 -2.392325813297342067e-03 -5.429151390304221350e-03 -1.457351566707909725e-02 -3.824156625103150575e-01 -2.067363129354119443e-03 5.600649701445384876e-01 -5.489848071012137440e-03 -1.986466937588727243e-03 -2.214734284247263200e-03
-7.281918750063330614e-02 -1.270729782776288119e-01 1.128632029507535550e-01 -6.173107856064054266e-02 -3.134930816363373229e-01 -1.110553806597197775e-02 4.880226174697048780e-01 -3.965577301114978082e-03 -7.246430137426283780e-03 -3.451948940704536225e-03
-6.563768665834772420e-02 -2.668615944672009244e-01 3.022773033113900776e-01 -1.024693711310890876e-01 -2.756828437680445831e-01 -3.595602576129391936e-02 4.893048362730607059e-01 -8.241812997669680646e-03 -2.803080287256319234e-02 -8.702001928241762108e-03
-5.426964928162016089e-02 -1.052336480111053796e-01 2.315586117956572876e-01 -1.387775382753210218e-01 -7.430008692276550697e-01 -6.108085219761747592e-02 1.004789969895071966e+00 -3.469090757158803384e-02 -7.075411545506489486e-02 -2.854100167075847294e-02
-1.781210089600527291e-01 -1.202810752053742743e-01 4.743868311423887763e-01 -1.308351077006266738e-01 -5.581037394799636120e-01 -1.082218020553545601e-01 8.994596950040846250e-01 -8.155984108627678530e-02 -1.436662126832934649e-01 -5.305773897553185681e-02
-3.343504450444725884e-01 -2.141986369611379500e-03 8.739767438304775204e-01 -9.775381938126873060e-02 -5.448588936029513663e-01 -2.490340977452792093e-01 7.422274725031644538e-01 -1.489116735804144331e-01 -1.588051943670394373e-01 -8.034810624260341205e-02
-2.632250573354337209e-01 5.370850833704164939e-01 3.565104044976202258e-01 1.789034338677724517e-02 -3.402091665838591905e-01 -3.448588325616461225e-01 3.523976116145722259e-01 -3.893650769008522722e-02 -1.915558291447627959e-01 -8.509804955359961953e-02
-1.614082207377436351e-01 5.372150696878146003e-02 2.947405770492183552e-01 2.380166773621660015e-02 -4.250550281729731372e-01 -4.197338429338614008e-01 9.298941070911167506e-01 -5.065817730329334745e-02 -1.507959235749060933e-01 -9.450666612255591292e-02
-2.752642844047851201e-01 4.657973579068957481e-01 4.534183130293822916e-01 -2.276385882062069710e-01 -5.682540751089693032e-01 -2.052868667205059172e-01 6.721842656598451260e-01 -6.878013967166617115e-02 -1.566540529002109217e-01 -8.952192958377931664e-02
-2.450657320290031971e-01 6.287205932286052956e-01 3.654891518698561437e-01 1.801169888788096626e-02 -6.684598776537729048e-01 -5.798633049637979403e-02 3.143453698040250543e-01 -5.028945423156037237e-02 -2.006454279790656492e-01 -1.041199914005828536e-01
-2.791551716911322978e-01 3.269383762517210079e-01 2.120650922823807960e-01 4.169532141347635779e-02 -3.290917968913075753e-01 1.940226005452960478e-01 1.430842274374738432e-01 -3.099555590234369384e-02 -2.124303237081207330e-01 -6.613276973744430798e-02
-1.552050077596502653e-01 -2.303401485023304565e-03 3.155773522830598865e-02 2.355272500168309122e-02 -3.171184918884679127e-01 -5.867045184026586230e-02 7.374095329097991591e-01 -1.859699640711330593e-02 -1.871371235209004225e-01 -5.348852023836613706e-02
-8.518892240219289036e-02 2.838796120801224676e-01 -4.337235251788268409e-01 -2.573191915113219944e-02 -2.333031783804432324e-01 -6.532347876590911817e-03 7.211543581311791185e-01 -1.295087920519674175e-02 -1.642656114419979441e-01 -4.333758657492007421e-02
-8.316225167216641234e-02 8.064099903485637266e-02 -1.868003106926610923e-01 -2.396560907763020665e-02 -2.644819071619777806e-01 -2.733923886959791494e-01 8.053333741000547885e-01 -7.444710797575939537e-03 -2.976583521207453939e-02 -1.696135982484575644e-02
-3.922665108468740419e-02 -6.154813620059939455e-03 -9.185259446770750735e-02 -3.566019037453388441e-02 -2.584777053908854927e-01 -2.370295677546411517e-01 7.111659793318794165e-01 -4.298546752460898589e-03 -2.861619933809553956e-02 -9.849710548807363505e-03
-8.459412402880707449e-03 -5.256779515230524530e-03 -6.090314198443731036e-02 -2.312907547977726894e-02 -2.361354763283606273e-01 -1.054235278964540390e-01 4.693244272632600134e-01 -2.214179347752716961e-03 -2.406108794785306523e-02 -3.741746360514158244e-03
-3.304417239729803748e-03 -2.653810403476724190e-03 3.986575738962954557e-02 -1.985997529698168337e-03 -2.190883832888663729e-01 -1.529368579905254211e-01 3.952630488111240070e-01 -7.754098896909768310e-04 -5.289705194427177237e-02 -1.486877914494032530e-03
-1.054816103314139882e-03 -7.908610252927734258e-04 1.992784277592107856e-01 -7.363622376437378670e-04 -3.393645309059530046e-02 -8.948275448226387929e-02 -4.911606157673092943e-02 -2.866916839237409879e-04 -2.349895977151266260e-02 -3.754677879333448605e-04
-1.351826642829628865e-04 -5.517274386303406923e-05 1.212962315483862574e-01 -6.674842631470160399e-05 -1.009085599592000676e-03 -4.746853336770544274e-03 -1.140921049878160232e-01 -5.524058611882076133e-05 -1.053082604699463786e-03 -8.276059892860465573e-05
0.000000000000000000e+00 0.000000000000000000e+00 0.000000000000000000e+00 0.000000000000000000e+00 0.000000000000000000e+00 0.000000000000000000e+00 0.000000000000000000e+00 0.000000000000000000e+00 0.000000000000000000e+00 0.000000000000000000e+00
0.000000000000000000e+00 0.000000000000000000e+00 0.000000000000000000e+00 0.000000000000000000e+00 0.000000000000000000e+00 0.000000000000000000e+00 0.000000000000000000e+00 0.000000000000000000e+00 0.000000000000000000e+00 0.000000000000000000e+00
0.000000000000000000e+00 0.000000000000000000e+00 0.000000000000000000e+00 0.000000000000000000e+00 0.000000000000000000e+00 0.000000000000000000e+00 0.000000000000000000e+00 0.000000000000000000e+00 0.000000000000000000e+00 0.000000000000000000e+00
0.000000000000000000e+00 0.000000000000000000e+00 0.000000000000000000e+00 0.000000000000000000e+00 0.000000000000000000e+00 0.000000000000000000e+00 0.000000000000000000e+00 0.000000000000000000e+00 0.000000000000000000e+00 0.000000000000000000e+00
-9.398550347128718180e-06 8.144430564427533603e-03 -6.662636365613925195e-04 -2.554097516503490658e-04 -8.834049946318457447e-06 -1.018908687028371649e-04 -4.083321835002334636e-03 -8.284293975759428024e-06 -3.001065424571609450e-03 -9.962153669810970156e-06
4.760779683793592287e-02 1.905159138841296335e-03 -6.714915022656476641e-04 -1.320430832497340745e-04 -4.532629578721419222e-02 -3.540867474179163442e-03 9.219054096010471239e-03 -4.712988956796332687e-03 -7.836745659833081181e-04 -3.564648703099249950e-03
4.342766470336264259e-04 -9.252189732597328198e-05 -6.342685828277908749e-03 -3.116030767584806668e-02 -1.690851804714648549e-02 -3.207658792626903298e-03 6.225670361468828296e-02 -3.027030486894479160e-03 -6.515449808737368287e-04 -1.300712552728504117e-03
-2.029350810567155383e-01 -2.264327088413492159e-02 -6.771481230541370744e-02 4.840018977592333016e-01 -2.891668701297184230e-02 -2.400054039200919531e-01 8.868787822785216546e-02 -2.496940409682171878e-03 -4.541264169256840032e-03 -3.436316228818930840e-03
-3.524558874363199479e-01 -2.975423206109647622e-03 -1.823408843736919194e-02 2.882361660419813232e-01 -3.497432299423546276e-01 -1.130750304038418835e-01 5.704503287117624888e-01 -7.025407953188633932e-03 -7.717281853532420403e-03 -7.460145521027646866e-03
-3.744586108198684760e-01 -4.417668063348208218e-02 1.465323282566350152e-02 4.367172515663003685e-01 -1.892761687033825135e-01 -4.020991593441423234e-02 3.003697085440387715e-01 -4.265342593809093308e-02 -5.088958875610726657e-02 -1.007580215065685854e-02
-1.175079980883071279e-01 -1.951384378269374331e-01 4.726205939898445174e-02 4.980576439090306229e-01 -6.005113056073800859e-01 -6.532423432526039686e-02 5.048909239557608508e-01 -7.087635589672579284e-02 1.467259458136647467e-02 -1.552489010053144901e-02
-1.145478566615035776e-01 -4.481305694621224300e-01 5.520239249521899927e-01 3.402772734375550390e-01 -1.013589205570854412e+00 1.072255787606265914e-01 5.848563703115955414e-01 -1.196286454752919226e-01 1.526358056768806759e-01 -4.112267596907751011e-02
1.863066819273349883e-01 -5.496463649327681944e-01 2.215821494274112236e-01 3.687323169639060150e-01 -6.375373767397579661e-01 6.401464105967177853e-02 5.345473522171496628e-01 -3.351498738527229904e-01 2.552937674616494457e-01 -1.081432935318740324e-01
8.667715581484125575e-02 -8.047078112125024552e-01 8.292134593466180537e-01 8.924120761086005160e-01 -6.609539778558807255e-01 -3.649683924877653030e-01 4.184855385847956466e-01 -4.791450803656239210e-01 2.791016821411665405e-01 -1.961146500742516063e-01
-4.675517113793653534e-01 9.509449768248842694e-02 5.585679652411128515e-01 6.935986670908922402e-01 -1.129611101224548220e+00 3.858229164181882775e-01 1.738560499752907496e-01 -2.741401405867393559e-01 3.479262782895956030e-01 -3.835634215069207986e-01
1.651527370893309532e-01 2.527138676272314144e-01 5.704211747819691869e-01 1.420873970054032376e-01 -1.784797837528921960e+00 1.989460750872381889e-01 7.356391769351451337e-01 -2.582420432793733345e-01 5.200281949144393012e-01 -5.419487426324592905e-01
5.182748834022613549e-01 -2.647982892994876214e-01 7.184037706982258076e-01 9.020868114541704674e-01 -8.982525657934340435e-01 1.799131154724527837e-01 1.562599462234227632e-01 -2.878678099623984132e-01 -3.713602684833786638e-01 -6.526595937118385704e-01
-1.925777998539302538e-01 -1.147682030515650015e-01 1.429910143372589704e-01 1.205947366846505053e+00 -3.790840520589448537e-01 1.666247363040905538e-02 4.142160164763956653e-01 -3.750615603178295010e-01 5.594081380581811952e-02 -7.742660698141167197e-01
-6.550532721070861930e-02 3.098127953452810002e-01 2.483760540239072778e-01 3.159765016949842575e-01 -1.947077786454304293e-01 2.587129203919485976e-01 2.935578424695655664e-01 -3.204077004062608203e-01 -1.607756668194827709e-01 -6.850396408438048645e-01
2.693293942349215264e-01 -2.814249801547509533e-02 1.182771771553400159e-01 -1.816235616255533758e-01 -3.990492947670180590e-01 3.964353889706658252e-01 -1.830838683749502482e-01 -1.374054506276865817e-01 5.422656244964030314e-01 -3.970029114466443465e-01
-4.238188567193274525e-01 -5.147685155122271317e-01 -1.584350077492622799e-01 5.839919776041480048e-01 -5.899892017948955569e-01 3.032871212439204323e-01 5.187837654398462783e-01 -1.095719622153338707e-01 4.247800489959294712e-01 -3.425936929280148230e-02
-2.006513715986387170e-01 -2.642449279486656921e-02 -7.658994090874857164e-02 3.624575371927872824e-01 -2.059408797507353006e-01 2.888672304569964711e-01 5.377737418724348739e-01 -7.883178400377520434e-02 -4.296238896522722728e-01 -1.710361508131825192e-01
-2.214781341951994331e-01 -4.225026692325513644e-01 -1.333482570991625649e-01 1.001474289186583322e+00 -3.566166425319665101e-01 4.324995241400211854e-01 -1.055945646495886486e-01 -1.753864657196924082e-01 8.910465046498228237e-02 -1.081517303634240978e-01
-4.636152165517924972e-01 -4.236607896511614957e-01 -3.256151477498790414e-01 -5.966038526091956701e-02 7.881933613682055514e-03 8.008676546477384584e-01 1.200847433512274159e-01 -1.205426741726998013e-01 5.345185087759494191e-01 -7.025862700214707823e-02
-2.767669168739937957e-01 -1.400918935367301554e-01 -4.824034307728622961e-01 -2.234645342684609681e-01 7.349408202968865655e-02 4.345707875079806159e-01 4.340218192127287544e-01 -1.868835043489154579e-02 2.243250179594197813e-01 -2.499658082287981378e-02
-1.415405399249033136e-01 -1.316511637204229590e-01 -3.236307462143027114e-01 -2.517239248896197545e-01 -7.083949120002221156e-02 3.020278854019384923e-02 7.388679863197741282e-01 -3.916640291907308100e-03 1.598929941613373706e-01 -5.661262780126554740e-03
-6.669441875768379602e-02 -1.535559306545035974e-01 5.539339027369848123e-02 -8.946245683652316594e-02 -2.342417068419851145e-02 -6.591692469813843769e-02 4.580874325301625971e-01 -1.433097953102816435e-03 -1.106147160728211953e-01 -2.379107146890231846e-03
-3.323741468102698812e-03 -6.210565224784631716e-02 1.156202530258110539e-01 -5.876316635255640543e-04 -1.568677250805110496e-03 7.396163434070357479e-02 -1.026862362507764831e-01 -2.288106925794918304e-04 -1.873456735347960381e-02 -3.465704393998299271e-04
-5.122005921083943279e-03 -1.131046024671739231e-01 -1.858979691376063358e-03 -5.565104717417193738e-05 -1.185885498981681515e-03 4.361876083175266622e-02 1.048503284055202073e-01 -2.704152951895507869e-05 -2.707706490678493325e-02 -3.785817517903360791e-05
0.000000000000000000e+00 0.000000000000000000e+00 0.000000000000000000e+00 0.000000000000000000e+00 0.000000000000000000e+00 0.000000000000000000e+00 0.000000000000000000e+00 0.000000000000000000e+00 0.000000000000000000e+00 0.000000000000000000e+00
0.000000000000000000e+00 0.000000000000000000e+00 0.000000000000000000e+00 0.000000000000000000e+00 0.000000000000000000e+00 0.000000000000000000e+00 0.000000000000000000e+00 0.000000000000000000e+00 0.000000000000000000e+00 0.000000000000000000e+00
-8.657030239582731116e-06 -5.421807935654366835e-06 -5.359299942841606179e-05 1.679513955072111883e-04 -6.952183174818966788e-06 -6.051982733775973760e-05 -7.647390076025902943e-06 -5.553300718185754438e-06 -1.336295584347928916e-05 -6.243900753288621532e-06
-9.154060882019219865e-05 2.789668274101343021e-02 -4.822633847529476069e-03 1.496720856852037755e-02 -7.012358855353409415e-05 -1.496293667800938434e-02 -1.401375275758812503e-02 -4.742492802696535875e-05 -8.782655918471335768e-03 -7.282298253477795919e-05
1.168223209692482778e-04 6.717712245880994200e-03 -3.703326198144576108e-03 5.784828592206710252e-02 -4.297295553220109826e-04 -4.113085360456279760e-02 -1.887750997863959015e-02 2.898973636941548117e-03 -3.270926017804980535e-03 -1.694487713850005204e-04
-4.270568003049810685e-02 5.231240712353861511e-03 -1.235361494855292258e-01 3.628191882592212564e-02 1.450633418433303345e-01 -8.515376943551285216e-02 8.731344030474200157e-02 -9.549656993848200034e-03 -1.183753036823976396e-02 -1.107155372720295241e-03
-2.682358868525117623e-01 -1.380639511229259098e-01 1.487637276233134132e-01 8.167197180046983362e-01 2.290827781344810174e-02 -6.765706424762127913e-01 1.662610584483289744e-01 -1.093723402362450046e-02 -4.479026670044549546e-02 -1.605480071406824999e-02
-3.149715053736334980e-01 -1.338295963242550624e-01 7.995614000133079990e-01 5.321140934337983408e-01 -3.559446307112330010e-01 -4.361190462772037701e-01 4.183786613678653482e-02 -6.946126576840508382e-02 -4.279936011583593963e-02 -2.038795501332559684e-02
-3.639570455700285589e-01 -2.382871205954382732e-01 3.351362455683346564e-01 3.537326057145199765e-01 1.909301409613392564e-01 -1.285757671092558063e-01 -4.930613792688470776e-02 -2.529439353217983188e-01 2.056848868573920019e-01 -5.241387257818069106e-02
-9.414899105236027022e-02 4.652827554854618852e-01 5.903922674230868139e-01 6.017990373391830516e-01 -4.394817720756901136e-01 -5.725058604013014696e-01 -8.339152487897537325e-03 -4.309351032851543861e-01 1.110883594400049849e-02 -1.231720168893291750e-01
5.944831479656585982e-01 2.795077565957259091e-01 1.046144749697583309e+00 5.456254621703264807e-01 -7.493052201361912745e-01 -4.112924884345521281e-01 -5.932758595997348339e-01 -7.713241070626080109e-01 3.704244052303285462e-01 -3.109878464265335984e-01
-4.351038397071706199e-02 2.798668516459187350e-01 2.419506041608347480e-01 8.017562278293223210e-01 -4.868163316136239205e-01 -6.795389284951908193e-02 1.608778780695401256e-01 -9.908388616806106386e-01 4.483199243386592481e-01 -3.436520159298077082e-01
7.327730636492421068e-01 -3.967158945545283810e-01 2.512460873933878291e-01 3.283679570676611426e-01 -2.590922010820676524e-01 5.329662346415557916e-01 3.342044795749155722e-02 -1.006413694607222187e+00 8.449489284102408571e-02 -3.010468933065443276e-01
-4.406123570146810442e-01 1.286696114698448190e-01 5.863828827731659699e-01 4.339402943289099590e-01 -2.471423932054516992e-01 1.911964549320977966e-02 -4.714762957965859536e-01 -6.352227724662450337e-01 8.367917989920360400e-01 -2.104504145742033261e-01
3.584984540240190309e-01 4.941841320712483387e-01 -6.741806580381848324e-02 5.112851329501655329e-01 8.021318220276600630e-02 -2.094570452127889337e-01 -1.434018418524206917e-01 -5.817160100313126803e-01 -1.483228942431979724e-01 -2.938650441046617989e-01
-9.791978927434856483e-02 3.596349871675601495e-01 7.384210164740525606e-01 1.346886395440064221e-01 3.150657998250669389e-02 -1.298813593130651589e-01 -2.276283445857046617e-01 -8.388996966595606564e-01 3.964672011146079811e-01 -3.663892344500554454e-01
4.296798663755496683e-01 -2.233161548109368899e-01 -2.192060943040457788e-01 6.746480356649421362e-01 -4.533987954018341426e-01 5.828832978171311074e-01 -7.677762884875032334e-01 -9.385497859541623855e-01 5.626163716899045264e-01 3.524195474109515502e-01
-2.346020977178109868e-01 3.879951713068269248e-02 5.444669231617336180e-01 4.151991985983614630e-01 -3.748995454116118564e-01 -4.934126315525842743e-02 3.184120616782267765e-01 -7.999045186496035464e-01 3.280705143828769876e-01 -1.862007900176005648e-01
4.265998167539254426e-01 -1.932066591524151944e-01 -2.530116222738136300e-01 -8.143652715974479539e-02 5.122591569482722873e-01 1.364531840281484609e-01 7.676872826286686158e-02 -6.698887289812506252e-01 3.752240821806702709e-01 -3.297614306066627976e-01
7.249793755115563343e-02 -2.793993379909621710e-01 2.691536467079746475e-01 7.304887273560674021e-01 1.145852229990726306e-01 6.561855192708596629e-01 -6.654303227048964375e-01 -5.290509933030074219e-01 9.639445192429167697e-02 -4.654248518105585930e-01
5.083357018135981065e-02 2.992812897883118661e-01 -1.870936515949183088e-01 1.538468756932440673e-01 2.362954451574288128e-01 2.708548430722321765e-01 -3.005581410381186896e-02 -3.249343635089559923e-01 2.259686701029185174e-01 -6.949968647878079775e-01
1.931891150875028329e-01 3.662115177253523479e-02 5.339528410314054591e-02 4.764645104228538292e-02 5.769970860965669690e-01 -6.200831048282302582e-01 5.617693401932401243e-02 -3.297061427824948820e-01 2.872871184543714373e-01 -3.015238929650034261e-01
-2.810331623109095789e-01 -1.631070261226436335e-01 -1.323653016986251485e-01 -2.942998065084489467e-01 7.138355610114645033e-01 7.390161115167876993e-01 1.085472261965651254e-02 2.157847434776730133e-02 -1.680979980946952293e-02 -5.976697730455817759e-01
2.993184638286562338e-01 -3.875901397577324325e-01 -6.759629650010956503e-01 -5.050315340916734508e-01 1.025430252640319839e+00 -2.040695905860480941e-01 3.825833249633960875e-01 -1.078281593553862966e-01 5.077412718731284524e-01 -3.345909245135645360e-01
-1.579149409252436076e-01 -5.262527961612563088e-01 -4.932443772684839689e-01 -5.305249493441936970e-01 8.894601846822531854e-01 6.254876374666920036e-01 1.126086273708701152e-01 -4.123089131586881589e-02 2.046768558553188067e-01 -8.306535036008505513e-02
-3.216749578271786980e-01 -8.253766256952350666e-01 -3.712283633258081084e-01 -8.444173297086898788e-02 5.469910990714198507e-01 1.274812770718251498e+00 -4.487959110322660705e-01 -1.606716064848191794e-02 2.708073018977744106e-01 -2.502642018760891165e-02
-8.238923802561361198e-02 -4.714316583532754956e-01 4.474817377018131676e-02 -7.221031219805951369e-03 -1.599169225069607403e-01 4.883902453281331879e-01 -1.934518127256601716e-01 -3.286964749928601281e-03 3.938193758034660430e-01 -9.260167320535946447e-03
-2.694109573571353000e-02 -8.301759329599858739e-02 -2.763634070471759213e-02 -6.714794882641886287e-04 -8.832774773073646946e-02 1.370668538357113497e-01 -8.095036334228793151e-02 -7.716982925891024926e-04 1.757490599556393862e-01 -4.499595201043296057e-03
-2.580567125213166849e-04 -5.759305191030293647e-02 -2.645554571858015763e-02 -8.504873377344286168e-05 -1.022728569930100861e-02 -2.046965298961960639e-02 9.434763988588103223e-02 -6.907531359714033311e-05 2.142795926433383943e-02 -6.178820725192061799e-04
0.000000000000000000e+00 0.000000000000000000e+00 0.000000000000000000e+00 0.000000000000000000e+00 0.000000000000000000e+00 0.000000000000000000e+00 0.000000000000000000e+00 0.000000000000000000e+00 0.000000000000000000e+00 0.000000000000000000e+00
0.000000000000000000e+00 0.000000000000000000e+00 0.000000000000000000e+00 0.000000000000000000e+00 0.000000000000000000e+00 0.000000000000000000e+00 0.000000000000000000e+00 0.000000000000000000e+00 0.000000000000000000e+00 0.000000000000000000e+00
-3.806788759111769398e-04 6.350846830865693356e-03 -1.656238976394015967e-03 4.733432318001508897e-03 -2.309608207887500612e-04 -5.341681413619065247e-03 -6.716012030681271696e-04 -6.601740943633775975e-04 -1.979462137031921809e-03 -1.634816276907625013e-04
2.837129688930005791e-03 2.108623756305852154e-03 2.762498483780473010e-02 3.286542872874114729e-01 7.715468240940038386e-03 -2.300132376646106258e-01 -1.028238878841564868e-01 -1.374021906960457007e-02 -1.209146102175308150e-02 -1.027168817126729305e-02
-1.210296514856176453e-01 5.610643744710389069e-02 -3.936471511542692647e-02 4.656379106637267840e-01 2.176306069866682236e-01 -4.740495530120032441e-01 1.467810246855494154e-02 -2.807286991099951223e-02 -6.779421665510435013e-02 -2.374205138690195852e-02
-3.517991662748189419e-01 4.041934911088089222e-01 -1.453995962849575774e-01 8.364148299880703741e-01 -9.211402867353120361e-02 -3.531834387836089717e-01 -3.041106364425567588e-01 4.767293716938346138e-01 -3.977223546062784720e-01 -7.300847172496392756e-02
-1.151911012583606980e-01 3.282712793114886396e-01 7.137824602739095692e-02 3.933104516516019444e-01 -7.122011210857387420e-02 -3.630795163950502613e-01 -7.135815142661980359e-02 3.248155707123628888e-01 -3.257186219587014375e-01 -1.712080445555379249e-01
-8.526713138350547339e-02 -4.573636898281267099e-02 -5.299744841661179207e-01 1.884548613252050586e-01 1.131681136625280193e-01 -9.436444917958808354e-02 -1.125296492045843762e-02 6.023314105595324319e-01 -8.299331935230809532e-03 -1.290596549795536008e-01
2.419373832426803539e-01 -4.338910084384771104e-01 1.506628689557254486e-01 -3.352383077351342999e-01 4.379835752641192425e-04 -1.312230282024299255e-01 1.685236302219745019e-01 5.252144268944385352e-01 -6.790678902975386122e-02 -1.185171594842882314e-01
-8.552868169906539808e-02 -3.846049921401398786e-01 -2.062647152153239127e-01 2.424113646718571158e-01 -1.291211440765185903e-01 2.831162902631238487e-01 -5.191287683668522474e-02 4.370166592049484766e-01 1.997616040946673110e-01 -3.048735082668659890e-01
4.698147249590373109e-01 -3.756114167876268284e-01 1.521101971606237391e-01 1.954360454529545377e-01 -4.991943709474478720e-03 6.606663042785373974e-02 5.827310746051888035e-01 -4.408726787164848893e-01 -2.765354027555524952e-01 -3.681472306365218827e-01
1.604106240080429013e-01 -5.394491921823844072e-01 -1.713583780011979640e-01 1.993843859514939088e-01 1.226176770990632520e-01 3.035460383587251787e-01 -5.484293497285539498e-01 -1.970800053026262599e-01 3.453742964550804984e-01 3.249839033423526646e-01
-3.076575024671953651e-01 -6.621870988617676312e-01 1.845500951821999469e-01 1.052753663776368059e-01 1.395451242532591840e-01 -2.807080495332535119e-01 -1.368821441310111471e-02 3.516909649892767109e-01 2.228483493205797861e-01 2.603309651523646462e-01
-2.175617078887625011e-01 -4.998373591184848697e-01 4.323028816593684209e-01 1.556282228897838960e-01 -3.780433460718078398e-01 1.621725831644093840e-01 -4.157374391481870601e-01 6.465721642368721378e-02 2.385768003281889260e-01 4.578421477617997670e-01
5.441757404159754952e-01 -3.737515549437939177e-01 1.922828003208496561e-01 1.513908083844937857e-01 1.439504819112854273e-01 -8.409700999217518957e-02 3.854147355610516024e-01 -4.186855342990439821e-01 2.229035407418999137e-01 -7.635840081005509372e-01
2.282656832953025849e-01 5.152965439790937463e-01 8.699931287432664806e-02 1.468190955430973693e-02 3.306414198651899672e-01 -3.881318008829685029e-01 -6.606475296875292669e-01 -6.080319091486023897e-01 3.132314639474330087e-01 1.676949062034374105e-01
2.854226954402052652e-01 1.337875316202321030e-01 2.763053086279444459e-01 5.095512026389419358e-01 -1.042732345808780742e-01 1.667417988495427253e-03 1.432684037893528772e-01 -2.392407794232230822e-01 -1.516756497438874751e-01 -8.548128963571889338e-01
2.086659438231055486e-01 -5.173488151178199379e-01 8.636801967924236101e-02 -3.522338950396119439e-01 2.330693684640672003e-01 1.833005248581543734e-01 -1.279856196763845544e-01 -4.809677228316311948e-01 5.573250856414063703e-01 2.098071101994673504e-01
1.878023076289839222e-01 4.500175348593737218e-02 2.141621659416864110e-01 -5.166627899769006549e-02 1.094416189807593254e-01 3.652726554423835204e-01 4.362924845907407145e-01 -7.525608939805866759e-01 -9.410544000869347503e-02 -4.596403730835267321e-01
3.041144962152776687e-03 -4.915500015649310050e-02 1.999155152992669049e-01 3.354629956242919930e-01 3.136106611925574272e-01 -2.813049690509987211e-01 3.741352392581702158e-01 -1.066629494905549258e+00 2.954805046289672443e-01 -1.245565968523719147e-01
-4.068345224970773000e-01 -2.293723719084412790e-02 3.638741251585854430e-02 5.889128662850529744e-02 2.690859809456209173e-01 6.313296422471984526e-01 4.444297504909525687e-01 -1.163043516812338973e+00 3.698239274129914156e-01 -2.171327237408666455e-01
-1.354978249729070494e-01 5.833724743545133373e-01 -1.374416580548270261e-01 1.762183674331922467e-01 -2.423119987869687686e-01 -2.034652256407004992e-02 2.710105983048414213e-01 -4.234262133913774817e-01 1.289289029903318839e-01 -2.005061253127282117e-01
2.852624002843412998e-01 4.278820447856862552e-01 -2.102145161315351618e-01 -2.069481799281872036e-01 2.604756966294633491e-01 3.774864369523853180e-01 -2.963927022343436635e-01 -1.722799244615214331e-01 1.116068510183895329e-01 -5.768781069146772245e-01
-3.523340316303739117e-01 2.781793776269178009e-01 5.187085402797343703e-02 -2.857676086509898794e-01 6.974732533077855345e-01 1.491210790095788274e-01 6.190930621190435801e-01 -2.483790786714935306e-01 -4.760856617165282745e-01 -4.331712454219138753e-01
-2.877655786788338443e-01 -8.853505418967536067e-02 -3.675615743298868421e-01 -2.114390718455058937e-01 3.929789525097201336e-02 7.087739013684976053e-01 -1.844545586371737836e-02 -6.249781686208784326e-02 4.973238881384213217e-01 -2.091511329881842463e-01
-3.366614485217042652e-01 -4.842627107098219086e-01 -9.737156109952800620e-02 -7.698941490140398525e-02 -2.150042001311292528e-01 3.378948183474906330e-01 4.225832348338682265e-01 -1.941965656865621628e-02 5.513071788457739597e-01 -8.207624009488811989e-02
-8.579371723034411035e-02 -2.080169481459187009e-01 -9.629341589187817574e-02 -9.623093494981997328e-03 -1.510409812762747439e-01 3.206251435500177549e-01 2.734840088327751273e-01 -6.879919830820418504e-03 -3.046684867921913356e-02 -5.994227833354853416e-03
-5.500150018821902548e-02 -8.167894467607750286e-02 -3.897494424707591970e-02 -1.073834511102531546e-04 -4.942589337211888241e-04 4.206501967991011642e-02 1.449583609355868108e-01 -2.814226180089312245e-04 -1.041013972328211357e-02 -7.478677800218684266e-05
0.000000000000000000e+00 0.000000000000000000e+00 0.000000000000000000e+00 0.000000000000000000e+00 0.000000000000000000e+00 0.000000000000000000e+00 0.000000000000000000e+00 0.000000000000000000e+00 0.000000000000000000e+00 0.000000000000000000e+00
-1.052990589307864686e-06 -5.677579918444494583e-07 -9.157354548589293593e-07 6.858465374160545385e-06 -5.384407367172310432e-07 -9.768795477629485633e-07 -6.240067227799572630e-07 -5.911824097237812698e-07 -9.891340635016283550e-07 -6.023378576637332581e-07
-7.091628356784573234e-03 -1.117073877446436575e-01 -7.878805352288512087e-02 6.533786739449506942e-02 -6.274573346613293925e-03 -1.820241887238536679e-02 -6.121353797913117907e-03 1.786335059868174868e-01 -1.118653537029396308e-02 -4.599422369793435168e-03
-5.809477230356694180e-03 -7.426345713518946179e-02 -1.624038285653081060e-01 6.737369952570790854e-01 -1.983579212272308656e-01 -5.121229439406367323e-01 -1.305574912589975156e-01 5.345975703023170267e-01 -6.541146614384361901e-02 -5.940798005783357733e-02
-2.670949332234859308e-01 -4.801113737511206181e-02 1.391414880723244596e-01 2.777674180029715001e-01 3.742587881128743299e-01 -2.780744886064304700e-01 -1.139825507938728860e-01 3.547325278520495617e-01 -2.002418042406525489e-01 -2.384953078006660787e-01
9.494037130563130755e-02 1.182343925532461232e-01 -3.293873059545964765e-01 1.682671606666569231e-01 2.862944422158735791e-01 2.948965381431952748e-01 -2.261811769670265260e-01 7.179840008623802339e-01 -3.413460271544215274e-01 -7.837023956709411321e-01
-1.208806054133857028e-01 2.509480891862813090e-01 4.798829284407387652e-01 5.278519531617210658e-01 -1.919973889032385028e-01 2.236639410833001287e-02 -6.915751218602858019e-01 6.892684014993768482e-01 -4.973820218949015493e-01 -4.684826283246369405e-01
3.481071606385947592e-01 -3.455981933774455311e-02 3.051844246851097564e-01 -5.170331577192787548e-02 -2.938322749117429078e-01 8.966245354900802267e-02 -1.350584093283478948e-01 3.913873149629844284e-02 -3.361767242033727315e-02 -2.333212785989118576e-01
1.743284212659336474e-01 -6.072415635443451087e-01 2.261334720236003459e-01 3.712704672943599182e-01 3.179894447428827098e-01 -5.254643169994799301e-01 -7.629208561217587503e-02 5.633066238712217677e-01 -2.348071000156628507e-01 -2.092233630263368727e-01
-7.361957122221971517e-01 -3.396555856494393177e-01 1.472724318544960664e-01 2.396598986189146241e-01 4.888867211303167815e-01 -1.072454625442834375e-01 -3.340791332139896874e-01 3.531938604177661256e-01 2.412678245148107692e-01 4.689515709360542184e-02
1.053653107982993747e-01 -3.908551705881720406e-01 7.036740104622977166e-01 2.404036357281209291e-01 -2.760774921981795083e-01 -1.496403251653460331e-01 -6.591625180602916911e-01 4.692972050781436533e-01 -6.608544786607402355e-02 2.308079181120088752e-02
2.529011887565683070e-01 5.527453894079002727e-02 -4.013365280508101596e-01 2.159904439831251965e-01 -5.393661448712309125e-01 -1.582545360825273195e-01 -6.506330220632603467e-01 9.152253908551576389e-01 -3.697057333621126540e-01 6.799044018942995704e-01
-2.350235124511999563e-01 -2.402731500537271803e-01 2.256938165934495033e-01 -2.056948113971117723e-02 -7.990052894740555522e-02 3.784052700431957822e-02 -6.663756261815810822e-01 3.612846640855769120e-01 5.270757110281232283e-01 9.024758006214515793e-02
3.710855476855561275e-01 -1.928602667141235405e-01 -2.325019062175799900e-01 2.870752627385924072e-01 -7.071826503557635535e-01 -1.423755231839882174e-01 -4.716793893920305791e-01 2.427376090049606083e-01 -9.775291340552823977e-03 8.554766077749250686e-01
2.746406353633021324e-01 -3.519005857733714659e-01 -2.392973568038840315e-01 -1.947503310293988432e-01 -1.508343296804626754e-01 3.513228327161252995e-01 -4.022758474264087059e-01 2.605382741405514735e-01 3.470257128966614674e-02 4.178541372038654944e-01
-4.767676677425179421e-01 -4.842520818907213309e-01 1.481307675102279398e-01 4.082696257269987083e-01 -5.693034578100145682e-01 -1.213144648510931928e-01 5.095463318820245974e-02 3.066579758381379750e-01 3.625025973755933162e-01 3.751220726551775519e-01
2.531113846490309349e-01 -4.861307166824955783e-01 3.574303902548432443e-01 4.092276124413358751e-01 -6.593132060368094294e-01 -9.597769743415537902e-02 -6.112619169567778954e-01 1.355642611636646289e-01 1.414919406046801290e-02 6.832006945408864995e-01
1.776371877904228958e-01 -4.360590607715256195e-01 -2.164490578283278510e-01 -4.190193304599293400e-01 -2.006707008880982135e-01 2.216043812242578515e-01 -3.126057819914881963e-01 3.903087669971459506e-01 3.699183002899378292e-01 4.253352956375981431e-01
3.755501456783927328e-01 1.555662097571918201e-01 -6.638850699388007537e-03 8.265665468011077488e-01 -7.076984187907884305e-01 -3.364365469141872289e-01 -5.088469462018704315e-01 2.478639058109233795e-01 -3.795025770647543206e-01 3.335765316233617606e-01
-4.137609642509191415e-02 -4.580204561112332096e-01 -1.112332956427899699e-01 -3.869945945847594881e-01 -2.908906439529962418e-01 8.994325441925177245e-01 -3.402091433256820285e-01 1.282582338087917828e-01 4.446965316165999993e-01 1.563369204246365662e-01
1.794310968686433638e-01 -9.950458050579676084e-02 -2.145918176741133665e-01 -1.692329352019366906e-01 -3.104112329818289537e-02 6.490791475802927535e-02 -4.155644911285564236e-01 1.538121918034817126e-01 9.300285828539889277e-02 4.387808860930307864e-01
4.839474613475046594e-01 -2.219983143737878223e-02 -5.390941985868778069e-02 2.174739288088435307e-01 -1.613768318879816588e-01 -2.084532030344159181e-01 -7.163701501410137118e-02 -1.478021297482560725e-01 -8.507897605875958114e-02 4.903601688322849206e-02
8.772608305803643036e-01 -1.436871734650218939e-02 -3.295884010911776518e-01 2.335138498227777581e-02 1.072167229276456690e-01 1.778893884436766604e-01 1.125922743170182927e-01 -2.730946367054509771e-01 -2.047853097341425233e-01 -4.764735363737098717e-01
-1.279792208467113446e-01 1.437850648513749330e-01 -6.114293551793181791e-01 2.191271895035995163e-02 6.703575426632406575e-01 1.483259031041558040e-01 6.171127752259928378e-01 -6.254317692351731850e-01 2.272376279592798753e-01 -4.638912874932002994e-01
-9.026596640289927809e-01 1.107753739172508550e-01 -3.304748925455890385e-01 2.212475486461487062e-01 -1.841731565721291819e-01 1.094327859394043312e+00 3.625558582603252700e-01 -1.939322623906650778e-01 1.317985610082892389e-01 -3.094652256886827879e-01
-7.555705508444044982e-01 -3.024806482431606769e-01 -5.016318887759596383e-03 -1.438856718221808995e-01 6.695012249279905236e-02 5.184200711196754741e-01 2.338282420789624394e-01 -1.420778532610446065e-01 6.065575067528665709e-01 -7.672489938575306756e-02
-4.374132554283686747e-01 -3.442904734146209900e-02 -2.956879537191126409e-02 -1.257061309702427014e-02 3.123009511608096367e-01 3.322174018354682734e-01 3.240618358677649358e-02 -1.800972079530200817e-02 -7.109668513090802722e-02 -7.383641941807635167e-02
-1.284604859104876706e-01 -1.583718348472127821e-02 -1.222251033563917857e-02 -6.239989829807604397e-04 -7.607488153656714880e-03 1.071990612816948046e-01 1.578440387744040052e-01 -8.858078578352658865e-04 -9.661462241369363213e-02 -2.791002917084362336e-03
-8.823087715219780352e-06 -6.109987608492211579e-06 -9.332475065665623562e-06 -2.735734129147695807e-05 -1.236892151305356029e-05 -8.258416833664945390e-06 -7.773833728059404498e-06 1.154141032908411613e-04 -1.112540574941617336e-05 -2.426463378579248381e-05
-1.970558666508258274e-04 -1.357594313880406583e-04 -7.643225078344360749e-04 2.843444709101137710e-02 -1.914998105225989655e-04 -5.678828123772819599e-03 -1.489905247234896970e-04 3.238722435596530936e-03 -2.899740492486228382e-04 -2.426673921246714702e-02
-6.607199446375656288e-03 -2.710688100867945649e-01 2.127930231039296960e-01 -6.792849883131157895e-02 -1.093978915804936190e-02 -5.369247181792255463e-02 -2.713685577480410421e-02 2.752372958321940288e-01 -2.736297332354416939e-02 -2.329372049732137198e-02
-1.828800689606202914e-02 -5.459478357127448001e-02 -7.815895475722148267e-02 3.894919277018728532e-01 -1.070011606955246913e-01 -4.433712862726504333e-01 -2.644828697520635319e-01 8.863396525138405035e-01 -1.474133065975775092e-01 -1.625212116733379120e-01
-3.070144045787733256e-01 1.708544601811071706e-01 6.593682407010683644e-01 4.643174995906466096e-01 1.493888476532835297e-01 -1.039106709635604364e+00 -8.310118089522450235e-02 4.535110772364694953e-01 -2.502557492880360095e-03 -4.657152727600918363e-01
3.632959376854428407e-02 -1.142203577632563971e-01 1.792650722589580747e-01 6.646453745048616080e-01 4.895183800545903074e-01 -2.212156432259187733e-01 -2.400991394595174827e-02 -2.597416065939747165e-01 6.418193725397697280e-02 -8.147528363118310413e-01
2.660992932090802676e-01 -3.256798512335329909e-01 3.677816197625134453e-01 3.874313605635148483e-01 9.279140743601446695e-02 2.071418884928041652e-03 -6.804846736883746194e-01 3.209477470043772818e-01 -1.715321316028702026e-01 -2.594261903356503418e-01
3.052764977934306345e-01 -6.670044524645001027e-03 -3.557052535995662845e-01 1.196136268231146882e-01 9.975610992239003494e-02 -7.292112378040332965e-02 8.474877706349578932e-02 7.673751043259748883e-01 -4.066313647388120622e-01 -5.348423292849794342e-01
-3.353615017872852988e-01 -1.279948339232942489e+00 4.948514212702729842e-01 2.700458149030252608e-01 -3.130553002479933844e-01 7.662879039740204679e-01 -8.183682579233869658e-02 -2.044870739156834927e-01 8.143415195998091605e-01 -1.308376187708873706e-01
2.625955440237223160e-01 -6.084986048671547909e-01 -1.708855028458524938e-01 1.897958917298100401e-01 2.477348948818696162e-01 3.895323234794666883e-02 -2.777335528485132266e-02 7.533251636802970053e-01 -4.157204396222964893e-01 -2.695268240434937068e-01
9.686928026379242052e-02 6.252609529639374664e-02 -2.174835673914249923e-01 -1.350645891185034420e-01 -2.764559872838539545e-01 2.751764088516583384e-01 -7.714944087588582189e-02 -2.401323082586986069e-01 4.191943531817394764e-01 9.251975533478169755e-02
1.833759856008405076e-01 -4.813733395508079660e-01 4.026028490106535185e-01 -1.300016286663721876e-01 2.349884119725134321e-02 1.859688185051334430e-01 5.712247779899486122e-02 -2.036093844827804866e-02 -1.565640393719417225e-02 -2.051766615102253166e-01
-7.425701343304093316e-02 6.219089153106086565e-01 -5.215280724770708920e-01 1.925149502267894663e-01 -5.018263163086854606e-01 1.304971597686496176e-01 1.299667851676697405e-02 2.275781279738731122e-01 -2.813182557925781868e-01 1.934338262146775567e-01
2.011513713302421347e-01 -4.595187009710307025e-01 5.927515835506695918e-01 1.732269684018062361e-01 -3.505639811263573935e-01 -2.311719410450052414e-01 -5.608282033716294190e-01 2.798708969784344802e-01 -1.207630442424407480e-01 4.758450504952981830e-01
2.468155241082172213e-01 1.730044947458998505e-01 1.950208770667977431e-01 2.751821485827484204e-01 -6.936760349770698664e-01 2.080962606481444668e-02 -2.945861021713181427e-01 -8.477454973616077583e-02 -3.403711089562213576e-01 5.025751252722820972e-01
2.430262354672022562e-01 -4.882795906885628590e-01 -1.935105105862108543e-01 2.320270323398775369e-01 -5.318061979646261372e-01 -1.610434695863778021e-01 -8.694972066834136259e-02 -3.615546137359890860e-02 5.529692465202611373e-01 4.697224365403702695e-01
6.255936265566723609e-02 -4.814202461146913081e-02 7.700905826193490955e-02 -2.063609861193451897e-02 -3.136232226205433182e-01 1.285945029347329016e-01 -6.660159085129987444e-01 1.764034313156557787e-01 3.537294161690383854e-02 5.684779575720374512e-01
1.777372622619083908e-01 -4.737609673601461679e-01 -3.474060564879016821e-01 2.530966156956964697e-01 2.005554783660681295e-01 8.394932077951726412e-02 -1.706717966913896822e-01 3.738323680183004427e-01 -3.199232781477259757e-01 2.225910535656580314e-01
4.619466935482701153e-01 -5.332673710736353101e-01 -6.698888837381267169e-02 -3.808416380419551439e-01 -1.616009583151833684e-01 -4.005179848698869893e-02 -7.010195762743156589e-01 5.329429450121678791e-01 5.343531967738837096e-01 3.545273952315589061e-01
1.774580071990778107e-01 -1.559121403506848191e-01 -6.638200805682015204e-01 4.289043780056928101e-01 4.522085949016714235e-01 -1.114028353803387522e-01 -1.739464832323877053e-01 8.133267071100769297e-02 -2.052857189484525169e-01 1.704636076626082075e-01
3.628704010348671183e-02 2.009227964992350290e-01 -4.192600820000485506e-01 1.842835871150237670e-01 3.386835791882782803e-02 1.543904673955899531e-01 -7.380709304191855891e-01 4.243082024855283629e-01 -1.624965290883442770e-01 2.857670899898802630e-01
-2.176123806272986239e-01 -1.256969678489787690e-01 2.234174563974276606e-01 -6.383098432559985991e-01 7.173057450494792209e-02 3.024612859690034017e-01 -4.541590624486771532e-01 3.252982934111564028e-01 3.927644568528328994e-01 1.201061870455776975e-01
-2.075767626478206562e-01 -2.786588566347508733e-01 1.181209994710495093e-01 -5.933116379320327871e-01 8.264985464571313056e-02 5.177075915667065376e-01 -1.230054154962661461e-01 6.865811351910278137e-01 1.625991018187738016e-02 -2.187668183455058202e-01
3.465000940583902178e-01 -3.744534477226048597e-01 -1.484512942449411232e+00 -4.350070929451926860e-02 1.074043312067554101e+00 1.463674842089386918e-01 -1.731783171085040374e-01 -9.491513299811327187e-02 7.512066081506320048e-01 -1.475569489123580991e-01
3.548659065609720276e-02 -5.303555764825456098e-01 -7.103513588842192972e-01 1.284777293407047272e-01 1.072384723684946008e-02 8.510745573613758275e-01 1.021749933548503630e-01 -1.027754448397251441e-02 2.823968703241435119e-01 -1.593501084232845921e-01
-8.789827937912783051e-01 -4.352933697893394682e-01 1.805971530188222041e-01 -1.328732500120362037e-01 2.796217874420282579e-01 1.118550055639956575e+00 -3.310565787173953556e-01 -2.074114895876874587e-01 5.906035694241669187e-01 -1.837550836272374422e-01
-4.760109279575265862e-01 -3.515516728538382180e-02 -4.554726880393573929e-02 -1.346685577765670792e-02 2.349590476817973173e-01 1.737241356484237609e-01 1.106130152543796236e-01 -1.819149251952287966e-02 1.373195433414444999e-01 -6.824402958201909730e-02
-2.845286586479648522e-02 -1.692933722911602740e-02 -8.438948054729238438e-03 -1.299261383945296685e-03 -1.119034043361499982e-02 4.481710113316308280e-02 1.026661605263271410e-01 -1.084870638558683943e-03 -7.730942799887435823e-02 -2.778210055855274106e-03
9.222918582107300645e-02 -3.413701948371900214e-05 -8.840255462242891955e-04 -1.216135371360573556e-04 -2.795965780676463227e-03 -5.365815685894855983e-05 -5.429410347826283610e-05 -5.489531731240690493e-02 -1.524249332591550853e-04 -3.323774943154926553e-02
-6.634388845523899120e-04 -2.957323738222275610e-04 6.834419649185814911e-03 -4.106879722431942131e-02 -2.155424241587216780e-03 -5.029959234512001694e-04 -3.951809725031437369e-04 4.917611688759175592e-02 -2.393703795238775935e-03 -8.535263121303296799e-03
8.886613119281501147e-03 -1.947280002539054089e-01 8.004391637139839089e-02 3.064534045966875106e-02 2.052856429321404386e-01 -4.258262434304118521e-02 -2.402748816544036242e-02 4.353206612995183522e-02 -2.884360244183390917e-02 -7.821186380822028883e-02
-2.288114635114678330e-02 -1.440596117369258647e-02 7.753169317093176749e-02 -7.624009098200578045e-03 2.162610287983567359e-01 -3.407630879807587720e-01 -2.079770656035460075e-01 8.260919858025633777e-01 1.258987217791856898e-02 -5.388233097424262041e-01
-3.697083480824581159e-01 1.364118333778069625e-01 8.796849056010478396e-01 3.321061528778084804e-01 8.660266456728697715e-02 -1.415198862784376566e+00 -5.060696691650258539e-02 5.830844665977338304e-01 2.203318611334842692e-01 -4.027077063718292327e-01
-3.368086825730132183e-01 -4.022558268766624479e-01 3.068394641162337511e-01 -3.806333153784214329e-01 6.924472450043546168e-01 -2.923094971753592564e-01 -5.898429731597224640e-02 3.725670102825107133e-01 5.077302643081799127e-01 -4.085923643918508708e-01
-2.896154090857553931e-01 -4.898882625277618530e-01 -1.528602244447123566e-02 6.775740876576560184e-03 -1.618438462716908777e-01 -8.376007825152642638e-02 -3.484005206652053821e-01 3.168118144039910877e-01 9.446387965148300703e-01 1.205677874510163033e-01
-2.380222179753916853e-02 4.342386901091537486e-03 2.373068669449717172e-01 -1.962026632499092038e-01 2.992608041291285326e-01 -2.747852326458685157e-01 -5.454626825251478184e-02 5.711985536974453215e-01 2.962406360709705644e-01 -8.590128617977773606e-01
1.619222147999458405e-01 -5.037262172150028805e-01 1.250612561399706835e-01 -8.795506586671639204e-02 -4.103724496497234697e-01 1.299117709337226367e-01 -5.942007205534872716e-01 1.275727873699148973e-01 1.199869912221748769e-02 1.039787724919157164e+00
1.565972518575337313e-01 -7.292546187308939221e-01 -2.466729259430651133e-01 -3.968365029599681959e-01 6.832736199432589697e-01 6.547076993947946455e-02 -3.281586583912460831e-01 6.079524083188172501e-01 1.936751883997090140e-01 -6.046532433627851803e-03
-8.264089425134835132e-02 9.108081507842388791e-02 2.323426796019053553e-01 3.414934727030747852e-01 -5.556186934792449739e-01 9.488759431303910030e-02 -1.337719152323421645e-01 1.584789465212990411e-01 2.826364356871197484e-02 -1.745156488235222181e-01
-8.203749632031338834e-02 -8.802720900039613383e-01 5.645515862815601860e-02 -2.298865457569121140e-01 4.601417950572262439e-01 1.429522388127451860e-01 -9.174752301555121059e-02 7.228729983813793059e-01 -2.974630637441684766e-01 1.989845279613901285e-01
2.568695093831085408e-01 1.237103473616324965e-02 -1.924372303578639476e-01 7.506063898962621328e-02 -2.631106316170098158e-01 -1.221125013415468724e-01 -2.086256189959981577e-01 2.853688781215449888e-01 5.479627591097114836e-01 -3.913468380277423941e-01
-4.786110630346627759e-01 2.966031845003632150e-01 -7.645101125186924695e-02 7.086494804339578402e-02 -1.889742333280479691e-01 2.409944696247134088e-01 -2.905649028735373188e-02 -3.345565657250981206e-01 3.759425465106009945e-01 1.232442149479460736e-01
2.171383327861120260e-01 -4.412151667907416447e-02 2.563559965535179286e-01 2.604103377488747317e-01 -6.790865433276191965e-01 -1.658727091244293073e-01 -3.109321702991722502e-01 4.005685343809654575e-01 -2.315081638883581538e-01 2.970479018491766765e-01
6.389805463852478162e-01 -1.988748220382392795e-01 -1.071810358164240334e-01 1.987006623599970601e-01 -2.305527826635833319e-02 -2.995634202433760107e-01 -6.700233638368591205e-01 6.203623883003052120e-01 -3.048535015925894487e-01 1.455078247482898546e-01
5.479054628312154396e-01 -4.201002569501602890e-01 -3.322658002871917149e-01 2.776954592198141794e-02 -5.178098999948073100e-01 -6.797078011497445504e-02 -4.757226270012999692e-01 3.737237068994785916e-01 3.517252638877532145e-01 5.127453848079971399e-01
3.692538502046068261e-01 6.030287312305747660e-01 4.154488220361908235e-01 1.093921526914492376e-02 -6.745328162254946580e-01 1.001209749861026038e-01 -1.513493482294903381e-01 -2.326114938901616136e-01 -8.756296298256040223e-02 -3.527349723989181007e-01
3.145180656447824630e-01 -7.378416507944332570e-02 -4.243928719895087021e-01 5.807075912586940891e-01 1.835390077998867164e-01 -1.056422026063068426e-01 -1.008747987466186435e+00 5.887107297844771381e-01 -1.557706477272540746e-01 1.008624803808458592e-01
-2.133441677829285565e-01 -1.228132370250484551e-01 1.032993660942959746e+00 -6.794958196134300021e-02 -4.480481420763162692e-01 2.850453822238879220e-01 -5.960471609638174906e-01 -2.573679458739328019e-01 5.276180799336905869e-01 -1.400868874171563305e-01
3.890091166048924021e-01 -1.577799689132684258e-01 -1.980452680058489984e-02 -3.746786428279121756e-02 -2.865972498398660639e-01 2.505080736378632600e-01 -4.641808019536591279e-01 7.563565781013159572e-01 -4.394058265243450806e-02 -3.861027739014734617e-01
4.935516289176296589e-01 -2.948393637286584879e-01 -6.700838739350341300e-02 2.949302070848902266e-02 9.840498242424330910e-02 -1.571459130796828141e-01 -2.879618739105598846e-01 -5.460994600007955668e-01 3.207755647144315270e-01 4.108298013484052991e-01
3.238818357492869726e-01 -5.220340203328023565e-02 -1.488456095858898542e-01 5.802507999112531678e-01 -5.482890026584551491e-01 7.412193286334774200e-02 -4.616916398488742912e-01 1.938560353875815323e-01 8.260134000292719547e-02 -4.368228978789778782e-02
4.514714106490479995e-01 -6.565779825303467154e-01 1.043915106209531984e-01 -6.994639389897927551e-01 4.579236305319842604e-01 7.617154767838408835e-01 -9.776885583820776882e-01 2.385162470676213953e-01 5.339598273627804703e-02 2.663162215124886822e-01
3.979996724569238031e-01 -6.814280239394241434e-01 -1.031333525217548841e+00 -6.746247499323081431e-01 -1.295792884167020209e-01 2.062414013237944488e+00 -1.011986043292825599e+00 -2.261319012085800384e-01 1.308987834261173600e+00 -1.431798794865705993e-02
-6.548396177365949367e-01 -5.208714483402331341e-01 -3.538254682159824305e-01 -1.674309566509618041e-01 8.295862982934205654e-01 1.422809469016811157e+00 -7.096819852784383986e-01 -3.334749063624193877e-01 7.753884591068056498e-01 -2.876598438324100004e-01
-3.537771031426324986e-01 -3.518055001227557432e-02 -3.775311463066646084e-02 -1.414166670570760759e-02 -4.647310941187419164e-01 5.450244018033232329e-01 -1.751171211819824991e-01 -4.506489921646224250e-02 6.354468047222624483e-01 -5.470565751711764513e-02
-1.288758379406812656e-02 -5.226310382587933193e-03 -2.517568782065946267e-03 -5.814515064894898617e-04 -7.954300795460309687e-03 -4.901086296615635510e-03 -1.417470307235800487e-03 -1.697897095841938500e-02 5.545400569779355970e-02 -2.989262874851039611e-03
-6.797425498134285345e-05 -2.461012015054890871e-04 -8.159580176720276695e-05 -7.963295805155074349e-04 -2.231615324543599621e-03 -2.163349539972053085e-04 -6.942084392933961523e-05 6.407322800232983194e-03 -9.968287717897250969e-05 -2.598267961814312681e-03
-8.672853710347439189e-04 2.432738976770102129e-03 -4.987996364171346474e-03 -4.450541027552148282e-02 -3.157848974569272930e-03 -9.370112065791842779e-04 -6.643743116748282180e-04 6.131250909902804386e-02 -1.419360514261409001e-03 -7.205961057986004330e-03
-1.022595255533978800e-03 -1.276591685583854108e-01 2.113805848331389015e-02 -8.573025788204926417e-03 2.033824738426268652e-01 -1.914613107719294327e-02 -1.810207031673663133e-02 6.329945063193480326e-02 -4.632215236585308232e-02 -6.699483959596855276e-02
-5.598999034934092761e-02 -2.562166743150834022e-02 1.443971501472846898e-02 3.672915194860920662e-01 -1.581912932574848774e-01 -3.059667528150321059e-01 -2.031368311682675565e-01 8.009409434374182846e-01 1.088588835618148690e-02 -4.446515312727851166e-01
-2.033336315959826945e-01 -5.702218509677567382e-02 1.225986607942159967e-01 1.276204754588489809e+00 -5.029806443534113880e-01 -8.584456489778020671e-01 1.665327926702244443e-01 8.284994763383320970e-01 -1.851627752687044770e-01 -5.868907990985883227e-01
-3.161454476287145487e-01 -4.970606018956065797e-01 3.616445283135359956e-01 4.263579888996499312e-01 1.946145158145789478e-01 -3.052258595219540793e-01 -3.348659974231885106e-01 5.862941022051174622e-01 3.415351362701751943e-03 -1.190285801261192905e-01
-4.829308544090472610e-01 -6.234768600465032673e-01 -3.465431676481885992e-01 6.024137278472618817e-01 -1.720003798479777940e-02 -8.676607540038192012e-02 -3.356917054163848779e-01 5.258847589330447603e-01 8.369816877068855798e-02 6.806120453543109683e-01
-1.293581121654046456e-03 7.472108956431273985e-02 -1.300954739545069905e-01 2.424836544329372623e-01 6.762895644852881527e-02 -1.273072526873120780e-01 5.311377419106740744e-02 -3.927723607959551777e-03 -9.181117746348481379e-02 -8.351226580192959437e-02
-5.382305872097465915e-01 2.296852181209726174e-01 -6.924624200588062883e-02 4.481535561844856019e-01 -2.850586529208042341e-01 -1.251837619392639489e-01 -4.104870703629430184e-01 5.703689673580054631e-01 4.484863044138599486e-01 -2.684877316386871660e-01
-1.013968729308085820e-01 -2.892724774835887525e-01 6.622899206235624558e-02 1.433473640414671957e-01 -5.993592157359731165e-02 -2.744179595821795714e-01 -1.655821301266801882e-01 1.801784117798690688e-01 3.333915194725431963e-01 1.674590743406143833e-01
8.857294283795912326e-01 3.328663040865920131e-02 5.293985208792856278e-01 -2.021272906451479223e-01 -3.266877880262802347e-01 -4.173947787328945863e-03 -7.238257586097781582e-01 -3.768871333322978967e-01 5.503976566056554415e-02 1.302475730727243042e-01
-1.496663931076354648e-01 -1.300664956261323169e-01 -2.096177794986422427e-01 -2.515104855353657021e-01 -1.451560116543638423e-01 3.154345043342995925e-01 -1.942364884028795480e-01 2.530033724607790857e-01 3.977974119065370573e-01 1.140183651233926121e-01
-5.230418606744977050e-02 -4.629452491600290487e-01 1.469838473828734005e-01 -4.279811987739879364e-01 -2.914799135842490174e-01 1.590696205557853571e-01 1.967115741840972376e-01 1.178799573638977138e+00 -3.020159309628513422e-01 -1.448381372131788414e-01
5.606348877330359359e-01 2.322748522241692148e-01 -2.466118852383976934e-01 -4.501424524424718077e-01 2.071566854787689482e-01 -2.305265002308776456e-01 -8.816136079671473835e-01 -2.848019279042210763e-02 1.728108812166463670e-01 6.644973320166862596e-01
6.298338105012224464e-02 1.495100024398061597e-02 -1.952108797601547763e-01 1.861991129396495248e-01 -7.574229749157590508e-01 -1.598172267012513692e-01 -4.680277842817745504e-02 1.044555751039675906e+00 -1.582987313301736365e-01 8.863345862079553480e-03
-6.000511595167428158e-01 6.028049918651304795e-01 4.897181181572775044e-01 5.310571065930347334e-01 -4.308818752459632750e-01 -2.322329918771900703e-01 -5.723929999114210077e-01 2.634663062411367052e-01 -4.298570546150038418e-01 3.783695583097409498e-01
-7.586521999800388549e-02 4.263196216433245284e-02 2.457179903356311590e-01 4.847129419218524915e-01 5.976394661698819499e-01 -6.880049110378564370e-01 -5.124508805071770201e-01 6.774049165687047458e-02 -8.877491340569111655e-02 -7.334692729984616799e-02
4.199815688894453780e-02 -1.457660535144393588e-01 -4.405778732519509688e-01 -4.103517576991169008e-02 -4.850804982432679185e-02 -1.378545439891532276e-01 -1.194382978824336750e+00 1.260510700346707536e+00 2.593679755438187406e-01 4.462478423946418804e-01
7.253578984042868827e-01 1.212791985623789398e-01 -5.314538898078505907e-02 -2.171956988565912350e-01 1.301231317929776865e-01 -1.439141297702244693e-01 -6.731418747870336894e-01 1.320765413419507650e-01 -1.794478521353174427e-01 1.580081744283518830e-01
4.407558082434221980e-01 -4.639278986236949343e-01 -2.320573562266880496e-01 3.652451983349906395e-01 -2.065458970489842949e-01 -2.566410199046372659e-02 -3.163003512305676557e-01 2.733859666855849024e-01 1.284164555887780113e-01 3.669217626761706735e-02
4.475339120412534233e-01 -2.510440971171007396e-01 -1.443463112155344563e-01 7.611371978755339107e-01 3.540864224888223832e-03 8.047702683771702781e-02 -6.153869239322026230e-01 -2.962841426200883976e-01 -7.288941412025291833e-02 8.726188802578270509e-02
-1.116715765208306232e-01 -5.180270019962543993e-01 -2.507034660563224326e-01 -1.594729130392863736e-01 2.874532124992488780e-01 9.767014202508426113e-01 5.423667153814125397e-02 8.746689996608918161e-02 2.423420072741985787e-01 -6.083252539158318095e-01
-6.605129807085641236e-01 -4.300109349364875100e-01 2.576079267850020504e-01 7.253455807630966312e-01 -1.668904930770699346e-01 3.886301903958099685e-02 -1.783621588493105314e-01 1.574016070169262649e-01 1.127002880341977653e-01 1.438581459326252754e-01
5.116343574921844439e-01 -6.994662122180753672e-01 1.524161749629432058e-02 -2.463459151145375725e-01 4.089595241219973754e-01 2.309124201335853166e-01 -3.256821581729844595e-01 1.613578319215649703e-01 4.430228321934482349e-01 -4.996342978534745183e-01
8.698193040556341238e-01 -3.679120965964393641e-01 -1.091733729279590115e+00 -1.255294393161960453e+00 -2.612972442992953503e-01 1.864484546317054292e+00 -3.626290666369148541e-01 -1.127702759353942652e-01 6.221972175948693451e-01 9.513573794204392697e-02
-3.100401456535066269e-01 -4.067340777587366007e-01 -1.525493102561572001e-01 -9.660754795412412888e-02 -1.798841052129403484e-01 1.602244890734985772e+00 -1.048085830730919099e+00 6.406645135639676449e-03 1.113439018737956365e+00 -5.281895370422003966e-01
-3.602556010920541230e-01 -5.157328917988170114e-02 5.625955496051372740e-02 -1.819212747844293696e-02 -4.076383662342204506e-01 7.243498993811021691e-01 -4.476800015458691773e-01 1.772118802479046018e-01 4.278044923809802835e-01 -1.002864414400332915e-01
-6.901226898417675212e-04 -7.837979001626860232e-03 -2.189960690442807004e-03 -5.604450936971478239e-04 -1.243413901532842286e-02 -3.895237145463374684e-02 -1.167024774768003065e-02 3.549035156507799882e-01 -2.681610343762346749e-01 -1.240721558129492114e-02
-9.924780366687472829e-05 -2.945275126852399047e-04 -1.183711273797340889e-04 -1.572335966552867049e-03 -2.622041359038791188e-03 -2.741113300014307009e-04 -9.549423921423493195e-05 8.606522576413281819e-03 -1.307810798853147603e-04 -3.399612157988809308e-03
-1.437345007075347281e-03 4.382957562577493096e-03 -4.108097089127126476e-03 -2.453099909478083027e-02 -3.161864105974483870e-03 -1.637076400101383344e-03 -1.004333081328766470e-03 4.618075967580168029e-02 -2.103993056439154314e-03 -1.258000940355210109e-02
-9.280327047501106888e-03 -6.616713987840695810e-02 -1.743286383759411751e-01 7.890449166703741857e-03 -5.303459231205598368e-02 -1.009627391502757737e-02 -1.220729572220902864e-02 5.305297823497733267e-01 -3.684747275335714667e-02 -1.764584915119796482e-01
-5.476488744442022105e-02 -1.484921252971001249e-01 -1.810276934665718263e-01 1.122085756682985380e+00 -4.994075651171071134e-02 -4.128358157844512211e-01 -1.201272362248070324e-01 3.633015508313003350e-01 -2.323429213722977837e-01 -2.858558714129265099e-01
-2.457160010033140329e-01 -2.767060768370567803e-01 -5.047325900910972774e-01 9.338406762972117914e-02 -2.710434782237561291e-01 7.693608667425233527e-02 -1.407244747626907044e-01 5.072502260773822380e-01 6.442454744457312144e-01 1.171067660908266667e-01
-1.047180080565915661e-01 -4.775515580559663853e-01 3.068813875799777380e-01 -3.560384186238002013e-01 -1.759638557774397261e-01 2.373593300019859742e-01 -3.095893102873395475e-01 6.077298880256595259e-01 -1.083100387452785585e-01 3.802005839387926911e-01
-3.254712878251873609e-01 -1.118503135323984266e+00 6.158341913340312779e-01 1.815667723661957833e-01 -6.313324850222722384e-01 -1.257628855017451364e-01 -2.279978609564267678e-01 6.922548864723137019e-01 2.812432327026318513e-01 6.581685717544395464e-01
2.435343931711827017e-02 -6.764764425120870506e-01 -4.019592006090646867e-03 -1.734819022785410170e-01 8.808146305108564833e-02 5.737741289780794451e-01 -7.140346282106721509e-02 -1.203006655049164014e-01 2.755605902669635565e-01 8.391244350945417652e-02
-4.269556820392641505e-01 9.454968207237474109e-02 3.502293726740868807e-01 -4.320881426845300521e-01 2.288858689324858864e-02 8.051915469521334634e-01 -7.290174256717341095e-02 -2.992944714610780155e-01 -1.240624002423973971e-01 8.244325040259577186e-02
2.457016625934562715e-01 -2.669816689416839584e-01 -4.636833482946685625e-01 -5.352323614307016308e-01 8.125096131840450764e-02 6.079189151024492199e-01 -4.219048449491214492e-01 4.569506537982695460e-01 1.372697469691983030e-01 1.587102838343950051e-01
-6.364721282654010881e-02 -1.630947300187734761e-01 1.242140152437844203e-01 -2.081078519285505524e-01 -3.412703874407702065e-01 3.869811516236350002e-01 -1.609204267175354530e-01 -7.639658447536717967e-02 4.645813729461490404e-01 3.766065359395910639e-02
1.233014596091794035e-01 2.557898484540820916e-01 4.371444233145422298e-01 -6.449619698839040849e-01 3.762569409608330639e-01 6.739601321525554023e-02 -3.638071974922907903e-01 -7.135329717114684556e-01 1.504309836243006293e-01 3.119824699094637666e-01
-6.426857578011600618e-03 -7.628029782282061411e-02 -1.037160076521146390e-01 -3.108808276680342098e-01 6.781658796984894044e-01 3.565056556635158858e-01 -5.716675223051809196e-01 -2.974589438171648670e-01 2.776665448829675475e-01 5.409237659834897904e-02
2.851450847354243812e-01 1.442641063918072841e-01 -9.919101183947963418e-02 4.142570976536856242e-01 -3.209936833591109928e-01 2.718412380779053339e-01 -2.396643065753082114e-01 1.831675141750833402e-01 -4.765384253436628914e-02 -5.911721967256479138e-01
4.839957936963631968e-01 7.511507280506074524e-01 1.723748612789820500e-01 3.716402152228316658e-02 -1.283099675208681401e+00 -4.180649709478563569e-02 -5.642661916335709460e-01 2.911015246786757271e-01 -5.769528664772602400e-02 2.110807213578503039e-01
-3.791120024443719871e-01 9.396322966534750298e-01 -3.241913047676242554e-01 -1.694175488324660417e-01 2.759558904615296293e-01 -1.849218352935698417e-01 -6.110540583332587650e-01 8.930370033960762788e-01 -2.981433453253004018e-01 -1.417850955144933645e-01
4.827521398991936885e-01 3.962407878246604342e-01 -1.908279436431548348e-01 3.335257702324334050e-01 -6.727832497728922778e-01 2.582405074742705892e-02 -6.671917649671534889e-01 8.879445753926311635e-01 -4.912249322200442636e-01 -1.042594334931042643e-01
5.676000910240399655e-01 1.880163975998605519e-01 4.723982038732479349e-01 3.290650915438180779e-01 2.458563943533759455e-01 -7.839680427580367761e-01 -3.423273259277063718e-01 1.185551798374903237e-01 -3.858544117223789982e-01 -4.093415778237126101e-01
6.208235783193182256e-01 -2.879234258441381589e-01 8.023821386698982983e-02 5.545680898585528817e-01 -4.015726902520933561e-01 -5.543916964020609850e-01 -3.888010115498937158e-01 2.616234595206795577e-01 1.658290666983831541e-01 -5.039358421573824492e-02
-2.213147595336925066e-01 -1.163654903805155377e-01 -9.248207603646298181e-02 1.411686966922758718e-02 4.707821261723092454e-01 -4.625231791195061337e-01 -7.682567254272437696e-01 6.562023400739492862e-01 3.659979050148928770e-01 1.538429895670346825e-01
-3.186301857278347471e-01 -3.589065529296545098e-01 -1.044497285533562414e-01 2.936789409432740139e-01 5.763823425925101301e-02 -5.219573503753817123e-01 -3.206513388295643141e-01 7.294535746461564552e-01 2.868840164507844293e-01 2.569403901163208048e-01
1.773768215478629673e-01 -1.514202878537366515e-01 -1.350941647638317644e-01 -1.850055332439862477e-01 -3.330065747696750456e-02 -1.191288518161696675e-01 -8.653025041349834967e-03 6.716673029848518883e-01 2.650560611364762356e-02 -2.429472104503288266e-01
1.534533534016576939e-01 -4.095194948778696498e-01 1.215744350934494233e-01 3.540496222000384385e-01 6.675912629151185829e-02 -1.696093836773845953e-01 -7.446008865144206901e-01 1.332289412634781733e-01 5.153572911742116958e-01 -2.069300435467769095e-02
1.050824689415693181e+00 -6.195734280941168626e-01 -6.244207704058845065e-01 2.254621864503700834e-01 -6.199930835938268769e-01 4.073838531335820523e-01 6.729748739001557845e-02 1.076424901426169672e-01 1.790223463827318728e-01 -1.736457708211798789e-01
7.614864912407381947e-01 -6.633143654435572634e-01 -1.299797979665938241e+00 -8.661415802836114342e-01 -5.396014310584573703e-02 2.689893511251585601e+00 -1.166781854057707679e-01 -1.395967367460370367e-01 2.482006960404398166e-02 -3.367110814456142909e-01
-3.673491551229757790e-01 -2.495897189477672973e-01 -4.028837582943782525e-02 8.776525576027026376e-02 -3.119555771630670438e-01 1.726701666064044849e+00 -9.949716612633663360e-01 2.252510965043968139e-01 1.412791148074788727e-01 -2.168426448095773507e-01
-3.010713374283385813e-01 -6.094159078917181505e-02 1.924623222302951631e-01 -1.199664413100631939e-02 -3.195702622098202661e-01 7.799985305724775886e-01 -3.770779909255126960e-01 1.352047678045952273e-01 7.560467094131340104e-02 -1.126124660648305381e-01
-6.119061025340243000e-04 8.526354711242621967e-03 -2.031118715210186373e-03 -6.705649625775350533e-04 -7.573498363796032917e-03 -2.688693598451782213e-02 -4.884736870787671770e-02 9.294077846723068637e-02 1.022230691430554665e-02 -2.506804725626632716e-02
-8.945451247454243120e-05 -7.713170556216962016e-05 -1.233197736930478233e-04 -1.548766012129089431e-03 -3.929610005492868469e-04 -1.970839097606556138e-04 -7.434103169164400435e-05 4.100553437059369435e-03 -1.123107033919337695e-04 -1.485184787807006983e-03
5.667257423530729782e-02 -6.696471061982608997e-04 -1.132807166466927914e-03 -1.058306589944492393e-02 -4.942028462398404681e-02 -5.628270330521938265e-03 -1.128723457476178563e-03 1.258217057400473904e-01 -2.021497404205794407e-03 -1.119099839870564966e-01
-9.335708888870876063e-03 -2.540286460863762190e-03 -6.003789093079958672e-02 -3.796112004436546974e-03 -2.206783378637020565e-01 -1.240371857535231721e-02 -5.162745169299798841e-03 9.473357638706585426e-01 -2.038122187541088412e-02 -6.129997421019240944e-01
2.676690804163043835e-01 -9.382154503454452621e-02 -3.775427285697165458e-01 1.194275839208092771e+00 2.781333933788366491e-02 -4.690733065814574609e-01 -1.861026415848218152e-01 5.738476847204277975e-01 -4.768157772997970445e-02 -8.893841441821898064e-01
-3.754292574131811167e-01 -7.741558132392954705e-02 -3.705752927880616721e-01 6.202533041010714898e-01 -5.158082282864062673e-01 5.400464212532718467e-02 -7.728446342759993926e-02 4.438468068884735551e-01 2.756588742320983942e-01 2.274919589220788033e-02
3.051196672531928528e-02 -3.214891559673536126e-01 1.808019743709405047e-01 1.278766689447936034e-01 1.611459085323412380e-02 -1.803930144690014947e-01 3.145352559774199086e-02 1.115923728729610320e-01 2.637381705464064141e-01 -2.602070994750413924e-01
1.543920977348445522e-01 -7.851687250353853731e-01 5.428364286671395478e-01 -1.002302104862122928e-01 5.015062600129016612e-01 1.319081292705288899e-01 -3.578518827756215770e-01 -2.493529481728001471e-02 3.493863313491725464e-02 -9.739543570583286680e-02
2.150725675680234816e-01 -2.881001710128526794e-01 -5.680719183430787966e-01 -7.229598537511753298e-01 -1.622185825715447283e-01 -3.654404781073373187e-01 3.413026984929403151e-01 4.187389248620811411e-01 6.929323637374187328e-01 4.387444491255226287e-01
1.535593439211573319e-01 -2.819297973079631370e-01 -7.192901739726142996e-01 -9.823957142424964706e-02 -5.942437594852064547e-02 1.274230653388590817e-01 1.484509390862223943e-01 -4.320266357247749545e-01 5.419434752462224392e-01 6.195337307856508824e-01
-5.017884423690989193e-01 -2.573936815501571274e-01 -4.133345623850263051e-01 -2.941582761776388999e-01 5.855416932267381025e-01 4.342052742504435431e-03 1.325363319934121931e-01 2.560880172309649150e-01 2.320703403335045711e-01 2.560965269547910150e-01
-9.656849110520759893e-02 -4.300624775019383783e-01 -1.406795389187055711e+00 -6.685136969557513575e-01 6.857640730037249943e-01 5.225106528479708107e-02 1.834886096303309233e-01 1.032978010830603477e+00 6.615860512099333568e-02 5.812996908794962891e-01
6.260461756019944923e-01 -1.204865161533047180e-01 -6.907387417021744191e-01 4.886179216132648800e-02 -3.705063766241172840e-01 2.540867370726389574e-01 -3.472744503124226001e-01 3.573078544408746504e-01 1.311058476562489417e-01 1.115976778589305024e-01
-7.690795880568387366e-01 1.742730294088959964e-01 -7.755427351461549046e-01 1.358841499126275075e-02 3.992051198457909345e-01 2.351105499688988659e-02 2.981224973184405380e-01 -1.830786103628347650e-01 2.774015211211083298e-01 5.415992958834338067e-01
1.205617163498837463e-01 2.530059541831937153e-01 -9.202014991069791261e-01 3.683428158294019955e-02 -9.589066459800446030e-01 5.801773695887139093e-01 4.684156233000940639e-01 3.287312045501428193e-01 9.004857254326988081e-02 1.333422988783157254e-03
-2.145201437986045123e-01 4.748562512616605336e-01 -7.785946407121010493e-01 3.474992126560758066e-01 -1.159357875966973372e+00 7.035290957545853319e-02 2.975499809567385898e-02 5.971809946302766292e-01 6.676437356580987581e-01 -3.481544139956602862e-02
-1.250826625652905921e+00 1.065889193449320871e+00 -2.140389735238738822e-01 2.773091706304934290e-01 5.772519833336698936e-01 -3.726438523501390820e-01 -1.011418560823595492e+00 4.208555866515186206e-01 1.350908331749121893e-01 3.725312451105918798e-01
-5.503228163541457052e-01 9.712747224585567898e-03 -8.296554608828587626e-03 -3.930928437556721611e-01 4.031311614871770921e-01 -2.690467950848794976e-01 2.816647007772066225e-01 4.057408637841472543e-01 -2.423565396452020126e-01 3.628660761756114517e-01
1.778669606669890935e-01 -2.106807245127938766e-01 -4.776514586703287102e-01 3.076724223080665177e-01 2.392234330392336850e-01 -1.469069191245757078e-01 -1.082366307817510975e+00 4.004398249856505054e-01 9.797246737552206541e-02 6.944303017497501784e-01
-7.803768469483156611e-01 -6.030990094002700724e-02 -4.855281452300463929e-02 -2.827250472752443344e-01 5.017226223380361061e-01 1.017768141535182469e-01 -6.414907621352987643e-01 9.309415882432519052e-01 -2.160762358067286615e-01 4.950905828938066966e-01
1.501481752692029603e-01 -1.821723097609052044e-01 5.886865661539694150e-01 1.459250321802272321e-01 -1.636106364345935316e-01 -5.540237619370224076e-01 3.583192137098232255e-01 1.204767786209117245e-02 -1.973984607270083957e-01 -1.579214963157896390e-01
1.279698532387316401e-01 -1.579835103140099159e-02 -1.096956483380409769e-01 2.521006522248431803e-01 -3.007226182771931544e-01 -7.098263154078486847e-01 -4.456356880148378274e-01 3.740252701538142599e-01 -1.939280038734341512e-03 8.295221254906645081e-01
1.080991957961920269e+00 -9.419963858838022175e-02 -1.060382579646464013e-01 -6.133994050401161274e-02 -5.381961125477725538e-01 -4.726276608786210698e-01 -1.801462918449476536e-01 2.580453973923396704e-01 -2.704445481828808839e-01 3.839550951569928872e-01
4.906679587038463297e-01 -3.004577703278468181e-01 1.854489667552746968e-01 3.937093000527666642e-01 -2.541077627696260444e-01 -9.093478195830749788e-01 -5.300774435717302557e-01 4.989521011654816651e-01 9.961149134155050655e-02 3.256009782333557645e-01
-1.030184150459749898e-01 -2.973987291927083776e-01 -2.565708410755836444e-01 -1.610783318477611303e-01 -7.513546136627367034e-01 7.874496332274216748e-01 7.718642090012022283e-01 -6.208814017528011542e-01 8.477412509711108601e-01 -2.167527606221728853e-01
5.806120146469763155e-01 -4.394471816569064382e-01 -4.140901197058203254e-01 -7.063507606022980667e-01 -9.469901420292171634e-01 1.910087605013753409e+00 7.168360184198027674e-02 -2.594545898582371057e-01 7.053945407238050302e-01 -5.014449683740345165e-01
-3.980311008126417027e-01 -3.198777153628323267e-01 3.299170716758676458e-01 1.977596449237835619e-01 -3.900177972222491629e-01 2.229528239500611964e+00 -1.120691686048320923e+00 -1.864351999335214782e-01 -4.474598654464149311e-02 -2.974054701760588393e-01
-2.353151830188885962e-01 -8.022091402664707771e-02 1.830664626324126631e-01 -8.194159430632126651e-03 -1.366886089466790299e-01 5.813657958694130601e-01 -6.889152067426232984e-01 -5.133178716885360843e-02 4.939763962986554735e-01 -5.774279546615872921e-02
-1.499762900506351640e-04 4.467678837360183203e-02 -6.354179501438584395e-04 -4.213439383126723736e-04 -1.900986472881893707e-03 5.228493153419748983e-03 -3.150860123941277152e-02 -3.690117996807082325e-03 -7.867034877257664260e-03 -3.731802762154930956e-03
-5.147249647643477701e-05 -3.053416585564473198e-05 -8.712562733069561356e-05 -1.125149586828116033e-03 -6.430090494812079724e-05 -7.694408864982992262e-05 -4.019845231279748363e-05 4.261885792797117864e-03 -7.684463292308900493e-05 -2.709315837472393417e-03
-5.766903129476590346e-04 -2.710240457225462181e-04 -4.506039960293136012e-04 -4.453778653143837876e-03 -2.234488036770105462e-02 -1.417847182727309920e-03 -4.683838341917126186e-04 8.431457140468665012e-02 -5.795092205817215869e-04 -5.375185379164169885e-02
-5.605174397234922133e-03 -2.857285304364759818e-02 -3.125738492473331947e-03 -3.628401688142052911e-02 -2.828188818381599523e-01 -7.285444993909761212e-03 -3.176569533346762335e-03 7.729057368699103758e-01 -1.805855495067525823e-02 -3.879785027390433294e-01
1.396328898017754339e-01 -7.373990869929658012e-04 -2.111369820741746950e-01 3.981406900871451437e-01 -3.036663833873201601e-01 -1.168006053576160636e-01 -1.575425324054931520e-01 4.744736780063135151e-01 2.343849508582201979e-01 -4.567483064418584870e-01
-4.998997014484836687e-01 1.844893200837886271e-01 -6.939903935056084272e-01 -1.896438649909731045e-01 -7.011890407104941492e-01 4.127258062525930304e-01 -4.130050268778429068e-02 9.026659997789887591e-01 3.151432317797862176e-02 5.946280540499924161e-01
4.610178818037455328e-01 -1.977116917201270363e-01 -5.166335536951330853e-01 2.225922925947033393e-01 -3.536622548037399727e-01 -2.785657053582379916e-01 -2.257791703548814588e-01 1.131345828370229345e-01 4.775842497808926446e-01 2.980233689157533172e-01
4.428876421359321802e-01 1.060902138518037413e-01 -5.848773252284961144e-01 -2.029487809812830779e-01 9.313005928773858411e-02 6.999613938525321988e-01 -1.410959454435866955e-01 -5.484151490156268238e-01 -3.608696370373612461e-01 4.961375285783474198e-01
-1.576024631866235759e-01 2.469124989566787165e-01 -1.439342557176725323e+00 -5.720960553913218005e-01 4.507529417853711196e-01 3.649485989298580924e-01 4.206627064656350834e-01 5.000580465956399046e-01 3.439537966995084850e-01 -1.582475136780208680e-01
-2.208829472447592854e-02 -2.378266413596226148e-01 -4.415094503384010549e-01 -4.416674205180790014e-01 3.834387455799965760e-01 -2.480978612718259466e-02 4.658286733216627229e-01 7.724526292836291219e-01 -3.846022643744708147e-01 -6.921619074305927766e-02
-4.469876069718434208e-01 -2.518223784291063749e-01 -3.855526171520048950e-01 -1.992021038664577859e-01 2.607197846273939246e-01 -2.494212967348466425e-01 3.303230854440356024e-01 6.108694507665381884e-02 4.804206484342180006e-01 4.004355395719540467e-01
-7.485280024588923664e-02 -1.753896728030399366e-01 -3.808256255166998505e-01 4.037675353690182156e-01 3.246792123177093536e-01 4.678946069413930098e-01 -6.113080874019937577e-02 -6.834060206096658208e-01 -1.070412317017287694e-02 1.899676964575435778e-01
-3.846278134721419772e-01 -5.055205863235052721e-01 -1.023140768456913374e+00 -3.077070290809167386e-01 4.693406887391858295e-01 2.947383426128697970e-01 7.697193929995368444e-01 4.348071618444129260e-01 4.231185892606798005e-02 2.100787522113928829e-01
2.205040733117336615e-01 -2.995715523117645218e-01 -3.338857084958929411e-01 9.114040968317557723e-02 1.345407907253385105e+00 1.523143021813818665e-01 -1.123830454514922889e-01 -8.817497288701722225e-01 3.509737271937724695e-02 -2.168740300197314064e-01
3.472112687463336789e-01 3.800632384008754139e-01 -8.289711895340018399e-01 -1.659116088435389769e-01 4.890267174535153361e-01 3.889926300787827085e-01 1.072606979864818288e-01 -1.069578631618561371e+00 4.374777331025718197e-01 -8.557085577246695274e-02
-1.052175200126140853e+00 1.158087905583183419e+00 -3.433228067602164257e-01 7.066659511327194609e-01 -5.609362773192162477e-01 -1.144652955467657107e-01 -1.310460282666790488e-01 -2.048095287791104058e-01 3.524503587299895879e-01 1.895509213522339476e-01
-8.370986097557119310e-01 4.797234409871829475e-01 -4.935475978362500182e-01 1.766343970667358376e-01 3.809333998629388374e-02 2.513247324723813514e-01 -6.353907221847876485e-01 4.175862697512809363e-01 7.538693908751850636e-02 5.272878104253515552e-01
-6.282454265342211075e-01 3.933973851067053551e-01 -6.887849715501112025e-01 3.614539075130747126e-01 5.469914155876905992e-01 -4.661722568212515738e-01 3.019950400198581977e-02 4.770934262443289886e-01 -2.214654161313011627e-01 1.955324325830961329e-01
9.790894132010806439e-02 -1.872391125470955209e-01 -4.213328792222490460e-01 1.741324596853101661e-02 -7.493368653137237601e-02 -4.280438086463841940e-01 6.252809556570375349e-02 6.173377430152544587e-01 2.747738602496647281e-02 2.888840750525314416e-01
-2.104611430561010299e-01 2.995061779406998359e-01 -6.485571203768240034e-01 6.277495032624309523e-01 -2.058818409396793447e-01 -3.654715677254970485e-01 -4.031696454467954133e-02 3.316673924679957586e-01 -1.932922743076538052e-01 4.050578372793092186e-01
2.644578922708777369e-01 -7.144627623681872874e-01 1.146507473688134771e-01 -3.168927892209894570e-01 1.731179685494985410e-01 -4.494164377891016748e-01 -7.049070410558887501e-01 3.744453715616117839e-01 5.830120267966466541e-01 6.759950238867136196e-01
7.425351888600320582e-02 1.161906612985027093e-01 -1.780649733167981863e-01 5.337884238475740784e-01 4.817352990980025562e-01 -4.922409181234029818e-01 -6.530222782746524235e-01 -7.445997817219972281e-02 -6.774658297654657935e-02 2.595668277335114738e-01
-1.104922294356942836e-01 1.899602973701249864e-01 -1.960387367670100300e-01 -6.705645802242431452e-01 4.200378009628343290e-01 -8.079818140276670002e-01 -7.318195302568959726e-02 -2.216212699661102362e-02 6.818352985308431258e-01 5.885880436131106785e-01
2.564836744187743225e-02 1.409526511432961926e-01 1.188719333480163509e-02 -1.143310583887611642e+00 2.083794410869229119e-01 -1.568149011141331872e+00 6.685486633886583707e-01 7.038036989906683027e-01 1.551938809772658856e-01 7.970456986654500531e-01
6.611867148774188685e-01 -4.145207540962323606e-02 -6.959907452799937166e-01 -2.593779892136169885e-01 -1.722554126916709949e-01 -1.844869578354797701e+00 1.168626160953483151e+00 -6.838173181125358768e-01 1.119847811412405081e+00 7.481024318189272160e-01
1.084403198859503092e+00 -1.709591672909879789e-01 2.960335322059238772e-01 -2.790988496408769448e-01 4.549936951435410437e-01 -1.842094536048703102e+00 4.425425738663718578e-01 -5.833806482445436092e-01 1.151539708192575562e+00 -5.539795070428084056e-01
-4.687636784171098636e-01 -1.852475656868869947e-01 1.215648220102242938e+00 1.907777326084755531e-01 -2.634133339933731333e-01 8.448367644503965712e-01 -4.889672827375968200e-01 -1.709317344789353932e-01 -2.153562748674730243e-01 -4.585828469797340601e-01
-2.858597206426506387e-01 -9.910481872308322948e-02 7.247289993033226851e-01 -1.072343825006425496e-03 -9.372377673956115707e-02 9.504152241680019486e-01 -8.223307222594313792e-01 2.576294581933387135e-03 -2.367463521053625175e-01 -1.388827837581619873e-01
-9.366141621585225051e-04 5.645779857007822422e-02 1.194419781317716256e-01 -7.935379314494576865e-04 -3.569840915241784263e-02 -2.012187670103988968e-02 -5.589631760896814072e-02 -5.293188346731898287e-03 -5.568383484888653895e-02 -1.475997950197620399e-03
0.000000000000000000e+00 0.000000000000000000e+00 0.000000000000000000e+00 0.000000000000000000e+00 0.000000000000000000e+00 0.000000000000000000e+00 0.000000000000000000e+00 0.000000000000000000e+00 0.000000000000000000e+00 0.000000000000000000e+00
-1.735584116141618706e-04 -7.801252893340681000e-05 -2.853822629154858094e-04 -3.464637342929282639e-03 -4.532574093514887825e-03 -3.863384873517100538e-04 -1.463293150044629449e-04 2.068941648076294548e-02 -1.612987149500357106e-04 -1.146128532354958110e-02
-3.189687271126456867e-03 -9.472067409891146011e-03 -1.247910664611207509e-03 -2.190234518160029398e-02 -2.476293275880173395e-01 -3.570374824165774112e-03 -1.291054645395595937e-03 6.094491723795765203e-01 -3.585735916570727787e-03 -3.175606688781992815e-01
6.784749620087023037e-02 7.190552649795210749e-02 -1.484564346517256717e-01 3.437024866842274817e-01 -2.652981352950826155e-01 -4.373613845444096482e-02 -1.782218533688653406e-01 2.051862256870390644e-01 8.645459898117782704e-02 -1.393837722811515634e-01
-1.239015145523459233e-01 2.764749135595388485e-01 -1.156420541852190897e+00 -5.593288858991780632e-01 -4.865289461733642712e-02 1.894211701691553840e-01 -1.404763848380254088e-01 8.169308456906277938e-01 -3.664628313520033043e-01 1.112416123691756020e+00
5.750877215829475544e-03 -1.197426091858531938e-01 -1.393007524063240909e+00 -6.912837143170321719e-01 -2.326432099896268424e-01 7.294018583817145629e-01 1.234527519316084704e-01 2.490820321161913153e-01 5.280455268213739561e-01 8.009440110890395648e-01
4.738350406883969912e-01 2.314150597510760410e-01 -1.362848213025835253e+00 -2.918607847958757384e-01 2.524822077357224415e-01 -6.283057561609703967e-01 8.683852812694441425e-01 8.031887362784531081e-01 -2.743621351705646250e-01 -7.192943656985541223e-02
4.044099135708199566e-01 9.021017714675261256e-02 -1.010204552400038924e+00 -1.892393934109010412e-01 4.672851107989943742e-01 -1.322298730093338925e-01 -3.248782583884918251e-01 1.038823458518976645e-01 -1.891703865170387897e-02 6.096815684919985046e-01
9.433441678493721672e-02 4.748480270179714635e-01 -4.117451959108995307e-01 -3.140658172176264418e-01 4.919299754754101750e-01 -6.032361842249005929e-02 -4.625293618816702090e-01 -2.342875697004648539e-01 -9.473397893769880396e-02 5.165731227925250968e-01
3.398251113277989122e-01 -1.206322258121809016e-01 -5.809112145290846740e-01 -3.371604196954451349e-01 5.172579647394350832e-01 2.043679647174582170e-01 2.363129080096066370e-01 -2.722234475961630151e-01 -4.252629348014782401e-02 5.568965231871583071e-02
7.126541185939329059e-01 -1.110674317645144127e+00 -2.782792497842470070e-01 -2.231019025767233196e-02 7.305449049039666187e-01 1.321021607409978427e-01 1.419246953309829251e-01 1.851821825870480498e-01 -4.578383261169959861e-01 -3.330597835287494451e-02
-1.903166832507734441e-01 -4.929405645099219080e-01 4.354589500099291799e-01 -3.382302668028084880e-01 6.787514579005030635e-01 -3.166477801205733883e-02 -4.715925458465197728e-01 -6.747632171673361226e-03 1.325495072463014901e-01 2.847325554370178091e-01
3.320404765398627944e-01 2.058979154123764532e-01 -2.714878992425762139e-01 2.474091814081201546e-01 4.554715400470460418e-01 6.754869450723574031e-01 8.945244349605606382e-02 -1.472595846097256800e+00 3.795936440122614774e-01 -6.412684006482561871e-01
-1.198398535087428218e+00 2.981011977635250609e-01 3.368973613721025218e-01 4.696024317341342957e-01 -3.857740588518573932e-01 2.526042725397733557e-01 3.673837479296513941e-01 -1.120327560981669635e+00 6.112830286251357270e-01 3.686281149566240645e-01
-8.836642872374887991e-01 4.450470421027070689e-01 1.477892820606727109e-01 4.099620937044371471e-01 -2.738520632168942384e-02 -1.511959703212002182e-01 -1.239239796828683488e-01 3.147862992853055486e-01 -2.835588333832229080e-01 1.521435597933447903e-01
-8.567493181851580930e-01 4.239535075422259380e-01 -5.281386360431314930e-01 -3.222253731702339752e-01 2.682885032208097154e-01 -2.009159522843425028e-01 2.758864142176414933e-03 8.455247949525782070e-02 7.078499791550637577e-01 4.206259461273190725e-01
-1.081092797422555485e+00 2.957510519499050305e-01 -2.272621969346837467e-01 1.724831264135923223e-03 5.735836062648527189e-01 -6.775782317554336354e-01 1.351766665058753980e-01 3.240864751812237987e-01 1.745232256992380326e-01 4.810873692474387231e-01
-6.607912999425169000e-03 4.749037896378144885e-01 -1.653962788922790084e-01 -1.320505672554148913e-01 1.874032097184946677e-01 -1.319982658100465056e-01 -4.764182599037234400e-01 -1.359395612891849403e-01 -1.450150072772395105e-01 5.311188540710033434e-01
3.024766354521509770e-01 1.133820113769474537e-02 5.475495291183371527e-02 5.068796957454635432e-02 1.659847428974220995e-01 -1.783278869898741736e-01 -1.634671254604386781e-01 -2.931622545967120241e-01 -5.571288065768590508e-02 1.054276457310561327e-01
-2.313853703345609414e-01 -4.680445586939773750e-01 5.425561515688104297e-02 -1.906754350788765762e-01 2.808217806775797909e-01 1.049036152800328636e-01 3.362293039812155326e-01 -6.560913570372580716e-01 1.953879565047529354e-01 5.745984495442072459e-01
-2.647229298872946779e-01 -2.840540986796900869e-02 -2.722955708807658914e-01 -6.647689447303313237e-01 2.873507830118257056e-01 -1.298111736587986287e-01 -8.100436431926097414e-02 2.518063721266161070e-01 7.159429065331658348e-01 1.859083316728065427e-01
-4.567711571891693301e-01 -1.425845158615720032e-01 6.965766770350172443e-01 -7.712260829610121382e-01 3.659078357926552894e-01 -3.300606677553097335e-01 8.731203266200301405e-01 -4.774218862401324176e-02 -5.125593659906235722e-01 3.253391389339905237e-01
1.617232408771664409e-01 -3.110456190702269308e-01 -2.538709815869190090e-01 -1.538869685289146805e+00 4.704466859576400539e-01 9.803887137765406046e-02 3.658596912197835116e-01 1.118039901202128039e-01 5.985202714479928021e-01 2.973935349458403099e-01
5.094045667634552466e-01 -3.551285886643200107e-01 1.735116640664486620e-01 -3.882242570674606652e-01 1.387456059794655357e-03 -6.599861805291831196e-01 1.120509606688511406e+00 -5.817015193215008262e-01 3.943202718131377793e-01 -2.140930198088847325e-01
5.425056337103245641e-01 -3.354116844877162440e-01 1.069762683112454482e+00 -4.578897825319731135e-02 -1.732874669919175770e-01 -1.412042783440666138e+00 1.777379081031920660e-01 2.502376916861353551e-01 6.803982289835986963e-01 -7.541112324222034591e-01
6.576421461882842046e-02 -2.445715021464382743e-01 1.294955105818062169e+00 1.168613146865633140e-01 1.427367391511918104e-01 -3.215449120817217010e-01 -6.907232587780580690e-01 1.173966691828703807e-01 1.080891381322816175e-01 -5.889635085835785988e-01
