0.000000000000000000e+00 0.000000000000000000e+00 0.000000000000000000e+00 0.000000000000000000e+00 0.000000000000000000e+00 0.000000000000000000e+00 0.000000000000000000e+00 0.000000000000000000e+00 0.000000000000000000e+00 0.000000000000000000e+00
0.000000000000000000e+00 0.000000000000000000e+00 0.000000000000000000e+00 0.000000000000000000e+00 0.000000000000000000e+00 0.000000000000000000e+00 0.000000000000000000e+00 0.000000000000000000e+00 0.000000000000000000e+00 0.000000000000000000e+00
0.000000000000000000e+00 0.000000000000000000e+00 0.000000000000000000e+00 0.000000000000000000e+00 0.000000000000000000e+00 0.000000000000000000e+00 0.000000000000000000e+00 0.000000000000000000e+00 0.000000000000000000e+00 0.000000000000000000e+00
0.000000000000000000e+00 0.000000000000000000e+00 0.000000000000000000e+00 0.000000000000000000e+00 0.000000000000000000e+00 0.000000000000000000e+00 0.000000000000000000e+00 0.000000000000000000e+00 0.000000000000000000e+00 0.000000000000000000e+00
0.000000000000000000e+00 0.000000000000000000e+00 0.000000000000000000e+00 0.000000000000000000e+00 0.000000000000000000e+00 0.000000000000000000e+00 0.000000000000000000e+00 0.000000000000000000e+00 0.000000000000000000e+00 0.000000000000000000e+00
0.000000000000000000e+00 0.000000000000000000e+00 0.000000000000000000e+00 0.000000000000000000e+00 0.000000000000000000e+00 0.000000000000000000e+00 0.000000000000000000e+00 0.000000000000000000e+00 0.000000000000000000e+00 0.000000000000000000e+00
0.000000000000000000e+00 0.000000000000000000e+00 0.000000000000000000e+00 0.000000000000000000e+00 0.000000000000000000e+00 0.000000000000000000e+00 0.000000000000000000e+00 0.000000000000000000e+00 0.000000000000000000e+00 0.000000000000000000e+00
0.000000000000000000e+00 0.000000000000000000e+00 0.000000000000000000e+00 0.000000000000000000e+00 0.000000000000000000e+00 0.000000000000000000e+00 0.000000000000000000e+00 0.000000000000000000e+00 0.000000000000000000e+00 0.000000000000000000e+00
0.000000000000000000e+00 0.000000000000000000e+00 0.000000000000000000e+00 0.000000000000000000e+00 0.000000000000000000e+00 0.000000000000000000e+00 0.000000000000000000e+00 0.000000000000000000e+00 0.000000000000000000e+00 0.000000000000000000e+00
0.000000000000000000e+00 0.000000000000000000e+00 0.000000000000000000e+00 0.000000000000000000e+00 0.000000000000000000e+00 0.000000000000000000e+00 0.000000000000000000e+00 0.000000000000000000e+00 0.000000000000000000e+00 0.000000000000000000e+00
0.000000000000000000e+00 0.000000000000000000e+00 0.000000000000000000e+00 0.000000000000000000e+00 0.000000000000000000e+00 0.000000000000000000e+00 0.000000000000000000e+00 0.000000000000000000e+00 0.000000000000000000e+00 0.000000000000000000e+00
0.000000000000000000e+00 0.000000000000000000e+00 0.000000000000000000e+00 0.000000000000000000e+00 0.000000000000000000e+00 0.000000000000000000e+00 0.000000000000000000e+00 0.000000000000000000e+00 0.000000000000000000e+00 0.000000000000000000e+00
-4.694244286636240979e-06 -6.821865687814723304e-06 -3.295671845039469081e-04 -4.592739062717195539e-05 -4.797810365269439270e-03 -5.908591779281607869e-05 5.891930142762554466e-03 -7.020821877879915009e-06 -8.933129550794161901e-05 -5.516710572089030852e-04
-2.283982167350737740e-05 -2.032972795911798473e-05 -4.025155145396382638e-04 -1.100272845561968383e-04 -1.067052261449454378e-02 -1.337334695236298571e-04 1.282167570008737635e-02 -2.326007090596908880e-05 -2.072769069287124671e-04 -1.231170289506016780e-03
-1.397804020738103321e-05 -6.000480753570475353e-06 3.551228139242904123e-04 -1.052954709854789914e-05 -1.835826411722104906e-04 -4.847042929428057955e-06 -8.860139505842599635e-05 -8.776601754839202311e-06 -1.298889604095329015e-05 -2.581816890893404257e-05
-5.824183419742081289e-07 -2.500200313987701593e-07 1.479678391351211519e-05 -4.387311291061618465e-07 -7.649276715508787383e-06 -2.019601220595024854e-07 -3.691724794101091793e-06 -3.656917397849668159e-07 -5.412040017063862072e-07 -1.075757037872251280e-06
0.000000000000000000e+00 0.000000000000000000e+00 0.000000000000000000e+00 0.000000000000000000e+00 0.000000000000000000e+00 0.000000000000000000e+00 0.000000000000000000e+00 0.000000000000000000e+00 0.000000000000000000e+00 0.000000000000000000e+00
0.000000000000000000e+00 0.000000000000000000e+00 0.000000000000000000e+00 0.000000000000000000e+00 0.000000000000000000e+00 0.000000000000000000e+00 0.000000000000000000e+00 0.000000000000000000e+00 0.000000000000000000e+00 0.000000000000000000e+00
0.000000000000000000e+00 0.000000000000000000e+00 0.000000000000000000e+00 0.000000000000000000e+00 0.000000000000000000e+00 0.000000000000000000e+00 0.000000000000000000e+00 0.000000000000000000e+00 0.000000000000000000e+00 0.000000000000000000e+00
0.000000000000000000e+00 0.000000000000000000e+00 0.000000000000000000e+00 0.000000000000000000e+00 0.000000000000000000e+00 0.000000000000000000e+00 0.000000000000000000e+00 0.000000000000000000e+00 0.000000000000000000e+00 0.000000000000000000e+00
0.000000000000000000e+00 0.000000000000000000e+00 0.000000000000000000e+00 0.000000000000000000e+00 0.000000000000000000e+00 0.000000000000000000e+00 0.000000000000000000e+00 0.000000000000000000e+00 0.000000000000000000e+00 0.000000000000000000e+00
0.000000000000000000e+00 0.000000000000000000e+00 0.000000000000000000e+00 0.000000000000000000e+00 0.000000000000000000e+00 0.000000000000000000e+00 0.000000000000000000e+00 0.000000000000000000e+00 0.000000000000000000e+00 0.000000000000000000e+00
0.000000000000000000e+00 0.000000000000000000e+00 0.000000000000000000e+00 0.000000000000000000e+00 0.000000000000000000e+00 0.000000000000000000e+00 0.000000000000000000e+00 0.000000000000000000e+00 0.000000000000000000e+00 0.000000000000000000e+00
0.000000000000000000e+00 0.000000000000000000e+00 0.000000000000000000e+00 0.000000000000000000e+00 0.000000000000000000e+00 0.000000000000000000e+00 0.000000000000000000e+00 0.000000000000000000e+00 0.000000000000000000e+00 0.000000000000000000e+00
0.000000000000000000e+00 0.000000000000000000e+00 0.000000000000000000e+00 0.000000000000000000e+00 0.000000000000000000e+00 0.000000000000000000e+00 0.000000000000000000e+00 0.000000000000000000e+00 0.000000000000000000e+00 0.000000000000000000e+00
0.000000000000000000e+00 0.000000000000000000e+00 0.000000000000000000e+00 0.000000000000000000e+00 0.000000000000000000e+00 0.000000000000000000e+00 0.000000000000000000e+00 0.000000000000000000e+00 0.000000000000000000e+00 0.000000000000000000e+00
0.000000000000000000e+00 0.000000000000000000e+00 0.000000000000000000e+00 0.000000000000000000e+00 0.000000000000000000e+00 0.000000000000000000e+00 0.000000000000000000e+00 0.000000000000000000e+00 0.000000000000000000e+00 0.000000000000000000e+00
0.000000000000000000e+00 0.000000000000000000e+00 0.000000000000000000e+00 0.000000000000000000e+00 0.000000000000000000e+00 0.000000000000000000e+00 0.000000000000000000e+00 0.000000000000000000e+00 0.000000000000000000e+00 0.000000000000000000e+00
0.000000000000000000e+00 0.000000000000000000e+00 0.000000000000000000e+00 0.000000000000000000e+00 0.000000000000000000e+00 0.000000000000000000e+00 0.000000000000000000e+00 0.000000000000000000e+00 0.000000000000000000e+00 0.000000000000000000e+00
0.000000000000000000e+00 0.000000000000000000e+00 0.000000000000000000e+00 0.000000000000000000e+00 0.000000000000000000e+00 0.000000000000000000e+00 0.000000000000000000e+00 0.000000000000000000e+00 0.000000000000000000e+00 0.000000000000000000e+00
0.000000000000000000e+00 0.000000000000000000e+00 0.000000000000000000e+00 0.000000000000000000e+00 0.000000000000000000e+00 0.000000000000000000e+00 0.000000000000000000e+00 0.000000000000000000e+00 0.000000000000000000e+00 0.000000000000000000e+00
0.000000000000000000e+00 0.000000000000000000e+00 0.000000000000000000e+00 0.000000000000000000e+00 0.000000000000000000e+00 0.000000000000000000e+00 0.000000000000000000e+00 0.000000000000000000e+00 0.000000000000000000e+00 0.000000000000000000e+00
0.000000000000000000e+00 0.000000000000000000e+00 0.000000000000000000e+00 0.000000000000000000e+00 0.000000000000000000e+00 0.000000000000000000e+00 0.000000000000000000e+00 0.000000000000000000e+00 0.000000000000000000e+00 0.000000000000000000e+00
-4.020104584795350555e-07 -1.066048508162093712e-07 -3.052531204259534393e-06 -1.549772259596859942e-07 -2.098980909236128247e-04 -1.597422728772721121e-07 2.157843207056633125e-04 -6.091762763566388253e-07 -1.914770954596044067e-07 -1.209710397842066325e-06
-1.257233135931116754e-05 -4.144432597579683149e-06 -1.097697561605157524e-04 -6.540154300491813061e-06 -1.583623249199941560e-02 -7.863802600520917747e-06 1.606951679248473652e-02 -2.366765980154417607e-05 -7.733063544784943334e-06 -6.099310012053134219e-05
-4.042094974225270696e-05 -6.748178859630300449e-05 -4.867580234812676071e-04 -2.207876031334413485e-05 -4.685630962511917047e-02 -2.439324576411644677e-05 4.781349901592357038e-02 -6.455589429374331467e-05 -6.627021199994909064e-05 -1.852305166134479708e-04
-1.089869822516436725e-04 -2.588578568229260319e-03 -4.128684054556119691e-03 -1.171864257236561831e-04 -1.679335273694178635e-02 -6.017823269851011787e-05 2.519917205524528289e-02 -9.285672340981972498e-05 -9.718613670913320204e-04 -3.374869643431547151e-04
-3.549494552374303459e-04 -2.098541839139848961e-03 -1.056507154698660758e-02 -1.433070458434225524e-04 -9.824837236851074670e-03 -2.000216400114159226e-04 2.496862261800640234e-02 -1.764288619614216846e-04 -1.074749641338125245e-03 -5.307153506370742430e-04
-2.252924086237120642e-03 -1.364552150746808044e-03 -1.067577147584436448e-02 -2.487236777895643390e-04 -4.012635315826874882e-02 -7.899364682467517910e-04 5.952027355235341849e-02 -1.020660953926732150e-03 -1.021002732361709058e-03 -2.020348848931551294e-03
-8.732359150565531915e-04 -5.076033143781073396e-04 -8.455056173129497574e-03 -2.862457039104010178e-04 -4.392774076945745593e-02 -8.074669262530344066e-04 6.124788156805426043e-02 -1.555914226122427028e-03 -1.027370241408829014e-03 -3.807248298338022745e-03
-6.039136862646686576e-04 -5.358413883373114263e-04 -1.928884922518643574e-02 -8.935614073616723538e-04 -8.341687801580965900e-02 -4.244398536886241982e-03 1.261139528961918443e-01 -8.510512191794241538e-03 -1.193184946643786274e-03 -7.426813497907575404e-03
-3.799094670662564910e-04 -2.608968841731348714e-04 -1.679787966925658932e-02 -5.445877872808095772e-04 -6.759323840094659530e-02 -4.002697511614090875e-03 9.602804758804067697e-02 -1.252507199993031176e-03 -1.083505363735342425e-03 -4.112825303974553502e-03
-8.251490660030169188e-04 3.025053751455299839e-02 -3.538905756021819282e-02 -9.805493488389396828e-03 -3.203899515863864456e-02 -1.865278940941920462e-03 5.322319282004826096e-02 -4.372979259244859124e-04 -1.201438977849454172e-03 -1.911019216636062083e-03
1.210289734561895668e-02 4.829448136748158704e-02 -3.205078589322957194e-02 -1.331599746348392441e-02 -4.705563265684272606e-02 -3.003010410676217393e-03 4.707738252950183916e-02 -8.782921762477421219e-04 -1.753869299105577026e-03 -9.417173343016543158e-03
3.734465648430366352e-02 2.725490920561948402e-03 2.004646203268280191e-02 -2.702829994592244409e-03 -6.497527823777453360e-02 -2.119772872882515202e-03 3.478208688633097762e-02 -1.280671400919464664e-03 -2.372952170245979861e-03 -2.144719164746462098e-02
1.847549024231643494e-02 -2.043660760133435891e-03 -3.037493864947621064e-04 -2.852153458260332417e-04 -2.518678099299702031e-02 -1.174420646439944781e-03 2.265002282762785743e-02 -6.182625957543725487e-04 -1.352238768550718907e-03 -1.016118457374794865e-02
-6.533088163994976065e-04 -2.320775466981658710e-04 -1.189816865465671836e-02 -1.187770158261456017e-04 -1.366805731104983254e-02 -2.654531890276011670e-03 3.182941573721911888e-02 -2.471902714182739203e-04 -1.259683545162537449e-03 -1.097620685731938136e-03
-5.358839769772121486e-04 -1.339482058970941053e-04 -8.621344922621865595e-03 -1.774692545588912776e-04 -7.818325266520681494e-03 -2.602725770454775676e-03 2.194268864801710711e-02 -1.664773410263472426e-04 -9.834358937919225867e-04 -9.030780161683315144e-04
-4.279267050886912315e-04 -1.054120745820760698e-04 -2.309203159010430814e-03 -2.381136119720598078e-04 -6.016010926843514718e-03 -1.871705366937228415e-03 1.262739776986604792e-02 -5.431805339808677832e-05 -5.602104721625445274e-04 -1.044497399871389606e-03
-2.465330069360505355e-04 -2.440125889492378834e-05 -4.350765837588202066e-04 -5.221174336271719186e-05 -1.479416599980528041e-03 -4.838936496103158941e-04 3.075219859532143073e-03 -1.653743272798337060e-05 -1.188153262475553045e-04 -2.183342580132456297e-04
-7.505748276854981018e-05 -1.106422895068416214e-05 -2.908366370144786469e-04 -1.204296296727976965e-05 -5.532984579230693263e-03 -3.408046378101876249e-05 6.225673323690970005e-03 -2.553945508153209002e-05 -7.367285538489592599e-05 -1.703946585118337211e-04
-5.524983118802757264e-06 -3.389723696552160776e-06 -1.887114604002424693e-04 -3.928334191342608926e-06 -7.305845583905444009e-03 -1.463680848952152832e-05 7.752946765013533567e-03 -2.824310825163889855e-05 -4.381329242606100217e-05 -1.588534705339288828e-04
0.000000000000000000e+00 0.000000000000000000e+00 0.000000000000000000e+00 0.000000000000000000e+00 0.000000000000000000e+00 0.000000000000000000e+00 0.000000000000000000e+00 0.000000000000000000e+00 0.000000000000000000e+00 0.000000000000000000e+00
0.000000000000000000e+00 0.000000000000000000e+00 0.000000000000000000e+00 0.000000000000000000e+00 0.000000000000000000e+00 0.000000000000000000e+00 0.000000000000000000e+00 0.000000000000000000e+00 0.000000000000000000e+00 0.000000000000000000e+00
0.000000000000000000e+00 0.000000000000000000e+00 0.000000000000000000e+00 0.000000000000000000e+00 0.000000000000000000e+00 0.000000000000000000e+00 0.000000000000000000e+00 0.000000000000000000e+00 0.000000000000000000e+00 0.000000000000000000e+00
0.000000000000000000e+00 0.000000000000000000e+00 0.000000000000000000e+00 0.000000000000000000e+00 0.000000000000000000e+00 0.000000000000000000e+00 0.000000000000000000e+00 0.000000000000000000e+00 0.000000000000000000e+00 0.000000000000000000e+00
0.000000000000000000e+00 0.000000000000000000e+00 0.000000000000000000e+00 0.000000000000000000e+00 0.000000000000000000e+00 0.000000000000000000e+00 0.000000000000000000e+00 0.000000000000000000e+00 0.000000000000000000e+00 0.000000000000000000e+00
0.000000000000000000e+00 0.000000000000000000e+00 0.000000000000000000e+00 0.000000000000000000e+00 0.000000000000000000e+00 0.000000000000000000e+00 0.000000000000000000e+00 0.000000000000000000e+00 0.000000000000000000e+00 0.000000000000000000e+00
0.000000000000000000e+00 0.000000000000000000e+00 0.000000000000000000e+00 0.000000000000000000e+00 0.000000000000000000e+00 0.000000000000000000e+00 0.000000000000000000e+00 0.000000000000000000e+00 0.000000000000000000e+00 0.000000000000000000e+00
1.272940369925536783e-03 -6.047463797180699635e-07 -2.213649901366501432e-05 -2.151192364225567925e-06 -1.075354533923032459e-03 -6.886200606557373537e-05 2.080121294838949738e-04 -1.362232856264730349e-04 -1.120192680500350586e-05 -1.644183092317416911e-04
4.857822583384478342e-04 -1.059010773855050826e-05 -5.673591367436097354e-04 -1.018042802417289042e-05 -9.569670828704045229e-04 -2.671902904653480646e-05 1.300021862699696999e-03 -5.983513216149166961e-05 -5.115042477307836819e-05 -1.030027796802983521e-04
-2.023901610092032491e-04 -1.030955652266292185e-05 -9.486525266356805365e-05 -1.031794461529175847e-04 -8.799289914238222522e-04 -1.215234987677714402e-05 1.374006708932567480e-03 -1.071195529273385338e-05 -2.924438912970261866e-05 -3.122460686118066304e-05
-1.514036134901188164e-02 -8.519040402867203920e-05 -1.481313965264942573e-03 -6.613293271235865705e-04 -2.502788440586241683e-02 -1.135349645615683678e-04 4.343330733531546028e-02 -4.541125787735925340e-04 -2.154133778101544917e-04 -2.541669628786168513e-04
-1.771231961127566618e-02 -1.237948298381016292e-03 -4.342601365221734552e-03 -2.424482765673388780e-03 -6.219895067680929202e-02 -1.445721777887519228e-03 9.231162031464541784e-02 -1.237577168343096095e-03 -8.115524836254714826e-04 -9.004661674284406263e-04
-1.544452991190404557e-02 -1.889075553794815690e-02 -2.079156752349276601e-03 -8.873705175756299232e-03 -5.987755869624333122e-02 -3.721176746959774934e-03 1.147996104901394254e-01 -1.570037899630312558e-03 -2.927357744973841085e-03 -1.415332024374453676e-03
-1.964408342264434976e-02 -3.599269516594152951e-02 1.195392430975460163e-02 -1.698385882035589878e-02 -6.802981334046186157e-02 -8.892994394725578164e-03 1.548407057602545767e-01 -4.466589695986415177e-03 -9.699493497027212793e-03 -3.085101732866227589e-03
-1.589819859221859935e-02 -2.433731801825128258e-02 1.594045571483735865e-02 -2.207233189688145164e-02 -1.746367314491795719e-01 -1.371713378635921847e-02 2.746508894417218904e-01 -1.116229574374813863e-02 -1.863385794292013106e-02 -1.013347772700063688e-02
-3.088714490488494654e-02 -2.779808286541449874e-02 6.414267633267119184e-02 -2.154448807582311914e-02 -1.597171932247147264e-01 -2.361233180537451737e-02 2.667072586530472300e-01 -2.360022437462856726e-02 -2.817927736827652643e-02 -1.551119236660112449e-02
-5.392203493957812427e-02 1.856469395996800109e-02 1.195618949496465161e-01 -2.196289408867285395e-02 -2.038624771614422349e-01 -5.109192284443480475e-02 2.693565825651988987e-01 -2.048079992212123099e-02 -3.247919446861961129e-02 -2.368384804994447257e-02
-4.942432686314131990e-02 8.645203283295910257e-02 7.357495541004777095e-02 -5.384728217783472763e-03 -1.908302804689031573e-01 -7.323529766303304989e-02 2.394676737963887525e-01 -9.899079000404502685e-03 -4.212148194005767288e-02 -2.859946788607236126e-02
-5.134368414410725445e-02 2.829854236999031561e-02 7.102326482966855870e-02 1.111079972902013352e-03 -1.666174809498728315e-01 -8.365457910486434612e-02 2.886237788800061210e-01 -1.571009634911234645e-02 -4.010111972377791711e-02 -3.162970578083228179e-02
-6.684231293107081862e-02 8.499031329387811418e-02 8.110569929369057518e-02 -2.644440627850332126e-02 -1.857769395756195818e-01 -5.907807238580818632e-02 2.703714906214384484e-01 -2.015200153763256966e-02 -4.336449991192275338e-02 -3.480927058845011135e-02
-5.485856576300478932e-02 9.603413767893911879e-02 4.666807248998983831e-02 2.559808114043734314e-03 -1.793062589592591682e-01 -3.210736117404993512e-02 2.137153316423613114e-01 -9.718045420801397008e-03 -4.600526289584117717e-02 -3.698185571237750519e-02
-5.394958178833730855e-02 3.847767766472956485e-02 4.360944847695742872e-03 1.637091533495782514e-02 -9.625278222970118369e-02 2.308963734465336454e-03 1.626507639108312198e-01 -6.724995986501614009e-03 -4.001096807502860925e-02 -2.723093741311085822e-02
-3.738086747610522287e-02 -2.962672633647459117e-03 -5.559465342817016681e-02 1.371188081989156184e-02 -6.756306692390864899e-02 -3.031577147285777554e-02 2.413805141379428143e-01 -3.702835527477940040e-03 -3.760408939637305270e-02 -1.996843809929369981e-02
-2.843295223421334408e-02 1.951768350955271694e-02 -1.127536254742112776e-01 -2.007957330737269053e-03 -3.368273161658884296e-02 -2.732968551548019959e-02 2.318469490336329542e-01 -2.278552961442260102e-03 -3.002617243333972202e-02 -1.485295497717259439e-02
-2.215687619976559886e-02 6.666447460337127616e-03 -5.456949783974766183e-02 -4.468694883164012893e-03 -2.194284000855777073e-02 -5.581933640452792916e-02 1.675545537822759334e-01 -1.309982180624168734e-03 -8.321241645304169529e-03 -5.632532080921718969e-03
-1.161693673931345379e-02 -2.246539433444860387e-03 -3.587464411762880667e-02 -6.422767236514297096e-03 -2.220084630439028012e-02 -3.592505890344190045e-02 1.251056592989797656e-01 -8.949589190354346200e-04 -6.838568235424081869e-03 -3.085339409786677992e-03
-4.448013923519849797e-03 -3.247080830687765814e-03 -2.687224011962599524e-02 -4.440831947721216727e-03 -1.818510495683040712e-02 -1.423025816655763484e-02 8.008538280384401575e-02 -4.957184171523411256e-04 -6.655222487249555507e-03 -1.510911954499240262e-03
-2.239838865273664423e-03 -2.125273447552915307e-03 -1.023336144520012488e-02 -1.015716333210151152e-03 -1.488619071619234902e-02 -1.977424034903824471e-02 5.523140709336465254e-02 -1.651720689605077654e-04 -4.221297714803379404e-03 -5.703161531333290077e-04
-7.637074564228751600e-04 -6.502389083539968691e-04 2.287121750955118521e-02 -3.384050196898404257e-04 -3.175841677368130764e-03 -1.122092188049149744e-02 -4.404392014494909642e-03 -7.281297871152303286e-05 -2.089715190809331245e-03 -1.551823832091249336e-04
-4.214197192516422655e-05 -9.629367465833573285e-06 1.764695591792000626e-02 -9.584910997066061259e-06 -3.137060234616366266e-04 -1.247790833053387697e-03 -1.539906733414536308e-02 -6.721632115681459896e-06 -5.754331005460150677e-04 -4.288074420988220584e-05
0.000000000000000000e+00 0.000000000000000000e+00 0.000000000000000000e+00 0.000000000000000000e+00 0.000000000000000000e+00 0.000000000000000000e+00 0.000000000000000000e+00 0.000000000000000000e+00 0.000000000000000000e+00 0.000000000000000000e+00
0.000000000000000000e+00 0.000000000000000000e+00 0.000000000000000000e+00 0.000000000000000000e+00 0.000000000000000000e+00 0.000000000000000000e+00 0.000000000000000000e+00 0.000000000000000000e+00 0.000000000000000000e+00 0.000000000000000000e+00
0.000000000000000000e+00 0.000000000000000000e+00 0.000000000000000000e+00 0.000000000000000000e+00 0.000000000000000000e+00 0.000000000000000000e+00 0.000000000000000000e+00 0.000000000000000000e+00 0.000000000000000000e+00 0.000000000000000000e+00
0.000000000000000000e+00 0.000000000000000000e+00 0.000000000000000000e+00 0.000000000000000000e+00 0.000000000000000000e+00 0.000000000000000000e+00 0.000000000000000000e+00 0.000000000000000000e+00 0.000000000000000000e+00 0.000000000000000000e+00
-1.024767432229271211e-06 5.174220909562697720e-04 -5.496401639447124092e-05 -2.054986723587934748e-05 -1.450790206709024164e-06 -6.018015323198578847e-06 -3.193853408411422489e-04 -1.080608009757316717e-06 -1.110649139281671060e-04 -1.883771584714967714e-06
2.730264547261760256e-03 1.189265911713584272e-04 -1.163199238744678366e-04 -1.993583477198458074e-05 -3.154950743747874601e-03 -6.144923607585326504e-04 2.005121698914871624e-03 -3.992725404048790981e-04 -6.397826146035135168e-05 -4.853631723298984469e-04
-5.875269734055264294e-03 -3.337745253769328828e-05 -1.280194628515412148e-03 -2.730554034152643875e-03 -1.827716806915803769e-03 -5.924937299280935883e-04 1.340122788984826965e-02 -6.612967383973943547e-04 -1.928488657882451544e-04 -2.074758995577202390e-04
-4.704351898642055579e-02 -1.312220551709347271e-03 -3.159654952603193397e-03 6.849596476047094262e-02 -4.470064451580384353e-03 -2.868786059126554946e-02 1.892851943010454702e-02 -9.603877340246903599e-04 -1.114892081977578078e-03 -6.758848409942419880e-04
-6.132828392189887401e-02 -8.800018944171385986e-04 -6.806898399366874235e-03 5.412423456605127553e-02 -3.978079640618357310e-02 -1.452640997191545665e-02 7.561108503230055955e-02 -1.851762449473018119e-03 -2.706955428290129528e-03 -1.854211126806720429e-03
-6.653084907581881258e-02 -1.187567049676487539e-02 8.346355000347152608e-03 7.214781658556136679e-02 -5.309865386341700716e-02 -1.143238778125549131e-02 8.505009266683723201e-02 -7.220156768785339352e-03 -1.188125233905495785e-02 -3.505293927649021871e-03
-3.538158509760867126e-02 -4.155856482786979278e-02 4.011137627220204976e-02 7.128372370181397522e-02 -1.255618199407997349e-01 -2.476809743154876134e-02 1.500052848367309510e-01 -1.404738146039239376e-02 -1.410332694995613222e-02 -5.979609102571784712e-03
-2.794833567797588500e-02 -8.787527859012418674e-02 1.944444780692174968e-01 4.820717155502725337e-02 -2.095660521880648719e-01 -2.538372259785030838e-02 1.682757256686092939e-01 -3.421907179500100621e-02 -1.191935005997771073e-02 -1.401556438385943848e-02
9.302113789289140865e-04 -1.387870815238686495e-01 2.381140727125104772e-01 7.477066919112770882e-02 -2.418810359339770566e-01 -3.700988651509398014e-02 2.149833301050741718e-01 -6.846290508042925105e-02 -9.906217684816068583e-03 -3.275115664945608962e-02
-1.590824522968268748e-02 -1.716552044703991142e-01 3.379515509584620769e-01 1.870258344450917432e-01 -2.618789310722259289e-01 -1.160005703424880491e-01 2.038078772280601247e-01 -8.717261931592622248e-02 -2.466057618255614731e-02 -5.150911601833485509e-02
-1.087815594278128545e-01 -3.158827802698378762e-02 3.696078096718484751e-01 2.151108581040747092e-01 -3.777221699211424366e-01 -5.723554661415177630e-02 1.498353720153731139e-01 -5.568235762494237046e-02 -2.141586612642434537e-02 -8.212826204983808553e-02
-5.362482524885298779e-02 4.350273938010393304e-02 3.466989418882364671e-01 1.978242888558836010e-01 -5.096381595679682075e-01 -9.735124789162966086e-02 2.824926481035469616e-01 -5.876223038275181498e-02 -3.423149226715734711e-02 -1.169106628694120409e-01
-1.347688015652607346e-02 -2.503834285244500163e-02 3.284992889321814435e-01 3.733529986597983741e-01 -3.765634912088268171e-01 -8.514862953014516733e-02 1.770145550337039742e-01 -8.159418909222557192e-02 -1.514835968471438810e-01 -1.455617129383710295e-01
-7.072588671811454175e-02 1.196502171440187896e-02 1.763328743578339297e-01 4.097208106486928680e-01 -3.065869760682219947e-01 -7.583791190240751767e-02 2.046817253821185123e-01 -8.445795668189615135e-02 -8.844817532301156582e-02 -1.766435254093938201e-01
-3.351574128319056989e-02 3.628605704178376051e-02 1.508134245950389918e-01 2.249418419437532179e-01 -2.445771294645501526e-01 3.733903882884161141e-02 1.436405430982812259e-01 -6.240884117064991743e-02 -9.569067084599820749e-02 -1.568285227433106055e-01
-8.380379003032975213e-03 -6.674826821619952999e-02 1.689882191349443424e-02 1.428188343563247809e-01 -2.150610872899625381e-01 1.645749324417365433e-01 9.922513668487070726e-02 -4.018050632599359101e-02 1.304247981925705374e-02 -1.061899643804944948e-01
-1.449857966586682867e-01 -1.170506817689433432e-01 -1.189104333576169320e-01 1.898051301529910806e-01 -1.610828542672162744e-01 2.097850618504924769e-01 2.050391805893267694e-01 -3.493713841063717657e-02 1.773664928581377559e-02 -4.539911741554189528e-02
-1.471527866698758846e-01 -7.370690887994228724e-02 -1.337406880870707915e-01 1.459423717394821296e-01 -6.299500774489313892e-02 1.733686676246297687e-01 2.442521368869523535e-01 -2.302842653630208722e-02 -7.321427720335414724e-02 -4.972508112962584909e-02
-1.177852877676065085e-01 -1.041610506612707931e-01 -1.125195833467298040e-01 1.464868622206328130e-01 -3.641666019522393771e-02 1.796932146657520823e-01 1.028660533155437706e-01 -2.181722158222867622e-02 -4.244109807057372570e-03 -3.210221684181085305e-02
-1.231843439065838930e-01 -8.584968490262395724e-02 -1.338742058549501623e-01 -1.869212905178889439e-02 3.126362668927679805e-02 2.261138387277233930e-01 8.356330605258453781e-02 -1.285416432992275877e-02 5.069793620943992274e-02 -1.718417963315481412e-02
-7.675484450428025907e-02 -4.152692846930585574e-02 -1.416980066370932545e-01 -4.883984463039118401e-02 2.961056670041545963e-02 1.438705707249394727e-01 1.271985498130497882e-01 -4.183782245103172606e-03 1.929141297409011149e-02 -6.967693726321113994e-03
-4.314180264606744947e-02 -2.987057152056957904e-02 -9.138388105684447371e-02 -3.637071442453305298e-02 5.982275730810686712e-03 4.155728396112380596e-02 1.450907059787028830e-01 -1.770395160956486115e-03 1.226076717717434518e-02 -2.353668038840603643e-03
-1.966727239987972609e-02 -2.629477654746699769e-02 -9.651244611989982791e-03 -1.404492169802815972e-02 -2.835327181958851531e-03 -1.141005913475449593e-02 1.024706645135098904e-01 -5.724235527107616713e-04 -1.709693353468605750e-02 -8.977058520351243647e-04
-4.858611504529955667e-03 -7.795273088822984690e-03 1.443466684014724569e-02 -4.118862250477896281e-04 -6.387555192544097258e-04 3.709425112235699602e-03 -7.623374716963741016e-04 -3.959933207718605318e-05 -3.500677195472690333e-03 -1.369516154815937886e-04
-1.333188484065173703e-03 -1.365454809088733311e-02 -6.113117369823412722e-04 -2.930423093839463428e-05 -2.813588499657837354e-04 5.458091141972802422e-03 1.323950295377859798e-02 -4.138174117034854197e-06 -2.773327120689166037e-03 -1.041740810619512416e-05
0.000000000000000000e+00 0.000000000000000000e+00 0.000000000000000000e+00 0.000000000000000000e+00 0.000000000000000000e+00 0.000000000000000000e+00 0.000000000000000000e+00 0.000000000000000000e+00 0.000000000000000000e+00 0.000000000000000000e+00
0.000000000000000000e+00 0.000000000000000000e+00 0.000000000000000000e+00 0.000000000000000000e+00 0.000000000000000000e+00 0.000000000000000000e+00 0.000000000000000000e+00 0.000000000000000000e+00 0.000000000000000000e+00 0.000000000000000000e+00
-1.161030804402058713e-06 -1.106222968396250677e-06 -2.527970621248451096e-05 4.776729137809955083e-05 -1.877283890404262583e-06 -1.145303522118758481e-05 -1.171574630723961828e-06 -7.635880610788967559e-07 -3.962868922551439964e-06 -9.919806668705317058e-07
-4.554749115896818834e-05 1.760997004502304168e-03 -6.365437085850153640e-04 1.123894610984693026e-03 -2.079509490493018395e-05 -1.000877536848785755e-03 -1.100998262969253311e-03 -6.244267005429173103e-06 -5.767842664436964643e-05 -1.620682737025066030e-05
-4.279884834345737133e-05 4.168931292473984770e-04 -4.133410984625309468e-04 7.433562059038103728e-03 -1.456040282400121054e-04 -5.399788569036782088e-03 -1.995016525105979596e-03 4.756212772827965690e-04 -2.468106147990733351e-04 -8.271678158046361020e-05
-1.383803633087702691e-02 7.019836850315719313e-04 -1.655911765353707335e-02 1.067957429162100583e-02 2.088941901482802010e-02 -1.431834392515610697e-02 1.606234704835576496e-02 -1.228047648075384062e-03 -1.700307372982180374e-03 -6.894711092085869294e-04
-6.255178243235058611e-02 -7.622825030701280667e-03 8.258018864032190196e-03 1.324267425050432989e-01 1.621022159949362870e-02 -9.355121668970174664e-02 2.317161574607810165e-02 -2.536086168873742577e-03 -7.418362263569604903e-03 -6.386326129450420330e-03
-6.326989189059280261e-02 -2.433947534252537542e-02 8.227250054788753930e-02 1.621356406592983079e-01 -3.088851653329061087e-02 -1.104960039724339760e-01 1.573992295657657137e-02 -9.132243861838132068e-03 -1.489849621989269846e-02 -7.123436343188902127e-03
-6.767357024773723584e-02 -6.263616390187388971e-02 6.714486462642700604e-02 2.284087732150146266e-01 -2.654496504667378312e-02 -1.451252868167248467e-01 5.517536730858797756e-02 -2.696207894549908918e-02 -7.063872551882725837e-03 -1.472306763963784730e-02
-1.200237921328856615e-02 -1.118140054900332303e-02 1.728077201480887337e-01 3.156755541458386438e-01 -1.480114290675703659e-01 -2.651918278751473346e-01 6.175252541493326391e-02 -6.755129036739013215e-02 -1.207982440852328580e-02 -3.421764822793749161e-02
5.685849999810673600e-02 -3.414623048709274078e-02 3.350044881509978145e-01 3.448799606240123272e-01 -2.467493584702369347e-01 -2.601302128330589269e-01 -1.881234538141347140e-02 -1.377815364351883121e-01 4.081561757233547610e-02 -7.993888273846398718e-02
-1.252829030042539211e-02 -4.093849198295817365e-02 2.198364031776382788e-01 3.845593688648592523e-01 -3.111712818469426489e-01 -1.099485334616165377e-01 9.561237201725268642e-02 -1.893294021367329938e-01 7.486235415361948420e-02 -1.109544984846935201e-01
6.300806031504568860e-02 -1.807422876066466233e-01 2.335363578791717076e-01 3.369571684112078747e-01 -2.957949529304780278e-01 7.511395366856563061e-02 -2.574112941348325606e-02 -2.086067315496514807e-01 1.275018267521437210e-01 -1.252322655258773232e-01
-7.769418549336294666e-02 9.234628667701893709e-03 2.889269336751301709e-01 3.580942840514231840e-01 -3.286631832473900783e-01 -3.306549962784895852e-02 -1.458556751718156630e-01 -1.972739855467502690e-01 2.839499723173199985e-01 -1.576532896244073889e-01
-5.771399631341497284e-03 1.490272771596940216e-01 1.819803196265201151e-01 3.811680252046301676e-01 -2.947118602724630998e-01 -8.703216642915764800e-02 -8.408885030721471865e-02 -2.181221771722604286e-01 1.745178632082728942e-01 -1.969670313866802858e-01
-5.628166229341366456e-02 1.880626712471246131e-01 2.709348016104710100e-01 3.447309010257831319e-01 -2.539846013998088847e-01 -5.216661311885294541e-03 -1.738116108457538056e-01 -2.824631056225733738e-01 2.178698664287942177e-01 -2.498405988387384091e-01
8.557122750895275465e-02 4.582696884982864760e-02 5.435955223831289568e-02 4.254330206976177364e-01 -3.266491463275996709e-01 1.705024189236097332e-01 -2.494171225773049450e-01 -2.887912446382359111e-01 3.005693328592943248e-01 -2.174050075344757804e-01
3.501205082499983523e-02 -4.162818916703435457e-02 1.028182863496276273e-01 2.606226403989376772e-01 -2.467389358319123926e-01 1.153549850356909712e-01 6.076101902352920581e-02 -2.531129579336026669e-01 2.445667402068775476e-01 -2.776556389071119235e-01
8.900475033633842292e-02 -1.327616154817333194e-01 -2.582393127688035681e-02 1.273803714276057208e-01 -2.101516618498323885e-02 1.758642162870085179e-01 9.467850971285118877e-02 -2.050485111318531284e-01 1.641174771046997327e-01 -2.663961007930539249e-01
-2.902533991590261486e-02 -6.371889970670552295e-02 -2.599466165532983430e-02 3.107144597090869542e-01 -6.602316492552552131e-03 2.781263582306883753e-01 -6.238661354580002372e-02 -1.679638246630105747e-01 9.882618134282265127e-03 -2.430317800947550955e-01
-1.058860589240699646e-01 1.029972091520699323e-01 -1.678029282091848262e-01 2.097195545598818101e-01 8.288619973274133357e-02 6.989026387317512357e-02 1.009343133808332238e-01 -1.161021223882807152e-01 3.701439157623744730e-02 -2.136508227534035798e-01
-6.586438165409487511e-02 9.046599050906888040e-02 -1.163790219651110458e-01 3.346811266373913435e-02 1.261053546421844196e-01 -1.079244324371748803e-01 1.664071245600733107e-01 -9.080488090567534476e-02 9.842011734430264336e-02 -1.338939827573119579e-01
-7.507563057433860876e-02 6.236538888097722944e-02 -1.706646366120004865e-01 -1.265958015436509931e-01 1.287846919860257122e-01 1.863094764472470466e-01 1.486999087888939419e-01 -4.176909706152522744e-02 1.326431155861227361e-02 -1.253186118702407648e-01
-1.131372973487263824e-02 2.138848647370778996e-02 -2.760445126687330886e-01 -1.943052658081490247e-01 1.891902224397062904e-01 1.170234217077009004e-01 2.647004483803316877e-01 -3.878815921632332298e-02 8.173608492967478862e-04 -7.266827242266531151e-02
-7.071864026393648306e-02 -1.765564073546023113e-02 -2.064083610358238285e-01 -1.687168559379347565e-01 1.675404533844931931e-01 2.653873837960474269e-01 1.466034714414673201e-01 -1.760432961431855972e-02 -6.775491060463659232e-02 -3.067257042989705862e-02
-8.168848916592134912e-02 -1.256032582547892407e-01 -1.058006118067273960e-01 -3.654924123030123956e-02 8.411997673621095239e-02 2.959499800929725755e-01 1.610913932011079916e-03 -5.890965506307652665e-03 -1.542285994580124518e-02 -1.072544485134713232e-02
-2.721930049704758547e-02 -6.329454718837640437e-02 -4.036460311176610916e-03 -3.475550208022341100e-03 -2.287850675478308657e-02 9.141392465891201580e-02 -1.618721182798695053e-05 -1.583552666512904770e-03 3.440421529751120505e-02 -3.314035118676131753e-03
-5.429081143969896432e-03 -8.621298545361900934e-03 -4.041093165759750486e-03 -2.436039154022031272e-04 -1.335401844388308876e-02 1.403223146405126014e-02 -2.256002875766124557e-03 -3.824081323566934647e-04 2.164380337799472198e-02 -1.348528619546269635e-03
-7.342779120131434493e-05 -4.789097061721871509e-03 -3.556196771143823460e-03 -3.749501747241804973e-05 -2.333187141668111725e-03 -2.231342470995904045e-03 1.051565975547003907e-02 -2.861989966694354520e-05 2.675368306485393071e-03 -1.416619080850340458e-04
0.000000000000000000e+00 0.000000000000000000e+00 0.000000000000000000e+00 0.000000000000000000e+00 0.000000000000000000e+00 0.000000000000000000e+00 0.000000000000000000e+00 0.000000000000000000e+00 0.000000000000000000e+00 0.000000000000000000e+00
0.000000000000000000e+00 0.000000000000000000e+00 0.000000000000000000e+00 0.000000000000000000e+00 0.000000000000000000e+00 0.000000000000000000e+00 0.000000000000000000e+00 0.000000000000000000e+00 0.000000000000000000e+00 0.000000000000000000e+00
-8.270606709233601760e-05 9.563509305511590404e-04 -3.364213565156630166e-04 2.972370512101832297e-04 -5.547424328898703755e-05 -3.947440590821513760e-04 1.138235246635114866e-04 -2.225734177367547724e-04 -2.178173521686722946e-04 -5.767501054028944531e-05
1.929253822403600917e-04 4.130743393178086965e-04 6.725737793217191444e-03 4.650815221656367376e-02 2.029565593930001636e-03 -3.295197170219536092e-02 -1.435759832475559487e-02 2.103446974087640165e-04 -6.523050984461628392e-03 -2.247179011265189926e-03
-3.411838823101390195e-02 5.227319660621831780e-03 -4.748923418442641160e-03 1.019591096819991854e-01 3.453762432328722626e-02 -8.851508040456250448e-02 6.719097684509709595e-03 8.641730649829565403e-03 -1.958215810637730162e-02 -1.012033183985112592e-02
-7.791558203972662189e-02 4.092885207355929922e-02 -1.358731336439732845e-02 2.552611088226781066e-01 2.919466899780335037e-02 -1.447849695596573616e-01 -5.701058715984484715e-02 6.015524015369267535e-02 -6.021564083203054946e-02 -3.202577709207724693e-02
-6.456638658488215998e-02 3.535838132817892884e-03 6.645386281009504903e-02 2.871677706699320431e-01 3.661912078698962431e-02 -1.957861293633489375e-01 -1.825289742622761974e-02 4.294929347621633670e-02 -9.344285273001493031e-02 -6.467761977157769626e-02
-2.240073157816038774e-02 -7.260786046324041454e-02 6.567006778640259446e-02 2.268667894599171175e-01 1.106951610616840019e-02 -1.246615199656715134e-01 1.482226675947968179e-04 6.959479633784212971e-02 -6.914667542414798529e-02 -8.453260492670446047e-02
2.350239133893407967e-02 -1.762726129194963909e-01 2.036785802492790676e-01 1.316928162952556713e-01 -5.555450066807880727e-02 -6.356610598731243789e-02 2.795113865600179492e-02 6.107177087241107832e-02 -3.569232927703032410e-02 -1.168111485599628990e-01
-4.906474606446056645e-03 -2.008407305665400877e-01 1.611086437218364753e-01 1.731468589164552874e-01 -7.465460352666580812e-02 8.821099314380999312e-02 -1.245615301220011698e-02 8.832595134787148833e-03 5.428527957286195110e-02 -1.927264087778987889e-01
1.148139854004595894e-01 -1.951773845550234532e-01 1.740485493174603882e-01 1.989546415156554227e-01 -1.314390414578291422e-01 1.017751065519331422e-01 4.780232432910005991e-02 -1.312680620133304388e-01 -4.441565029034023893e-02 -1.350944687980853154e-01
1.057732322383991008e-01 -2.058889632640700518e-01 1.245258711595177009e-01 1.362483613455455489e-01 -1.088541838038530468e-01 1.341708014346157385e-01 -2.601160568232974701e-01 -1.388139857353826168e-01 1.430302359381445676e-01 6.992468751038079244e-02
1.691984619767129827e-02 -1.185759550784413474e-01 2.116149419690215583e-01 6.281622760522093118e-02 -1.598915972285087361e-01 -5.851557391518628221e-02 -1.711142309794132788e-01 -1.348201236868508679e-01 2.286702661041876694e-01 1.228961990122979658e-01
1.218355306728445553e-01 -7.971345500157804576e-02 2.891953889736655348e-01 5.129505870514532162e-02 -2.242731326911596990e-01 4.136415701243820772e-04 -2.180932360241311097e-01 -2.539696643863930126e-01 1.687804101541583168e-01 1.445294580273252527e-01
2.367084735951769936e-01 4.078313250788161148e-02 1.611158197410693660e-01 5.702514785170694628e-02 4.506111346010612667e-02 -1.099191175772967488e-01 -9.005186070655066266e-02 -3.635459280604190768e-01 2.173136809291494886e-01 -1.944904617408223235e-01
2.525777769503400605e-01 2.229137394072599754e-01 2.002237634058433025e-01 1.721033941699296466e-01 2.234269468892768548e-02 -2.088215450502659276e-01 -2.229650258021118880e-01 -4.412648168037470731e-01 1.923911293840802617e-01 -1.895011103502572958e-01
2.204594231583551500e-01 9.105089335481451884e-02 2.247047432583887394e-01 2.304340598902152870e-01 1.801884758100806864e-03 6.766966070206608883e-03 -7.840299456044400039e-02 -4.286839812210858636e-01 5.538101868165188485e-02 -3.235120133902033568e-01
2.446857673948280576e-01 -1.353499058381542053e-01 2.516898639265961468e-01 -1.510824445575363884e-01 1.602061960234292884e-02 1.390418880610653218e-01 -4.236687174889336438e-02 -4.428711881666122507e-01 2.831441365313727698e-01 -1.629118652050093874e-01
1.619403373212430219e-01 4.697384625590295820e-02 2.274307471440254191e-01 -2.206213810272676309e-02 3.249573938437158582e-02 1.477288296607452700e-01 7.759660376962942974e-02 -4.364974527628117662e-01 2.718256714340214902e-02 -2.627890798137821893e-01
8.636284186045235789e-03 9.580104187317653452e-02 1.074608493104737134e-01 3.155202234533182465e-02 9.073364817993188891e-02 6.211395509246345377e-03 1.294076217215266444e-01 -4.229055320744761204e-01 1.486902645836702397e-01 -1.955875956349257261e-01
-7.097373218547858853e-02 9.212117082693847825e-02 -2.405350463239628797e-02 -2.242024989574759042e-02 1.317272397952358454e-01 1.331525384962410352e-01 1.528650456683109948e-01 -3.539552379765867896e-01 1.946219869891012422e-01 -2.330852570856188355e-01
2.604598268188798929e-02 2.390069725408228707e-01 -9.041340926572540015e-02 -8.609803795449505470e-02 7.803016484175613610e-02 5.852789224931511519e-02 1.398306389211512457e-01 -2.033863657418304993e-01 4.234356174556971192e-02 -2.038874000184521251e-01
3.120046189481412782e-02 2.189461613521740679e-01 -2.398144993686315563e-01 -1.912511227491978660e-01 2.394510281013159936e-01 2.203830087023260498e-01 1.337112832148618924e-01 -1.157315905632708419e-01 -7.048457493442125688e-02 -2.264101556499711343e-01
-1.053302633058714188e-01 1.075554419818739033e-01 -2.528454834887379210e-01 -1.992541937584657308e-01 3.354413042988546034e-01 2.782960379586629784e-01 1.907821553912883716e-01 -7.300410709217330929e-02 -1.250527266939515103e-01 -1.565881652914797306e-01
-1.363193469184876827e-01 -1.181030811004516942e-02 -1.606346270566104961e-01 -7.690795949300315015e-02 1.074670267709679217e-01 3.314516807088891404e-01 4.734178778705699919e-02 -2.628204402369642770e-02 2.663473110849439406e-03 -7.696968277592132479e-02
-8.963890321048181842e-02 -7.830460617222743946e-02 -3.964550819686369493e-02 -1.966076259882098068e-02 -2.520126225099423439e-02 1.696750505391538544e-01 4.515040510384958627e-02 -9.261583563552810636e-03 7.395666141870600729e-02 -2.706949106876835320e-02
-2.240676630403301214e-02 -2.159331905755371150e-02 -1.465218118988612615e-02 -2.684935300902187121e-03 -1.856848230762859694e-02 6.238418293676779164e-02 2.784447714168678673e-02 -4.072286890362705920e-03 -3.576468484472242887e-03 -2.674220543616010002e-03
-8.380826363869598589e-03 -6.351792778964736666e-03 -5.218799114118956133e-03 -4.752270622898519420e-05 -1.932017024634349368e-04 7.214930696890871006e-03 1.573303359137573007e-02 -1.427542166236947941e-04 -2.591228931301386377e-03 -2.183847469582247874e-05
0.000000000000000000e+00 0.000000000000000000e+00 0.000000000000000000e+00 0.000000000000000000e+00 0.000000000000000000e+00 0.000000000000000000e+00 0.000000000000000000e+00 0.000000000000000000e+00 0.000000000000000000e+00 0.000000000000000000e+00
-2.126925067481522455e-07 -1.427484122545039277e-07 -4.808654090662611768e-07 1.726402622586801645e-06 -6.279992193716562836e-08 -3.180535723529010371e-07 -7.213606614209194022e-08 -9.556580907009347746e-08 -2.561162590690131493e-07 -8.542466594662488557e-08
-1.335310453572035325e-03 -7.232025295830039717e-03 -1.094210219385470181e-02 1.327722387595617684e-02 -1.696467188798354885e-03 -5.075478608485547993e-03 -1.142896420969790510e-03 1.869273028314337101e-02 -2.232269603902127357e-03 -2.313404393686991235e-03
-2.839449716031988875e-03 -7.226380537691544197e-03 -7.664833840808666851e-03 1.328213439565045229e-01 -2.084156356572358301e-02 -9.995960676018549040e-02 -2.502100604415738450e-02 7.093822199195554123e-02 -2.177646500206054103e-02 -1.843026048180093635e-02
-6.076894920880350492e-02 -1.052842545544442968e-02 4.064584324013020139e-02 2.238247630930932930e-01 6.416652343323260566e-02 -1.891071333452375713e-01 -2.668518003617621412e-02 6.459070761060581312e-02 -4.138491504132599946e-02 -6.475323429007459608e-02
-1.882230870504490033e-02 -1.847540827090805166e-02 3.077991483648091081e-02 2.995789756468558163e-01 1.161045559650250719e-01 -1.469149520399260500e-01 -7.946053886940449007e-02 9.081260807942152791e-02 -9.488245096926231636e-02 -1.787203956732375254e-01
-4.559970095225429620e-02 -3.430880254404659879e-02 2.006344418664602891e-01 3.103630279258488001e-01 7.086361198253790517e-02 -1.052875255838790491e-01 -1.388306525365190502e-01 1.139196655748691972e-01 -1.515251683521072479e-01 -2.202288973809097827e-01
4.211115056216557795e-02 -1.076494131736743937e-01 2.089350075288966824e-01 1.393821634683304611e-01 -1.109906552573692619e-02 3.848021225547616081e-02 -7.470583590906867966e-02 8.287154489959196180e-02 -7.564754942274456995e-02 -2.426782146832374143e-01
1.007094084699083902e-02 -2.551843498307074798e-01 1.513756544662293313e-01 1.958920049769106997e-01 4.996290474062497350e-02 -7.734285479673542671e-03 -6.848447536804171121e-02 1.713476769952372025e-01 3.148109489657897192e-02 -2.787271662441496711e-01
-8.872434852149548024e-02 -3.001393517240496522e-01 1.800253825654316575e-01 2.428450263692989719e-01 9.419007454389809186e-02 -5.404186666279763018e-02 -1.425515481753123204e-01 1.647947859684410488e-01 1.044562452892163207e-01 -2.008543996526329090e-01
8.322728514717898929e-02 -2.438353202563175448e-01 2.110590050785240146e-01 1.953431806307340257e-01 -9.001784464955314702e-02 -3.189637196661047197e-02 -2.374295492788718043e-01 2.160974064026123798e-01 -1.079942569090512755e-01 5.446465801353556589e-03
7.851367070218918942e-02 -1.370355317551328056e-01 -3.546651906923926900e-02 1.638766720990859072e-01 -2.207289758888300590e-01 -5.391971851728062648e-02 -2.876972343908208440e-01 3.167789973248000268e-01 -7.672823040170746733e-02 2.524068698969336721e-01
1.909219387785747110e-02 -1.161187522449240173e-01 3.873857200660003886e-02 4.956096738066666924e-02 -1.792578564439109290e-01 -5.378198710387992187e-02 -2.666475657932025345e-01 1.674844470839572663e-01 1.696562012556846188e-01 1.712737799811513417e-01
1.350210850859317191e-01 -1.262429342092531159e-01 2.074614602016400244e-02 1.205202483924280865e-01 -3.456634116693590997e-01 -3.746336890311433715e-02 -2.721528704775157959e-01 3.734566669771634262e-02 5.110489376916734633e-02 4.167845452938364614e-01
1.266104447364826968e-01 -1.208869204515471835e-01 9.829986490935816931e-03 2.238498478766838204e-02 -2.445140210040936402e-01 1.248152794898674534e-01 -2.352187200355980168e-01 3.873933552842410977e-02 2.042402080779797888e-02 2.578156096500601180e-01
-1.290803110186187867e-02 -2.100098077231102311e-01 4.675613933760750657e-02 2.191146684079638418e-01 -3.691057415178600754e-01 -9.910567862050659316e-02 -1.251982790890817376e-01 4.075053673883323457e-02 2.558950778995682795e-01 2.538111156684485503e-01
1.008331544683982450e-01 -2.326414384938484126e-01 1.697600245695435328e-01 2.388019788116403919e-01 -4.091318332050914997e-01 -5.220535011006428167e-02 -2.407404358967553948e-01 -2.282034974827238175e-02 7.562082564847145971e-02 3.725234239559773175e-01
1.886558495681880387e-01 -1.971304373668295584e-01 -2.514053462852035639e-02 -6.109185579781653552e-02 -2.206670017198304745e-01 7.955596965374873986e-02 -1.763799824724090193e-01 3.446347849572050509e-02 1.844981513462897182e-01 1.932363629214598200e-01
2.654137689735359129e-01 -7.477010694269252411e-02 -1.826556989706865780e-02 2.685235419284685565e-01 -2.699136870765141416e-01 -1.072179480716843950e-02 -1.866528210678521926e-01 -4.613187030850515041e-02 -8.679480399003393354e-02 1.593133431878289152e-01
1.851277326206437757e-01 -1.248020432110223260e-01 -8.707688751329861754e-02 -6.105742553750641288e-02 -9.267350184249847911e-02 3.010703187451641005e-01 -1.556500346951282254e-01 -1.022403419695838422e-01 1.073913333996707048e-01 2.991085000355951651e-02
1.111586174365719604e-01 3.081065686390652147e-02 -9.018050928954499112e-02 -9.732544612253619942e-02 1.298729860592217483e-02 1.587219971124769202e-01 -1.271412098829054482e-01 -9.228200758749027788e-02 8.740284580648159662e-02 5.847757057117868029e-03
2.034815935332344727e-01 9.444422659447865298e-02 -5.829954212281650283e-02 3.623184728428170426e-03 6.390893295941094121e-02 2.878880464941169226e-03 -7.250161081294650978e-02 -1.284725895497333403e-01 5.488584692586956880e-03 -1.145516604875840283e-01
2.289804709104685532e-01 1.097279973200463304e-01 -2.332015417001349900e-01 -1.034902107743231603e-01 3.131481859012060776e-01 1.488754244186250852e-01 1.694926046681326584e-02 -1.442853022365017113e-01 -4.216007815016766663e-02 -2.945442061560320512e-01
-3.304290733080340881e-02 6.949564037672696648e-02 -3.593155589294367291e-01 -1.576517368383313911e-01 4.310630802384293747e-01 2.900940981998204604e-01 6.013757708966298299e-02 -1.395488386756660315e-01 1.207077889251126357e-01 -2.819391430555151512e-01
-2.643022126504884217e-01 -1.252030261966943087e-02 -1.812553644578612233e-01 -7.096431237234453182e-02 1.338376618940661511e-01 5.293201936102841509e-01 1.713897882942132939e-02 -6.716285674947700124e-02 8.314832244844500009e-02 -1.672401079323753426e-01
-2.043628928139027967e-01 -6.592459820208770860e-02 -4.395239020975385408e-02 -4.111365323735553107e-02 3.495447595535966512e-02 3.145109961591491810e-01 6.325850283478490731e-03 -3.601487607670469937e-02 9.930916394598127139e-02 -6.373207580416460905e-02
-9.196386836525230479e-02 -8.810423049054475278e-03 -9.858667938420741933e-03 -4.880076538910729095e-03 3.530362538526740646e-02 1.344692381809339254e-01 -5.711162346119365253e-04 -1.079201940623512011e-02 -2.060867703027851119e-02 -2.228801500343738362e-02
-2.088472189074820282e-02 -3.699627579503763156e-03 -3.394546778619939812e-03 -2.451660012268496260e-04 -1.017964286563441487e-03 2.240751967658625304e-02 1.623446783104275440e-02 -4.953775509696083405e-04 -7.128690359141780578e-03 -1.775893060855423308e-03
-1.004641973922622153e-06 -6.637595781989978049e-07 -1.396969674541284365e-06 -7.048563917135934416e-06 -2.164154044784748198e-06 -1.115309945241194231e-06 -8.627276010650933997e-07 3.334336359730440748e-05 -2.121140086409029928e-06 -1.696609677600538482e-05
-5.919667430402299885e-05 -3.958175117058563257e-05 -3.050360447187183775e-04 3.519857219833194984e-03 -3.626656471224989767e-05 -5.447338452076729920e-04 -2.131553551963799123e-05 -4.163864569633442606e-04 -7.083954101240248389e-05 -2.026500806224565063e-03
-3.609993797948826081e-03 -1.268539399051631794e-02 2.349635351227701008e-02 -4.014291907115376430e-03 -2.493526189708568982e-03 -1.852463964226873372e-02 -4.951803575695120328e-03 4.005647929619815528e-02 -6.296987927870880374e-03 -1.097619577735137360e-02
-8.739509856360813331e-03 -6.135621186032983246e-03 9.234679046017043452e-03 1.239627509695148955e-01 -8.515989782114558732e-03 -1.148934912394855984e-01 -5.240619074758449958e-02 1.521813096078281635e-01 -3.252565785822020272e-02 -6.216227895356150196e-02
-7.874223248462980385e-02 6.975372947369514083e-03 1.526540126780047968e-01 3.369691174018453195e-01 4.917463408198009117e-02 -3.608171430792871948e-01 -3.187591703484180666e-02 1.202910295911344823e-01 -3.727737733393626102e-02 -1.573514967676395704e-01
-3.146872706386297930e-02 -5.137771785741584302e-02 1.469043522475844965e-01 3.320317767366331441e-01 1.395950701016255013e-01 -2.340290181468575592e-01 -7.246415600106388688e-02 9.052188512452824520e-02 -1.615170332155682273e-02 -3.035617618196137513e-01
-3.583754650210550091e-03 -1.057775479365536397e-01 2.205165387677855138e-01 2.018874956135496557e-01 4.190693748496354676e-02 -7.130379940321437959e-02 -1.570982162358304235e-01 1.970362031363591948e-01 -1.924253852741564588e-02 -3.043413182494346669e-01
8.251570498077974436e-03 -1.361257998554721571e-01 9.691950719912811874e-02 1.007178260844554529e-01 -1.407528914824661241e-02 3.124895171091487261e-02 -8.518233750987973252e-02 3.423845032168683078e-01 1.594322366776780922e-02 -3.600821558636131403e-01
-9.047666531357806408e-02 -3.552934258951185309e-01 1.382531159554931666e-01 3.927266505987372230e-02 -7.773775758561800309e-02 2.263162972096539050e-01 -1.158937711088452449e-01 1.899489872080411812e-01 2.277384570988739143e-01 -1.821279026287769831e-01
3.454036276886873064e-02 -3.635679153934811003e-01 2.400938410414034038e-02 5.568625782735556889e-02 3.182448158008031880e-02 1.224491960146423392e-01 -1.572876712356026108e-01 3.141154227916729269e-01 -3.650590563935016131e-02 -2.526361281832524910e-02
5.075320541668822127e-02 -2.250779753215408074e-01 -1.141650079005323420e-02 -5.456517910845172514e-02 -1.286333726944599298e-01 1.471226642831027775e-01 -1.766798098554667462e-01 1.351260632519759863e-01 1.375633050549431025e-01 1.258075997632632781e-01
8.147778982812357851e-02 -2.435006651521334775e-01 8.410456885293891849e-02 -2.102155771055587777e-02 -1.707341804892731629e-01 1.922873315551937301e-01 -1.327061735396707076e-01 1.919669963499946175e-01 1.313426626115606977e-03 1.681246367926662183e-02
3.129012669312624534e-02 -2.253281033393994548e-02 -1.071413330314947981e-01 1.747663384993307090e-01 -3.388323235580879556e-01 1.073817305156103130e-01 -1.283446493772805730e-01 1.714526768388022482e-01 -7.800792683378704462e-02 1.899681705877194482e-01
8.498720724376700175e-02 -8.885171599695552980e-02 1.828321363858033677e-01 2.062588014731511488e-01 -3.540524350832816580e-01 -2.944649660284221968e-02 -3.082627565358254107e-01 3.204457844967974200e-02 -1.056389314001384000e-01 3.801296120666431411e-01
9.573681824857985245e-02 -7.085107511282032200e-02 1.334848252541798730e-01 1.725175211550477039e-01 -5.174421080710098764e-01 4.901143131549033638e-02 -1.938117470590006719e-01 -5.047587704125611890e-02 -1.505404608401238742e-01 5.323706721509107176e-01
1.308231451197876538e-01 -3.026118061915842317e-01 -4.495904304747942726e-02 2.122925462366063720e-01 -4.794531363641817423e-01 -1.099869472890919742e-01 -1.742143256130400109e-01 3.522866367901689166e-02 2.325202624227482584e-01 5.003606410472167809e-01
1.310512182097988421e-01 -2.873877454553769306e-01 3.575187476002712750e-02 1.080588653282721634e-01 -3.976282537946864148e-01 7.274657523716505925e-02 -3.555223453592151750e-01 1.237630489209148588e-01 5.222235202038290336e-02 5.169444101327154151e-01
1.870211279476981514e-01 -2.245666031766677950e-01 -1.431537040234807656e-01 5.864059785560859356e-02 -1.608476912994896146e-01 1.212778180798999988e-01 -2.745063907914480628e-01 2.801047790645425084e-01 -1.071221434746992551e-01 2.631522098180364977e-01
2.444419144342988570e-01 -2.336359283959495436e-01 -1.333536151524412905e-01 4.399596512249039082e-02 -1.360854805691642244e-01 -9.614166260694795296e-02 -3.726966892216205252e-01 2.807432456606009374e-01 1.756013633842170296e-01 2.271308873445149201e-01
1.652074469235102483e-01 -1.360747657673810340e-01 -1.945322083534584412e-01 1.696306605773738874e-01 -1.169312990985526407e-02 7.001141863763447881e-02 -3.504624183938953585e-01 1.868455096592113174e-01 -2.116490425445474027e-02 1.222323908813150173e-01
7.131125891264449013e-02 2.405844089626856322e-02 -1.519937970868976418e-01 3.813930368637650364e-02 -1.074113693732943187e-01 1.584964197542081121e-01 -3.311017088776661565e-01 2.310918696584511878e-01 -3.903142292097575017e-02 1.064410053508847709e-01
5.916227530802879025e-02 -2.420322534906648934e-02 5.688833970958707270e-02 -1.547644663867574488e-01 -8.433034160974710314e-02 1.226835822478477556e-01 -2.743412658908054302e-01 7.926815410222619318e-02 1.402087687333300747e-01 7.942817913535658858e-02
1.340326136145031100e-01 -3.314148845427881962e-02 -8.601285018404168647e-02 -1.450592615410199182e-01 1.399339889342957333e-01 1.677094525419969284e-01 -1.804687872924169989e-01 1.505965413662767594e-01 -2.574936770372775185e-02 -1.218408412815864678e-01
1.526679015859980504e-01 -1.033348905826703690e-01 -4.071028337698490152e-01 -2.265762867112213474e-01 4.070324167829912354e-01 3.138213906495250782e-01 -1.841426057130839400e-01 -3.733851898622080057e-02 3.416438988788222941e-01 -2.566704721342886186e-01
-9.134902119488255701e-02 -1.782364189835227986e-01 -2.556114162340086815e-01 -1.555803613098998561e-01 1.024187425267538282e-01 6.466062187146489615e-01 -8.016361781424877209e-02 -7.428215791501402432e-02 2.951240271883568966e-01 -2.089259949781847314e-01
-2.241425317568991882e-01 -1.004577041496843015e-01 -4.856353696992272984e-02 -5.244453604996310997e-02 2.541520126951851005e-02 5.566517167774495123e-01 -9.201385325741295862e-02 -6.766547406223885619e-02 1.040863454442986086e-01 -1.008656272451445152e-01
-9.493736857329929113e-02 -1.118758002783606757e-02 -1.467071052319879679e-02 -5.844095761763184321e-03 1.133038990398778020e-02 1.397052700340980780e-01 -2.842061447552974608e-03 -1.102229168233035891e-02 1.636193413599979635e-02 -2.689348605810538625e-02
-8.103010504093403205e-03 -5.203456372700046573e-03 -2.441140973278263168e-03 -3.851394738340941401e-04 -1.387555789322246838e-03 1.705857069825738453e-02 1.182452728954259263e-02 -6.909638307701805723e-04 -8.976830216697831433e-03 -1.695000827103944037e-03
9.197045065337377048e-03 -5.469296364743015003e-06 -1.666275035673206570e-04 -3.107955306479956323e-05 -3.340225534602453612e-04 -1.239284483287144884e-05 -2.204901354451377222e-05 -4.438141931171003633e-03 -3.462494246117196978e-05 -4.152637426870722619e-03
-1.674107411339678339e-04 -3.940110175503682826e-05 2.030190035777045682e-03 -5.631044374853608203e-03 -3.632284332992643063e-04 -1.538531111194468338e-04 -6.605042708070582190e-05 7.878187666797634506e-03 -3.868160293703671454e-04 -3.100573483962275334e-03
-6.190066219984218052e-04 -8.333922869563486005e-03 1.333243633500032742e-02 -4.255370090512094854e-03 7.888925172551681034e-03 -1.595601763283687954e-02 -4.564295410887109390e-03 5.520273776120079162e-02 -8.932166781030700248e-03 -3.376331986192412232e-02
-1.216778560077758954e-02 -3.080482866414667713e-03 3.818936068080444612e-02 6.124986070939205524e-02 3.095412212271841674e-03 -1.012831072668416016e-01 -3.679384134314098165e-02 2.214160913405517628e-01 -3.115178515034101869e-02 -1.394737227155038173e-01
-1.035319951118654352e-01 -7.183055474823188402e-03 2.222878346406782502e-01 3.028451327302035812e-01 1.983221701842242599e-03 -4.245450804913497023e-01 -2.101062702111181762e-02 2.669929937018929444e-01 -9.893039595177481257e-03 -2.279453850802910242e-01
-9.619490392448148963e-02 -8.419124540696343306e-02 1.814407591096378058e-01 1.562127963014426080e-01 1.113751996968553593e-01 -2.567562631838868903e-01 -8.349046341399013471e-02 2.721693784505334057e-01 1.237500609481302083e-01 -3.243153185772770231e-01
-6.868146431010656305e-02 -1.451342323994483929e-01 6.478582439791844005e-02 1.400769455351631165e-01 -4.413820905173995029e-02 -1.729457969047415167e-01 -1.567990958427074033e-01 2.627419451965841701e-01 2.681173186920282059e-01 -1.480232353129504741e-01
-7.507309044882509719e-02 -1.567956909024754986e-01 1.171404884111127281e-01 6.141009885190124029e-02 -1.597997142355571040e-02 -8.881414068969056830e-02 -1.303351688517290774e-01 3.080478348238574471e-01 2.109800422742959536e-01 -2.305804020448916913e-01
-8.173467557393288008e-02 -2.826353271760295716e-01 1.273993722662594141e-01 1.728709130408209727e-02 -1.759720489564216284e-01 1.068410103849619097e-01 -1.824547958319524543e-01 1.266596737818878604e-01 1.207098656797957054e-01 2.238998341213493115e-01
-8.189501872870146026e-03 -3.569403350049064616e-01 -2.234267606768207751e-02 -2.922928140149109316e-02 1.081506015480783039e-01 1.207516185542388543e-02 -1.568341732209074246e-01 2.790858435034673790e-01 1.882384010060368373e-01 -1.401404034514931209e-02
9.606266324791018496e-02 -2.413668059407704236e-01 1.739640282545987515e-01 9.007971397384752221e-02 -1.637315440830579283e-01 6.043539231137488171e-02 -1.796847728424886825e-01 1.645244066134248229e-01 6.640623011947276166e-02 -6.668931165431192520e-02
6.248820054612309882e-02 -2.765080178496133190e-01 1.239296492989759302e-01 -6.631827670475699821e-02 -9.138537587737528833e-02 1.783496218948424361e-01 -8.289901409767093388e-02 3.239333450734379061e-01 -1.082449449518470275e-01 -6.334518733211437491e-02
7.625105764896333849e-02 -8.967297907067786622e-02 -2.595209927718275522e-02 -1.195761616587535632e-03 -2.548506376150422303e-01 -4.833572690767416746e-02 -9.119119552850775412e-02 2.870893576367541944e-01 2.995581001505173147e-01 -1.517001154205611657e-01
-3.333531857045617108e-02 4.029855463134389415e-02 -5.587552812633788790e-04 4.630062494463828976e-02 -2.126984446073072743e-01 -2.136351266353314973e-02 -2.458207594817335140e-01 7.949339936244574634e-02 2.182867305244170497e-01 1.293974811414484172e-01
1.789100963260940869e-01 -5.450465154500811274e-03 7.891306259400145129e-02 1.828983772286365828e-01 -4.434804274345326980e-01 -1.145438937066464713e-01 -2.550748911541799169e-01 2.459530847944051413e-01 -1.561330067857501780e-01 2.880080632924723605e-01
3.204013094309554055e-01 -5.578666749967868543e-02 -2.870201336921657416e-03 2.306903987518277577e-01 -3.225723163797345472e-01 -1.982040190267792545e-01 -3.725561209358365655e-01 3.355507106629536662e-01 -1.251249333608115688e-01 1.904718396940242864e-01
3.424340642643409205e-01 -1.403830906027096759e-01 -8.189535597343353124e-02 7.102540355803738104e-02 -3.071219394807667147e-01 -7.047945467513822004e-02 -4.422870605321010951e-01 2.221362681696508745e-01 1.789696414167436800e-01 2.276015238553750208e-01
2.715841815363707612e-01 1.170439879574085712e-01 -1.188700518001249012e-02 8.882295178241642053e-02 -2.692703050579949853e-01 3.431471171822389477e-02 -4.148251796602870356e-01 2.232952472848690750e-01 -1.509848173463022511e-02 -2.398010864636199863e-02
2.439361055645575538e-01 -3.812039579772880799e-02 -8.370556906982720702e-02 2.344770913222361808e-01 -5.703374575360506404e-02 -1.089945141649183852e-02 -6.077653721689317834e-01 2.762809875757639699e-01 -1.416743932060556335e-02 5.699778906463095346e-02
9.745681401226292950e-02 -1.470160256776641416e-01 2.072509254216181040e-01 1.069298477751226134e-01 -1.050112689539259431e-01 1.238275263409272936e-01 -5.100522730954726303e-01 6.994939702027684614e-02 2.075645141297993712e-01 -5.089945697294259719e-02
1.176724499308541283e-01 -8.816749357314487834e-02 -3.565157751504268585e-02 1.705993733218168218e-01 -1.392316841031302488e-01 1.806959904278574447e-01 -3.877764823706485453e-01 2.630569754298764384e-01 6.604527442681339296e-03 -8.780207899112266179e-02
8.635709145134842779e-02 -1.651114143850322957e-01 2.715332249959552871e-02 3.843053493983170782e-02 -7.137392234878597863e-02 1.285614554591121561e-01 -3.066147820251556300e-01 -4.747175533791091195e-02 1.961520161854934663e-01 1.139174535615030542e-01
1.759188095827411424e-01 -2.044264554502210340e-01 -1.168038308179437657e-01 1.252953943448171237e-01 -4.014659251840816540e-02 1.340541051500064584e-01 -3.241451538841855218e-01 1.192095933928352808e-01 1.515309666295374391e-01 -2.048683642918009210e-02
3.221786118996816106e-01 -3.070481355191926331e-01 -1.995378031084456827e-01 -3.061512807864986141e-01 1.542293142174709364e-01 5.339781087987556241e-01 -3.848338780094269218e-01 2.543283044422666589e-02 2.891827221240328982e-01 -1.274304900606054725e-01
4.068088261724090576e-02 -2.729762436087295185e-01 -3.093681681993209476e-01 -2.778956176578273873e-01 6.786956968976474817e-03 1.011763751362689367e+00 -3.004702382488400048e-01 -1.296980734828951098e-01 4.291500092656083676e-01 -1.979732590169010487e-01
-1.776082331534423187e-01 -1.347289183682416069e-01 -1.140675547707814819e-01 -6.796476276179079512e-02 -9.383777042681512885e-04 7.185436502586657337e-01 -1.521037854708250370e-01 -9.305046083361770415e-02 1.408962645306212069e-01 -1.189778217263194326e-01
-5.950678567463252994e-02 -1.355301370729553902e-02 -1.268812185071732830e-02 -6.739109869938837184e-03 -7.654145243561481793e-02 1.869783073480492941e-01 -4.702145721124796618e-02 -1.750065472077386858e-02 6.628845357134176275e-02 -1.971616544917069447e-02
-3.852414697046311048e-03 -2.229579004635543014e-03 -1.036217979899405192e-03 -1.831586401168291685e-04 -1.756355132368774170e-03 1.401319053710767260e-02 -7.954964452400362747e-04 -4.965059909356062638e-03 2.628068330706551884e-03 -1.822977059151211204e-03
-1.789076904564871641e-05 -2.205318524572666002e-05 -1.812375252751955590e-05 -1.574261369320140744e-04 -6.672738276383671481e-04 -8.865183619042942779e-05 -1.893009319600000986e-05 2.156506852604462600e-03 -4.726174460379633916e-05 -1.118895507224955139e-03
-2.372360007987739058e-04 1.036886264580481973e-03 -1.119418226291689225e-03 -4.635019077601942004e-03 -1.074961813155701773e-03 -4.652824639902525998e-04 -1.207628579756124922e-04 1.195741878459279268e-02 -5.312194077233723007e-04 -4.810405201635911329e-03
-1.415054718645318392e-03 -5.588816055287711831e-03 1.231558360145132772e-02 -9.578402297688217576e-04 3.452231028006515559e-03 -7.149374548211721685e-03 -3.501985367804689910e-03 5.444351083354469212e-02 -1.447216533160550732e-02 -3.712608921167873804e-02
-1.951070509511158846e-02 -6.174978623012604417e-03 3.377580662719378846e-02 9.565589327772115735e-02 -5.011356318464067067e-02 -9.729728632908576924e-02 -3.539124962875352803e-02 2.529922502776472126e-01 -2.907534255562814821e-02 -1.448608247663297766e-01
-7.240362390527732561e-02 -3.906376723420529329e-02 9.873917934140695463e-02 3.661660639054694633e-01 -9.231108487454880995e-02 -3.253761511535712692e-01 -2.445966977618426602e-02 3.710457367699959708e-01 -6.873594893566985393e-03 -2.754630881795202546e-01
-9.980815921079237707e-02 -1.190403366847092581e-01 1.238644920866478899e-01 1.900613613012646363e-01 -1.608673002182898354e-02 -2.401629826971639625e-01 -1.378388722177910364e-01 3.564672204186685178e-01 1.212142093611934535e-01 -1.786702023354893865e-01
-1.267133396333465778e-01 -1.776881652589442362e-01 2.132073295174368409e-03 2.196123613568807809e-01 -1.141487436836114006e-01 -1.068812786144704846e-01 -1.647319549959696539e-01 1.839657474223944933e-01 1.555181765854830866e-01 1.289351235264097895e-01
-8.379352125419897712e-02 -1.449895471868263841e-01 2.032920050601804904e-02 1.670747516686111600e-01 -5.718895796704250023e-02 -9.439169475368686113e-03 -8.038074750646462263e-02 4.820769839803461937e-02 1.435814442126729096e-01 -3.401151395436347990e-03
-1.541807549594117477e-01 -1.782679130532323908e-01 2.689315513678343372e-02 1.087022586881852132e-01 -1.197815452314092560e-01 1.178685556502538923e-01 -9.221567162262399309e-02 1.494631930207944992e-01 1.801656692447325958e-01 -3.864694687407235069e-02
-2.498189045643398054e-02 -2.757726841302780008e-01 8.784802696201465810e-02 1.142177308996390576e-02 -5.946204861679914300e-02 6.169940342976738823e-02 -1.700294325311215160e-01 9.750340804626288216e-02 2.394057170603639539e-01 3.236772714625995445e-02
2.174120772467321994e-01 -1.920046289948503793e-01 2.520512320794170424e-01 -1.100058893756273998e-01 -1.673466341045855843e-01 1.206859795119351458e-01 -2.924365717984936941e-01 -1.139065199185054639e-01 1.376191798553738910e-01 1.479317754986031741e-01
-4.155713237957011502e-02 -1.040077580914894745e-01 1.546035791154686256e-01 -3.201895728441529476e-01 -1.611899542466490864e-01 2.453298928578965532e-01 -1.161115263507834505e-01 1.449337258259298933e-01 1.718089641424187519e-01 2.637978197093050065e-02
1.922824071991439954e-02 -1.357174786716022485e-01 8.597872242911475116e-02 -3.312281185691861030e-01 -7.714450616840623498e-02 1.436037122810283617e-01 -1.041615777533601156e-01 4.029606439641866267e-01 8.021813885026216062e-02 -8.373777708195126457e-02
2.049687226454809663e-01 2.819812597424750308e-02 4.413272299362818590e-02 -1.368158075546924701e-01 -1.314782989639787514e-01 -7.556389611663777428e-02 -3.702929664603323845e-01 1.582455998885517467e-01 6.305899073308132707e-02 2.155468068606511134e-01
1.302777675934173318e-01 1.769251332995853410e-01 7.230243642149423999e-02 1.466105813452984463e-01 -6.421793709050043208e-01 -1.395559140775194384e-01 -2.478423470113426952e-01 4.642752330035325725e-01 -1.554772701552479264e-01 1.946637504857850476e-01
-4.434849663843306450e-02 3.647557768661663369e-01 1.908822514905819112e-01 3.547326084079442943e-01 -3.687424665259810830e-01 -2.868207102820031218e-01 -3.883759198754773712e-01 3.801365387543677032e-01 -3.908793536230399379e-01 1.886597714258728686e-01
9.987761972496582430e-02 1.299436303219816957e-01 9.176936375001173984e-02 3.072165552503604014e-01 6.327102141711603289e-02 -4.252234202399515772e-01 -4.525866050339860114e-01 2.928808940337248035e-01 -1.430678796709847767e-01 3.591882044676258934e-02
3.143570990852290747e-01 4.846343952799349319e-02 -6.086337102126929133e-02 7.739039905916823836e-02 -1.008311808545407640e-01 -2.031536516391583003e-01 -6.461353671985873293e-01 4.654969805166074281e-01 3.765875203000292049e-02 6.761690049455215679e-02
3.860849558809492654e-01 -4.866537883400469389e-02 -2.076937235011214970e-03 1.039897186220069963e-01 -5.217683868537127678e-02 -1.043363752829635921e-01 -5.714115341944481230e-01 2.000895821545866093e-01 -4.171501073233334356e-02 1.302178183065865469e-01
2.113607829310115427e-01 -2.366766137302031558e-01 4.771427599834763850e-04 1.449259636659871731e-01 -6.044054765243227212e-02 -1.973309906708186484e-02 -4.154620742514583132e-01 2.016913245453072212e-01 1.421288240755096965e-01 3.172829672337749984e-02
1.214275252306084851e-01 -2.578259395770699514e-01 -6.334489150202171626e-02 3.387374262161356175e-01 1.466188910971513194e-02 8.574856826235184581e-02 -3.832127957458921208e-01 5.924975722578576520e-02 6.867333992837244827e-02 1.588512085201306684e-02
3.663529757016634192e-02 -3.404135975383539847e-01 -7.188406250904341710e-02 1.561835495206626290e-01 4.172590801518286791e-02 3.186709449162731800e-01 -2.485738467377895389e-01 1.566777819358013968e-01 1.351081244637609147e-01 -1.841300996366593001e-01
8.906717307337695677e-02 -3.771392019294776965e-01 3.400995430311726936e-02 2.446809324543666453e-01 -4.787641608117705616e-02 1.512953407156981400e-01 -2.944593549013427847e-01 9.832654396830622923e-02 1.940262836314205486e-01 -9.193125523428839763e-02
3.850607194974311476e-01 -3.573550462463865873e-01 -1.668458521976984299e-01 -1.614963339598764203e-01 -4.804940830279294528e-02 5.124800960082099843e-01 -2.479616940088564814e-01 -6.516955813256268548e-02 3.931567175218846355e-01 -2.438196401793547574e-01
1.617618611882949420e-01 -2.204914700035740527e-01 -3.011538168204742072e-01 -2.870630312273077522e-01 -1.993726950908538409e-01 1.195263378262314991e+00 -2.689047347079753236e-01 -1.187424037032885488e-01 2.213283174368189943e-01 -1.826254053339539940e-01
-1.482046212529975759e-01 -1.072696273999056427e-01 -7.775237985178386213e-02 -4.959033041079035503e-02 -1.481227835044975627e-01 9.200934811586211071e-01 -2.366689517069020532e-01 -5.028066291641883345e-02 2.859343843672214683e-02 -1.307975625520471641e-01
-6.859794815727206230e-02 -1.281517551084477603e-02 -5.187629769365047390e-03 -6.803971966188779828e-03 -7.388579557699861966e-02 2.385611757936001720e-01 -9.860268725160281633e-02 1.044630456632031357e-02 4.644696597721445497e-02 -2.956123810486264991e-02
-5.554117033341611064e-04 -1.168147389481018423e-03 -8.631195824831235574e-04 -2.070408202873267754e-04 -2.299003568531353490e-03 5.974760227178389782e-03 -5.523896623940057100e-03 3.490878416452247029e-02 -2.661067006151392536e-02 -3.656254642129877323e-03
-2.769704217866991201e-05 -2.673501655566447348e-05 -2.777479129994326300e-05 -2.391477329749961203e-04 -7.847023592322426629e-04 -1.164078541631095583e-04 -2.460394247818047155e-05 2.996044658472713645e-03 -6.176755200779851377e-05 -1.687208367582111387e-03
-4.870089933061025550e-04 1.730115069512441978e-03 -1.312085415403004907e-03 -2.620097206088435864e-03 -1.025650352035575516e-03 -1.068309728924698304e-03 -2.102530918278820303e-04 1.402288637446789596e-02 -8.264254976746055088e-04 -8.203171158720039269e-03
-2.973776401538346867e-03 -3.084044100018713125e-03 -8.706126416148648323e-03 6.811367382446495075e-03 -4.112432452575634501e-02 -5.274800286847921779e-03 -2.419151265703374260e-03 1.291013990622898455e-01 -1.174610683725042272e-02 -6.058443661147259324e-02
-2.512089491338597921e-02 -3.026525608073318135e-02 -1.123495119303117781e-02 2.229923955436101668e-01 -8.005304999173729064e-02 -8.054807668125052444e-02 -3.446590516917112657e-02 2.386603486880104485e-01 -5.683222733023985535e-02 -1.431323828720715841e-01
-8.537152266755999863e-02 -5.211799693209889783e-02 -6.255436918040160887e-02 1.551399362947070704e-01 -1.249220023652224537e-01 -1.208690383502170340e-01 -6.365366870312913483e-02 3.530358429532416964e-01 1.233542889084281724e-01 -1.220414699577477974e-01
-9.236793664464743037e-02 -1.207033109876610721e-01 2.831351595974368821e-02 1.197227681799059237e-02 -1.119739536421088394e-01 -8.318490453983619359e-02 -1.309918068895028764e-01 3.680426490643927129e-01 6.659644124103704377e-02 6.429702962059249960e-02
-1.339813680385084915e-01 -2.234045430392469223e-01 1.081349733082289793e-01 -1.774558018834328579e-02 -2.148752068975629814e-01 6.150470374577676064e-02 -1.318670893388432519e-01 1.587795637761979517e-01 1.474447138898235254e-01 2.460098327824769004e-01
-6.779667518533043225e-02 -1.995891194452240613e-01 -4.000775066490976778e-02 -1.758477865404465823e-01 -3.900977402800578225e-02 2.050483860279511961e-01 -1.630443702195577202e-02 2.281063886949668065e-02 2.382841236579667510e-01 7.241239433045816576e-02
-1.162286040424832106e-01 -1.288094979902339732e-01 3.449704163686572594e-02 -3.009499482083722310e-01 -5.899007443162587738e-02 3.781755006663689023e-01 2.722418422444491254e-02 -1.068290330964799112e-01 1.142355656174099954e-01 1.576748656241059032e-01
2.188925160351676974e-02 -1.836386693500460521e-01 -1.779848663324361535e-01 -3.769016359742174416e-01 2.201495253818361655e-02 4.003323877604920700e-01 -1.347567881825656733e-01 8.592622901664823121e-02 2.140875692904087302e-01 1.290315696300161907e-01
-4.731382545093333614e-02 -1.057670179229109331e-01 -7.436393631122452386e-02 -3.878077947935805736e-01 -1.340500610766473359e-02 2.899112083884900493e-01 -1.367483160622956218e-01 -1.610465205738685276e-02 3.128446053183485676e-01 1.787547349991566448e-01
-4.796360297072902595e-02 2.565211638334825156e-02 -3.009377541669922343e-02 -5.006394447601524300e-01 1.294529184855305604e-01 2.294078556354608722e-01 -1.180913607487676514e-01 -1.790703656008515998e-01 1.944259986024830245e-01 2.969196603903773712e-01
4.717643841050620651e-02 2.764115861224327939e-02 -1.802685419307067660e-01 -3.174385085589030986e-01 2.871112275117509993e-01 2.859780785410192538e-01 -2.439986725050812544e-01 -1.166352584605679782e-01 1.116622701908950577e-01 9.877180818884369329e-02
1.259260102385749147e-01 1.562469064061378921e-01 -2.181534006136666426e-01 1.095463025602541607e-01 -2.507592988938288081e-01 2.435562015810008585e-01 -1.476878221061166674e-01 1.381647515081569910e-01 -2.466364256500017116e-02 -1.321760081155124722e-01
2.116614370024773664e-02 5.435848754410550487e-01 -6.527960596699461382e-02 1.847678888067862124e-01 -8.648186622665131607e-01 1.930198783991021044e-02 -2.395815335806944779e-01 3.814028021239851407e-01 -1.532006956910979267e-02 3.477617347132779674e-02
-2.182631246484999787e-01 6.751437198937203510e-01 -8.221225928320713416e-02 1.144554498983759300e-01 -1.004214060825065341e-01 -1.293888372298737377e-01 -4.849869247815311590e-01 5.594070599503857544e-01 -2.119090785284445388e-01 -1.218245991884190083e-01
-4.469234079998097436e-02 3.126491470521750582e-01 -8.789456153204882119e-03 2.089249528861404914e-01 8.811117652863161573e-04 -1.805071875766073308e-01 -5.001184387659500796e-01 5.733348150227280948e-01 -3.493790279660051734e-01 -1.230357546457986305e-02
2.520710360705202824e-01 7.422980393199805904e-02 1.107898141163332073e-01 2.540550357199748421e-01 1.113365588500545844e-01 -4.877203880077063958e-01 -4.649430831036880374e-01 3.947229592576650403e-01 -2.050897421275339749e-01 -3.945199470761499849e-02
3.166075238583734852e-01 -1.443874486603129448e-01 8.442162993471667709e-02 2.652883976143575184e-01 -4.791245323329702821e-02 -4.496284637659965777e-01 -4.791106100817483227e-01 3.552881688068076360e-01 8.670657364021987223e-02 1.272668188687968091e-02
1.015241797687059244e-01 -2.083774994746033782e-01 1.128438930136315202e-02 1.875524731442416437e-01 1.395003592865858844e-01 -3.328129654101912305e-01 -4.395327512605461950e-01 3.602802888792860925e-01 1.950959323823074909e-01 -1.451440661714959238e-02
7.163703834128394565e-02 -2.799868099754971862e-01 -9.155763307143094387e-02 2.620652859943630175e-01 -5.082818800664026110e-02 -2.494244575435219380e-01 -2.713727164626688615e-01 3.500231702585315241e-01 1.423490125173436927e-01 1.170952979482352552e-01
1.173951500179363644e-01 -3.120890843850919749e-01 -8.908291194924840284e-02 1.380860475611851157e-01 -3.988918474850516177e-02 -4.796719578182517124e-02 -1.834096495057682408e-01 4.135030188969254783e-01 8.541715792979666377e-02 -8.196334803540498981e-02
1.712820968552101752e-01 -2.924367998109234090e-01 1.431929804199836252e-02 1.085802675713987975e-01 -1.255582088320765233e-01 4.167501004539229947e-02 -2.691164579352395836e-01 1.403378269801255351e-01 2.453170241497784343e-01 -3.440005706566380550e-02
4.611025221338604929e-01 -2.725569066657653194e-01 -2.010874075976173403e-01 -8.880343483429728457e-02 -3.305284133363381449e-01 5.188172832836714932e-01 -1.225495475081978536e-01 -7.201754361229675827e-02 2.923199262616353877e-01 -1.846964781246526466e-01
2.227836608940038932e-01 -2.128307482999290678e-01 -2.588272101304905370e-01 -1.936157509672557786e-01 -2.457727560117903554e-01 1.280666281399379214e+00 -2.397677272810265492e-01 -1.206514787156364871e-01 7.619456780018592397e-03 -2.396037276672718375e-01
-1.567603228698131179e-01 -7.515910212044046856e-02 -4.983289825885840046e-02 -2.038286824587358034e-02 -1.854375505554335946e-01 1.041072868997298340e+00 -2.923415102613153294e-01 -1.927955916827340035e-02 -1.195918861292338681e-01 -1.222871713880559069e-01
-6.975198263287051004e-02 -1.733402848604121554e-02 1.274036201765302648e-02 -4.290708368364994606e-03 -5.677176834659548865e-02 2.550566485649440884e-01 -1.014441343133049844e-01 6.190328699720128343e-03 8.261586174335346089e-03 -3.265630330947580373e-02
-7.304229426805599083e-04 6.058809330392983224e-04 -9.032983134403756208e-04 -1.608252803789609264e-04 -2.061973387844165569e-03 7.349266706811186101e-03 -1.585285970626426275e-02 7.649381436277897725e-03 1.146150886374277394e-02 -7.356658309262810100e-03
-3.030708959980173614e-05 -1.088093148703563283e-05 -2.342111842665909902e-05 -1.373778015665300524e-04 -1.205834963591639018e-04 -9.608776925822208040e-05 -1.353229922592298053e-05 1.454291919969694091e-03 -4.382308043154380068e-05 -9.782783336148158544e-04
5.382201578667055765e-03 -1.589032860800448325e-04 -4.071360243330739669e-04 -1.904925356621523132e-03 -1.083898980685487311e-02 -2.342030854767582822e-03 -3.936752530645693687e-04 4.411971509360993610e-02 -6.791707216729735413e-04 -3.277708536888233881e-02
-2.927435222384173075e-03 -4.701493578392296571e-04 -6.155479995633103898e-03 5.405772981444116609e-03 -8.396187257824426486e-02 -5.918290894323854218e-03 -1.329504011908970570e-03 2.330188837258841128e-01 -6.501964603961630541e-03 -1.311599600430327361e-01
6.398597273272713278e-03 -2.035266934229592456e-02 -6.896086574360281440e-02 1.903407760537607629e-01 -8.932884241687194526e-02 -7.489633924464043913e-02 -4.944291429265040838e-02 3.286197579449481321e-01 -3.346783059869389010e-02 -1.889096696332269454e-01
-1.493467102007128289e-01 -2.826922519605527470e-02 -1.165008104049914534e-01 9.464455803102991838e-02 -1.991667842842511083e-01 -4.854725911830128082e-02 -5.471638241041942158e-02 3.875124733652919873e-01 8.534154753211310729e-02 2.904859268629637892e-02
-8.150567357560566106e-02 -6.716892627796432202e-02 -1.271325980144930590e-01 -6.677594195214747730e-02 -1.040400137988923002e-01 -2.573303783982176102e-02 -7.342392793618031377e-02 2.047404600922544671e-01 1.555449825398416974e-01 1.854946767630084870e-01
-6.380775538218037835e-03 -1.536206313889466046e-01 -1.544504383219047206e-01 -2.020874279403671314e-01 -1.429187127169119324e-02 2.030333703730472505e-01 -9.303018499013863962e-02 2.401476539348815567e-02 1.680309041362151867e-01 2.287822895485160657e-01
4.139170526024886498e-02 -1.283850926959999583e-01 -4.215351792977863332e-01 -4.394653303962489654e-01 1.254156832423353879e-02 6.189112401295972232e-02 1.559568445591807406e-01 1.270601167305126233e-01 4.059759198516690870e-01 1.845683236512296321e-01
-8.424502766887635372e-03 -1.241849099478830182e-01 -4.217892709736173473e-01 -3.874187050052091963e-01 8.197868457378378049e-02 1.566967418533184442e-01 1.415820728774867254e-01 -6.098627892776953968e-02 2.559517749710844559e-01 3.665943933456922710e-01
-1.037408116871477021e-01 -1.514433169678165991e-01 -4.851377612116012927e-01 -3.211805140125393310e-01 3.177906801919568869e-01 5.532535705688620270e-02 7.416911546706829450e-02 1.456071358275167760e-01 2.681921553896341459e-01 2.004179599460422234e-01
-5.657919760436823375e-02 -1.753068169004423360e-01 -7.022528470800726286e-01 -3.121270774271763249e-01 3.206751820293740063e-01 1.484817333301904074e-01 7.109292518997550880e-02 2.313290142357155577e-01 2.101957517263880748e-01 2.644913325004131233e-01
4.114570397897675952e-02 -1.797972840040502618e-01 -5.801552999612216155e-01 -1.122152573076014570e-01 1.686763152392497800e-01 1.691879211722298881e-01 -5.173070427289397366e-02 1.499927296147854638e-01 1.355373685242201032e-01 2.593585070163071382e-01
-1.105099140016149034e-01 -7.937019717539193012e-03 -6.218704380142249244e-01 -3.530293130563454812e-02 2.831123795334768989e-01 1.374381971746958531e-01 6.803694695258465097e-02 -3.332566649181191443e-02 2.280055283867278015e-01 9.235291748333945838e-02
-2.358577569047728972e-02 2.296380446588704438e-01 -6.654667605437827316e-01 1.121200014751846663e-01 -4.769531465030953932e-01 4.267832141372740473e-01 1.385320227150809158e-01 9.373324019058419665e-02 2.069773265219932712e-01 -4.177816696163356991e-02
-3.062826854341967886e-01 6.625514395706417758e-01 -5.295952737426481427e-01 2.530968501843906537e-01 -7.703927536542173327e-01 5.389082454356761143e-02 -1.387926609097630826e-01 2.769849327895078650e-01 4.592906782461627091e-01 3.924864840655443304e-02
-6.260880162732103127e-01 7.437570299626767856e-01 -2.904447808779055951e-01 1.433116269792304998e-01 1.123372411137262827e-01 -1.844057214117293675e-01 -5.323147424512627568e-01 4.311646033087921381e-01 4.446708862197795015e-02 1.582156710277026479e-01
-4.599706658478089905e-01 1.918563347200051006e-01 -1.052059991369996145e-01 7.437405662005906054e-03 3.218301832341861068e-01 -1.442498091995177978e-01 -2.628432288594401700e-01 4.288929269412596335e-01 -2.156462815555305612e-01 2.378991340418414313e-01
-5.838319758871777371e-02 -5.888530498233207622e-02 -3.028521049512197250e-01 1.491642330879852651e-01 1.404165414604396644e-01 -1.329919417442216589e-01 -3.995895863744045595e-01 3.914138203518445214e-01 -8.464926681033443923e-02 3.563568075509603861e-01
-1.127707637881349562e-01 -4.106515431092511853e-02 -7.758341290649869992e-02 6.170341802708478179e-02 -7.003925483632234342e-03 -1.002119179426250867e-01 -3.488783685134399515e-01 4.897710385050397797e-01 -9.159146580156317385e-02 2.276305522146969962e-01
4.225352765618023421e-02 -1.034993642206188391e-01 1.448452034865402860e-01 1.703551712209394886e-01 -7.799726379615239125e-02 -3.618744233900403340e-01 -1.969344495648758797e-01 2.361800420132297296e-01 -8.451957434897600097e-03 1.551235140296957360e-01
1.272812809568197590e-01 -1.635278430374380310e-01 -8.903754238039644775e-02 2.535571162585953942e-01 -1.674902349488640030e-01 -5.392112118208889360e-01 -2.320849790852359262e-01 2.627229354395990701e-01 3.436709952018383862e-02 5.134233790976240330e-01
2.914693671795504648e-01 -1.521131778946817892e-01 -8.664003672017425717e-02 -4.183377309301090224e-02 -1.704833932274903707e-01 -4.059296694302623187e-01 -9.156825094835326084e-02 3.324825989071045207e-01 1.350991777288041394e-03 3.232653434500293299e-01
2.462701051878928571e-01 -1.473669897117303451e-01 -1.559072591655047066e-02 -9.017974282943262698e-02 -1.895060760799814059e-01 -3.682611382080106521e-01 -4.929165116564568350e-02 1.467443299555598879e-01 2.561571713345194290e-01 2.110247174333783615e-01
2.496961204952230784e-01 -1.260057346411468937e-01 -1.442181606698268725e-01 -1.420370434411117044e-01 -3.272093216338746724e-01 5.680425906690134141e-02 1.673241980107133542e-01 -1.254739148476719246e-01 4.625826707169767849e-01 -7.146307305618297689e-02
2.769984564349419198e-01 -1.147453160141122669e-01 -1.166729912440996053e-01 -1.547472242322140146e-01 -2.952107720751439568e-01 4.912188719136627579e-01 -8.386819062349865073e-02 -1.182364558749268574e-01 3.081740962907639214e-01 -1.929104745753736361e-01
-9.816567986402380264e-02 -6.888864522379603561e-02 4.958004629004200692e-02 -1.427617365966051899e-03 -1.383299681327397890e-01 6.349388449675547053e-01 -2.752263391313028440e-01 -3.431812830490776900e-02 3.324252679616476053e-02 -1.014050400310253508e-01
-3.866851531305185580e-02 -1.570972222064370705e-02 2.568129845359667235e-02 -2.527617150071035691e-03 -2.130733498609978585e-02 1.223295927164863017e-01 -1.398262215047356705e-01 -9.113346014007928098e-03 9.814882041036961102e-02 -1.900695439184253016e-02
-4.950608992806763671e-04 4.566885653460398334e-03 -1.674055508878753836e-04 -8.118694788347114127e-05 -8.628718682921160225e-04 4.460591752235308627e-03 -9.221605679239797126e-03 -2.273305460966234138e-03 6.301381171497149811e-03 -2.227422170642711068e-03
-9.209306325630078202e-06 -3.561858020852160796e-06 -1.305771880817506813e-05 -5.331184754440427247e-05 -1.374942679414317866e-05 -2.256141231423938092e-05 -4.933448808844403842e-06 1.773073155900183615e-03 -2.495229294292237903e-05 -1.627735844340971868e-03
-2.177609663268032728e-04 -5.460937441758467633e-05 -1.498912213243528118e-04 -2.117711312013861782e-03 -1.115475467939398835e-02 -7.942175500174179521e-04 -1.399491663280667689e-04 3.682056875464161105e-02 -2.331769321266059412e-04 -2.195849755269298556e-02
-1.956487391799748270e-03 -1.569137893505582635e-03 -9.919497551071892322e-04 -6.357140912902040260e-03 -6.970111181590510352e-02 -3.802052417030289851e-03 -9.672304421669677748e-04 1.872342636034390329e-01 -5.385386749456056062e-03 -9.650376622556580686e-02
-9.596603341820246144e-03 -1.291348363965807251e-03 -7.162023691722718688e-02 4.639058819177872828e-02 -1.244800557379708433e-01 -3.056771661697861228e-02 -3.940096220125617610e-02 3.211787681810827078e-01 6.949451983677139462e-03 -9.756188517731949339e-02
-1.850361540040739716e-01 1.083391863534669854e-02 -2.460069798907814353e-01 -8.099863691042247238e-02 -2.265760973784317067e-01 2.833969484589523441e-02 -6.131248189609231347e-02 4.186355838351596970e-01 5.881262326346376607e-02 2.833085294999354575e-01
4.188151897709162935e-02 -4.163798278614930237e-02 -4.487465672104168912e-01 -1.598388751509238481e-01 -1.416174351119077468e-01 -9.645963740984121737e-03 -4.426075120701568333e-02 1.608272555001803439e-01 2.292543394129028245e-01 4.137844613172232400e-01
1.400731017511587795e-01 -3.606830703933494586e-02 -6.259090098489731302e-01 -2.485555361447160660e-01 6.270051705806319042e-02 2.774651673035960497e-01 6.917251724605462393e-02 -2.106027243160196738e-02 7.173130703141471221e-02 3.104505150743389619e-01
6.903248962927967247e-02 -2.958197309861083923e-02 -8.151180414664869200e-01 -3.395848879179796387e-01 2.621495404543594532e-01 1.150864271390623778e-01 2.379071862814036431e-01 2.318487007078773032e-01 1.944594840859163176e-01 7.380107418517778406e-02
-8.835702955591644842e-03 -9.606313238631145057e-02 -5.299186854595399065e-01 -2.707111916385691597e-01 3.524536976171535052e-01 3.936397117453000784e-03 1.507431408401370687e-01 2.584250709782666688e-01 1.051629606301845120e-02 1.294541098239851973e-01
-8.203639608685503459e-02 -1.353536538693167479e-01 -5.411165686815615494e-01 -1.628700410320262637e-01 3.296247238653635114e-01 -5.774847138244842276e-02 1.375744387754378184e-01 4.642281433256116585e-02 2.213396992509714944e-01 2.441634548278733552e-01
-1.904445906764839483e-03 -2.631034313309537076e-01 -6.382582644446265219e-01 9.546040189463805836e-02 3.673318383570250978e-01 2.574986562503895904e-01 5.759547285544965034e-02 -1.427232885251139387e-02 -7.324641920655318439e-02 2.128985203839085516e-01
-7.454866295935111409e-02 -4.432304031862144833e-01 -5.902454240143518716e-01 -8.301506974707612008e-02 5.134291509766879535e-01 3.193392629104384595e-01 2.040100747076941667e-01 -4.515538232300403236e-03 1.906817760739473386e-02 1.397084319370772709e-01
4.861786852745466486e-02 -1.218430972431034098e-01 -4.963429398699487627e-01 1.848381469070074952e-03 7.187139988974614591e-01 2.595251749968024435e-01 1.490670812440747783e-01 -5.152417549266806729e-01 1.138947099856870565e-01 -1.582394230808160385e-01
-4.095272184449925273e-02 3.275299322707183602e-01 -5.952075084388434023e-01 1.061587659104730602e-01 7.519305018188826746e-03 3.503266370052547374e-01 1.057208301709510190e-01 -6.196319227704034649e-01 4.282036288587822148e-01 -6.966694618062413413e-02
-6.079265731435238296e-01 8.162544593969593976e-01 -4.033959468012219274e-01 4.415535341264566482e-01 -3.493720018533675864e-01 -7.104065621656510676e-03 -1.877962558475898824e-01 -2.176120324367240011e-01 2.920665000720701343e-01 2.233323821085981264e-01
-7.362256342920241448e-01 5.407595235371491782e-01 -4.274965291402567646e-01 1.852328349273006936e-01 1.719980614549481146e-01 -2.921008915847601514e-02 -3.156227753174400963e-01 1.895884339186150458e-01 4.822590965231547677e-02 3.727502644178655178e-01
-6.051594280887235833e-01 1.553687988258278252e-01 -4.423391429899035110e-01 1.696290831874952276e-01 4.138292149070766923e-01 -3.572643941404969881e-01 -4.614522111118792014e-02 4.251256881438434942e-01 9.426618277517501490e-03 2.775287829885491053e-01
-1.480511097686932620e-01 3.345856882874408827e-02 -3.800096072554431936e-01 1.313783855830732150e-01 8.985198771825844699e-02 -3.409727626566008696e-01 -9.044800202180365567e-02 3.658664391263924398e-01 -3.476297792888784211e-02 3.736890783749595712e-01
-7.800208418026086110e-02 7.383007456417038650e-02 -2.059609608501578315e-01 2.080764903760054796e-01 -4.007133051707541943e-02 -2.946774508767610601e-01 -1.346170387260836876e-01 2.078127723934451165e-01 -9.449545241428229658e-02 3.581049802310000696e-01
1.913464956259437050e-02 -1.629889088492279259e-01 4.819251164052135161e-02 -5.646633955529494625e-02 6.246472671803671162e-02 -3.375043155755191870e-01 -2.722385114832574504e-01 4.487339894256661688e-02 1.989614114365360342e-01 4.555713771630459652e-01
-1.559820880034683624e-02 -6.408512175612732231e-02 -4.510716112109572351e-02 -3.364200621971695504e-02 1.887220998022205165e-01 -4.867084026456519608e-01 -2.460257025007255571e-01 1.675651813379220589e-01 1.601256775111294384e-01 3.747536443923927263e-01
7.708342487615978122e-02 -3.744258631058451636e-02 1.305977621089377504e-02 -4.062390758394541779e-01 1.032335620667774734e-01 -6.249264544835337887e-01 5.001531756722636841e-03 6.753504901496547308e-02 3.330020039650130603e-01 4.696927687430414444e-01
2.720717772734571605e-01 -4.375228248863809871e-02 -1.064959028571072497e-01 -3.577712748414839106e-01 2.806676697279140292e-02 -8.466615559765223731e-01 2.820385719694980531e-01 8.210835052861105432e-02 3.431853587678522222e-01 3.472101906515419611e-01
4.136561400346794870e-01 -4.610767138868922949e-02 -2.704555196222180324e-01 -1.602593239665859870e-01 -1.545489785639904690e-01 -7.713858321982088873e-01 4.957127879552584715e-01 -1.309873051037654390e-01 5.257585427000519562e-01 9.861716015346622122e-02
3.854023798332132933e-01 -4.640559116462106976e-02 4.814635403626402882e-02 -8.110406388306318215e-02 -3.718207439597270153e-02 -4.682933835506415399e-01 1.519646661061288262e-01 -1.119092671212208595e-01 3.267544798106646886e-01 -1.673734996707514910e-01
-6.143246249100790812e-02 -3.293207409023723997e-02 2.453140094799354520e-01 1.134419504329689521e-02 -4.502555666119775757e-02 1.075013939736648300e-01 -1.612017405596037067e-01 -1.356416581901243035e-02 4.749158784993390975e-02 -9.749518672577166256e-02
-2.917710670732548070e-02 -1.071380181077435413e-02 1.162310586819776670e-01 -4.295667432768971567e-04 -8.352700096063748331e-03 9.724782303804614669e-02 -1.323760905204751925e-01 -7.074606189557534376e-04 -3.404233920848107834e-03 -2.831792130230432331e-02
-2.099460113315211422e-04 5.752189390438291507e-03 1.425349889377925186e-02 -1.219122782301188971e-04 -4.221576723326272464e-03 -2.538419261240308124e-03 -6.642020103126367904e-03 -6.050232970647997314e-04 -4.801050345736600222e-03 -8.657402641615178978e-04
0.000000000000000000e+00 0.000000000000000000e+00 0.000000000000000000e+00 0.000000000000000000e+00 0.000000000000000000e+00 0.000000000000000000e+00 0.000000000000000000e+00 0.000000000000000000e+00 0.000000000000000000e+00 0.000000000000000000e+00
-6.997897124124114571e-05 -1.458799297684115270e-05 -1.766711401851822996e-04 -1.348907271364161277e-03 -3.241771345181009706e-03 -2.032639260840911355e-04 -4.924129795367637139e-05 1.039234326907114217e-02 -6.529374558335066013e-05 -5.222627578501582227e-03
-9.272758638124761667e-04 -6.286711770973685883e-04 -5.230773249333872102e-04 -5.436546906194811464e-03 -4.483887543031767065e-02 -1.974086177422222210e-03 -4.845284775631553283e-04 1.133463664284532213e-01 -1.290608252375703832e-03 -5.724269681873621340e-02
-6.870046002893789687e-03 6.707956192010609831e-03 -6.828447582689113615e-02 1.674823437507372281e-02 -8.170451219666861886e-02 -1.104430305523493305e-02 -4.088099592197886462e-02 1.769244826517140934e-01 3.113243380534649576e-05 8.372527351063757325e-03
-1.405279853108120369e-01 1.969900050906630423e-02 -3.390308955593158147e-01 -1.645781456563258638e-01 -5.164742495811252415e-02 3.368388413162030220e-02 -8.135610593733906548e-02 2.916040217084813202e-01 -2.401686374839305874e-02 4.561705148211292471e-01
8.741981648681582118e-02 -2.498866110429966841e-02 -6.764890063030672973e-01 -2.977284565353802148e-01 9.376578452234932137e-02 1.220792353440562222e-01 3.202549559464334950e-02 1.315358149146028111e-01 1.097326439037222684e-01 4.226473331765572272e-01
2.481076267948067460e-01 -1.997968986553202639e-02 -8.131155060268453472e-01 -2.976973899645170563e-01 2.998459075470595869e-01 3.382447214105364919e-02 2.916215890152327739e-01 1.616889533860281780e-01 -2.307833197957380802e-02 1.187823689522872206e-01
2.635215576377306634e-01 -6.222038027879409072e-02 -7.003093685782775246e-01 -3.165868847294803223e-01 3.649073817620788751e-01 7.496690939338465642e-02 1.130985519515944615e-01 8.725488425283688121e-02 -3.924864180286387338e-02 2.146159903917900236e-01
9.446986460013150066e-02 6.773710807626313543e-04 -4.066771775986123272e-01 -2.134438916636894057e-01 3.431004938592001619e-01 4.994296485428996457e-02 1.014998872923807832e-02 -1.501690683454467296e-02 -1.018223498141074407e-01 2.386196427873287507e-01
1.182516409947729913e-01 -1.977342764783563689e-01 -3.401315142627174271e-01 -1.492950707044013170e-01 3.413753396925059413e-01 1.028768771940242327e-01 1.221154625936313742e-01 -1.024601105962816006e-01 -1.892410570577806803e-02 1.239257572726004397e-01
2.233359002762107248e-01 -5.728993020090700217e-01 -1.304412925051514904e-01 -8.840828821508088520e-02 4.059451878248491186e-01 1.607431399450227061e-01 1.644605646517327546e-01 -2.663051085242203880e-02 -1.928974655077424216e-01 5.679206639164982584e-02
7.483495315953034299e-02 -5.640091346767932556e-01 1.040483587957686668e-01 -2.404767289969885757e-01 5.862695120536010052e-01 2.248643346506278562e-01 5.802881331040231350e-02 -4.149506362444099206e-01 1.200572273946989565e-01 5.133330055356274957e-02
9.710235244811527000e-02 -6.810230300974387530e-02 -1.076085871003166355e-01 9.527929575370336357e-02 4.566132664741087699e-01 3.395792780937892386e-01 1.343917892418013127e-01 -9.318251991059162131e-01 2.764903590449322990e-01 -2.919202518404714897e-01
-4.123867822817828821e-01 3.107594631386571549e-01 7.200727707586354609e-02 3.567708025321317256e-01 -1.324435431685431763e-01 2.052360314575859823e-01 2.948307184648794876e-02 -9.036739783799156989e-01 3.838614292013322604e-01 9.038622857818201517e-02
-6.802843905762026022e-01 5.879258573225430995e-01 2.494103896476275797e-02 2.940366494950849008e-01 -1.571813132488978915e-01 -2.574674326026530138e-02 -9.391291899090739581e-02 -1.557534421518508572e-01 -1.228921202741748743e-02 2.182644744731488673e-01
-7.872857642619324192e-01 4.058713880860139733e-01 -3.255431266283582703e-01 -1.039404644018188245e-01 2.324250153462938395e-01 -2.292355279436419091e-01 4.799696620082726656e-02 8.572841989731637413e-02 3.479834421599586891e-01 3.259996515453413291e-01
-6.598348221540611958e-01 1.955493777169755032e-01 -2.607276498511418295e-01 2.685381517017736142e-02 3.924656434691134455e-01 -5.227170775076726006e-01 7.065939451668651339e-02 2.223908234092251135e-01 1.703917624490490224e-01 3.649687327816440452e-01
-1.850073265618828733e-01 1.659845713874949780e-01 -1.303903181970054448e-01 6.146080661877741103e-02 2.556760773392670605e-01 -2.422807582236348178e-01 -1.890959550121902311e-01 7.804250224553814334e-03 -1.477299043199366557e-01 4.035785567445560051e-01
-4.346031301849643397e-02 -7.644138970465869098e-02 -8.440078212005862335e-02 1.230939184067062903e-01 1.821323678887361297e-01 -1.599173942674171345e-01 -1.676303215997708429e-01 3.462907871348112204e-02 -6.616784325894430052e-02 2.581626789604233307e-01
-1.342400414148447463e-01 -2.091710035620595320e-01 -4.961113646916548436e-02 -1.719690150510107818e-01 2.082329770733355734e-01 -1.217977357569802604e-01 8.367805145685705548e-03 -9.716781334532098580e-02 1.411107996975397294e-01 4.262451636828206714e-01
-1.618117040866981771e-01 -1.251527936972320898e-01 -8.001811292269736531e-02 -3.936660493055382792e-01 3.015755863648233448e-01 -1.836412919794403187e-01 -4.213768189322308205e-02 1.517676977943064887e-01 2.628444150321087580e-01 2.702399346935889790e-01
-5.828576222919217009e-02 -8.959245365176578269e-02 1.335698865253071022e-01 -4.057011271459332047e-01 2.384137804594207155e-01 -3.058214083012462114e-01 1.857815524162516885e-01 -5.149751742506792317e-03 -5.170410123033495481e-02 3.584893848999990973e-01
1.915905911290123886e-01 -9.263770896913278707e-02 -1.525903839329232070e-01 -4.403653140807810562e-01 1.986817369116219423e-01 -3.494755087876618149e-01 3.683753338070638872e-01 4.401343213358819423e-02 1.119600991742425583e-01 1.204477226149712893e-01
4.168001217895996313e-01 -9.468632817072389352e-02 -9.107772011003514856e-02 -1.822385086935657261e-01 -3.253317906422702882e-02 -5.688425248841990634e-01 6.036649071341183559e-01 -2.371970877636168581e-02 1.353789045088292509e-01 -1.627459637334348896e-01
3.380160827641252586e-01 -7.423886941498737679e-02 2.460286859944862403e-01 -5.201235712869731881e-02 -9.501995441408124521e-02 -4.526138159525168736e-01 2.207424840383527542e-01 2.390764720947819236e-02 9.118369157596363517e-02 -2.459935946721237832e-01
-2.989100607788471205e-03 -4.129956452473917267e-02 3.479401571150989025e-01 2.491073393776651809e-03 -1.963070377833099969e-02 -5.283404425312966668e-02 -1.454711845791855362e-01 2.130902759418932049e-02 1.081202765863543101e-02 -1.203276880185262104e-01
